{"learner":{"attributes":{"best_iteration":"186","best_score":"0.2508562419226493"},"feature_names":[],"feature_types":[],"gradient_booster":{"model":{"cats":{"enc":[],"feature_segments":[],"sorted_idx":[]},"gbtree_model_param":{"num_parallel_tree":"1","num_trees":"237"},"iteration_indptr":[0,1,2,3,4,5,6,7,8,9,10,11,12,13,14,15,16,17,18,19,20,21,22,23,24,25,26,27,28,29,30,31,32,33,34,35,36,37,38,39,40,41,42,43,44,45,46,47,48,49,50,51,52,53,54,55,56,57,58,59,60,61,62,63,64,65,66,67,68,69,70,71,72,73,74,75,76,77,78,79,80,81,82,83,84,85,86,87,88,89,90,91,92,93,94,95,96,97,98,99,100,101,102,103,104,105,106,107,108,109,110,111,112,113,114,115,116,117,118,119,120,121,122,123,124,125,126,127,128,129,130,131,132,133,134,135,136,137,138,139,140,141,142,143,144,145,146,147,148,149,150,151,152,153,154,155,156,157,158,159,160,161,162,163,164,165,166,167,168,169,170,171,172,173,174,175,176,177,178,179,180,181,182,183,184,185,186,187,188,189,190,191,192,193,194,195,196,197,198,199,200,201,202,203,204,205,206,207,208,209,210,211,212,213,214,215,216,217,218,219,220,221,222,223,224,225,226,227,228,229,230,231,232,233,234,235,236,237],"tree_info":[0,0,0,0,0,0,0,0,0,0,0,0,0,0,0,0,0,0,0,0,0,0,0,0,0,0,0,0,0,0,0,0,0,0,0,0,0,0,0,0,0,0,0,0,0,0,0,0,0,0,0,0,0,0,0,0,0,0,0,0,0,0,0,0,0,0,0,0,0,0,0,0,0,0,0,0,0,0,0,0,0,0,0,0,0,0,0,0,0,0,0,0,0,0,0,0,0,0,0,0,0,0,0,0,0,0,0,0,0,0,0,0,0,0,0,0,0,0,0,0,0,0,0,0,0,0,0,0,0,0,0,0,0,0,0,0,0,0,0,0,0,0,0,0,0,0,0,0,0,0,0,0,0,0,0,0,0,0,0,0,0,0,0,0,0,0,0,0,0,0,0,0,0,0,0,0,0,0,0,0,0,0,0,0,0,0,0,0,0,0,0,0,0,0,0,0,0,0,0,0,0,0,0,0,0,0,0,0,0,0,0,0,0,0,0,0,0,0,0,0,0,0,0,0,0,0,0,0,0,0,0,0,0,0,0,0,0],"trees":[{"base_weights":[7.909661E-4,-2.0587318E0,1.0068421E0,-7.444415E-1,-2.4515913E0,2.8925467E-2,1.3837737E0,-1.4621379E0,1.1621195E-1,-2.6846976E0,-1.4104942E0,-1.5755016E-1,8.636338E-1,3.8474777E-1,1.4712857E0,-2.0240576E0,-9.0351343E-1,-2.2829239E-1,3.8395444E-1,-2.7281864E0,-2.313732E0,-1.8184798E0,-2.1445352E-1,-8.5186267E-1,-6.590449E-2,5.488664E-1,1.0227433E0,-3.6634874E-2,9.186908E-1,1.146691E0,1.5182705E0,-2.378173E0,-1.584747E0,-6.437991E-1,-1.6244786E0,-9.905888E-2,-8.760266E-1,6.6329545E-1,2.0985812E-1,-2.7295477E0,1.1708328E-1,-2.5064049E0,-1.4195231E0,-2.0824199E0,-1.4664922E0,-6.231674E-1,8.507648E-2,-1.2155409E0,-5.8864284E-1,-1.4275488E-1,4.277194E-1,2.8513986E-1,7.453963E-1,8.994815E-1,1.1672075E0,-1.3244855E-1,1.244127E0,6.868879E-1,1.2505168E0,3.4209844E-1,1.326807E0,1.1611264E0,1.5243036E0,-1.4678967E-1,-2.0316024E-1,-1.4472373E-1,-8.408434E-2,-8.087858E-2,-3.8679525E-2,-1.7549583E-1,-9.7582825E-2,-3.2080825E-2,1.0297711E-2,-1.1670462E-1,-4.0100116E-2,3.918594E-2,7.10747E-2,2.271734E-2,-1.9234892E-2,-2.2095096E-1,-2.10794E-1,-2.0939854E-1,-1.9116184E-1,-8.548057E-2,-1.9004068E-1,3.0911317E-2,-1.6955641E-1,-1.4257291E-1,-9.118716E-2,-8.283533E-2,-2.5993105E-2,5.059374E-2,-1.7874492E-2,-7.605972E-2,-1.11678824E-1,-8.696328E-2,-3.8794212E-2,-5.334015E-2,-7.257817E-3,2.1030728E-2,5.192731E-2,2.4338264E-2,-1.721052E-1,7.533373E-2,4.4599265E-2,6.0105722E-2,8.5505925E-2,6.5805584E-2,9.556625E-2,-2.2497613E-2,1.0922964E-2,-8.384191E-2,1.0784007E-1,4.65551E-2,8.331459E-2,9.174576E-2,1.1654515E-1,-5.9012263E-3,5.290268E-2,9.373529E-2,1.1133353E-1,1.0505357E-3,1.1366511E-1,1.2216818E-1,8.5971735E-2],"categories":[],"categories_nodes":[],"categories_segments":[],"categories_sizes":[],"default_left":[0,0,0,0,0,0,0,0,0,0,0,0,0,0,0,0,0,0,0,0,0,0,0,0,0,0,0,0,0,0,0,0,0,0,0,0,0,0,0,0,0,0,0,0,0,0,0,0,0,0,0,0,0,0,0,0,0,0,0,0,0,0,0,0,0,0,0,0,0,0,0,0,0,0,0,0,0,0,0,0,0,0,0,0,0,0,0,0,0,0,0,0,0,0,0,0,0,0,0,0,0,0,0,0,0,0,0,0,0,0,0,0,0,0,0,0,0,0,0,0,0,0,0,0,0],"id":0,"left_children":[1,3,5,7,9,11,13,15,17,19,21,23,25,27,29,31,33,35,37,39,41,43,45,47,49,51,53,55,57,59,61,63,65,67,69,71,73,75,77,79,-1,81,83,85,87,89,91,93,95,97,99,101,103,105,107,109,111,113,115,117,119,121,123,-1,-1,-1,-1,-1,-1,-1,-1,-1,-1,-1,-1,-1,-1,-1,-1,-1,-1,-1,-1,-1,-1,-1,-1,-1,-1,-1,-1,-1,-1,-1,-1,-1,-1,-1,-1,-1,-1,-1,-1,-1,-1,-1,-1,-1,-1,-1,-1,-1,-1,-1,-1,-1,-1,-1,-1,-1,-1,-1,-1,-1,-1],"loss_changes":[7.4252906E5,6.0722688E4,8.874536E4,1.6718502E4,2.1969625E4,1.0426115E4,1.5192219E4,4.63099E3,1.1353756E3,1.187125E3,8.0833867E3,3.483834E3,6.120283E2,3.1494429E3,2.4350312E3,1.1407207E3,1.3851108E3,4.5052997E2,3.3669006E2,3.8175E2,1.3349688E3,1.1445352E3,5.160335E2,6.104238E2,1.8349302E3,2.1276074E2,1.4360547E2,9.603396E2,4.740547E2,2.928045E3,2.99E2,3.5220508E2,3.915127E2,3.199546E2,4.487964E2,3.0879062E2,1.9480261E2,1.03403564E2,1.425034E2,1.9525E2,0E0,7.671094E1,4.6038574E2,6.4603906E2,5.441338E2,2.1885925E2,4.1100195E2,1.2670703E2,1.9101794E2,1.1410597E3,2.3760217E2,8.2331726E1,8.6288574E1,1.0928589E2,3.4265625E1,2.9139557E2,1.3110309E2,1.347312E2,5.262329E1,4.9085806E2,1.6448828E2,6.924568E2,1.7109375E2,0E0,0E0,0E0,0E0,0E0,0E0,0E0,0E0,0E0,0E0,0E0,0E0,0E0,0E0,0E0,0E0,0E0,0E0,0E0,0E0,0E0,0E0,0E0,0E0,0E0,0E0,0E0,0E0,0E0,0E0,0E0,0E0,0E0,0E0,0E0,0E0,0E0,0E0,0E0,0E0,0E0,0E0,0E0,0E0,0E0,0E0,0E0,0E0,0E0,0E0,0E0,0E0,0E0,0E0,0E0,0E0,0E0,0E0,0E0,0E0,0E0,0E0],"parents":[2147483647,0,0,1,1,2,2,3,3,4,4,5,5,6,6,7,7,8,8,9,9,10,10,11,11,12,12,13,13,14,14,15,15,16,16,17,17,18,18,19,19,20,20,21,21,22,22,23,23,24,24,25,25,26,26,27,27,28,28,29,29,30,30,31,31,32,32,33,33,34,34,35,35,36,36,37,37,38,38,39,39,41,41,42,42,43,43,44,44,45,45,46,46,47,47,48,48,49,49,50,50,51,51,52,52,53,53,54,54,55,55,56,56,57,57,58,58,59,59,60,60,61,61,62,62],"right_children":[2,4,6,8,10,12,14,16,18,20,22,24,26,28,30,32,34,36,38,40,42,44,46,48,50,52,54,56,58,60,62,64,66,68,70,72,74,76,78,80,-1,82,84,86,88,90,92,94,96,98,100,102,104,106,108,110,112,114,116,118,120,122,124,-1,-1,-1,-1,-1,-1,-1,-1,-1,-1,-1,-1,-1,-1,-1,-1,-1,-1,-1,-1,-1,-1,-1,-1,-1,-1,-1,-1,-1,-1,-1,-1,-1,-1,-1,-1,-1,-1,-1,-1,-1,-1,-1,-1,-1,-1,-1,-1,-1,-1,-1,-1,-1,-1,-1,-1,-1,-1,-1,-1,-1,-1],"split_conditions":[4.9468085E-1,2.9E2,5.1648355E-1,5.113636E-1,4.6666667E-1,5.058824E-1,2.6812933E1,4.9473685E-1,5.466667E-1,4.473684E-1,5.121951E-1,4.814815E-1,5.017452E-1,4.868421E-1,1.1891892E0,4.6666667E-1,1.38E2,1E0,5.416667E-1,1.7E1,5.151515E-1,9.4E-1,5.283019E-1,1.0138888E0,1.0243902E0,5.25E-1,5.365854E-1,4.74E2,5.058824E-1,4.888889E-1,2.19E2,3.0116241E1,9E0,4.6666667E-1,4.765625E-1,8.8129497E-1,8.876405E-1,4.5864663E-1,1E0,4.7619048E-1,1.1708328E-1,4.7619048E-1,4.2144095E2,3E0,5E-1,9.306931E-1,1E0,5E0,4.1621622E-1,5E-1,2.01E2,1.226E3,1E0,1.52612E2,2.1578909E1,4.53125E-1,1.3157895E-1,1.65E2,5.7723576E-1,1E0,5.058824E-1,4.8E-1,1.3E1,-1.4678967E-1,-2.0316024E-1,-1.4472373E-1,-8.408434E-2,-8.087858E-2,-3.8679525E-2,-1.7549583E-1,-9.7582825E-2,-3.2080825E-2,1.0297711E-2,-1.1670462E-1,-4.0100116E-2,3.918594E-2,7.10747E-2,2.271734E-2,-1.9234892E-2,-2.2095096E-1,-2.10794E-1,-2.0939854E-1,-1.9116184E-1,-8.548057E-2,-1.9004068E-1,3.0911317E-2,-1.6955641E-1,-1.4257291E-1,-9.118716E-2,-8.283533E-2,-2.5993105E-2,5.059374E-2,-1.7874492E-2,-7.605972E-2,-1.11678824E-1,-8.696328E-2,-3.8794212E-2,-5.334015E-2,-7.257817E-3,2.1030728E-2,5.192731E-2,2.4338264E-2,-1.721052E-1,7.533373E-2,4.4599265E-2,6.0105722E-2,8.5505925E-2,6.5805584E-2,9.556625E-2,-2.2497613E-2,1.0922964E-2,-8.384191E-2,1.0784007E-1,4.65551E-2,8.331459E-2,9.174576E-2,1.1654515E-1,-5.9012263E-3,5.290268E-2,9.373529E-2,1.1133353E-1,1.0505357E-3,1.1366511E-1,1.2216818E-1,8.5971735E-2],"split_indices":[48,26,48,49,48,49,59,49,49,48,49,49,48,49,62,48,10,17,56,20,49,62,49,62,62,49,49,18,49,49,18,57,39,48,48,62,62,48,17,49,0,49,52,30,49,62,17,27,55,48,1,18,17,45,59,49,49,18,48,8,49,49,28,0,0,0,0,0,0,0,0,0,0,0,0,0,0,0,0,0,0,0,0,0,0,0,0,0,0,0,0,0,0,0,0,0,0,0,0,0,0,0,0,0,0,0,0,0,0,0,0,0,0,0,0,0,0,0,0,0,0,0,0,0,0],"split_type":[0,0,0,0,0,0,0,0,0,0,0,0,0,0,0,0,0,0,0,0,0,0,0,0,0,0,0,0,0,0,0,0,0,0,0,0,0,0,0,0,0,0,0,0,0,0,0,0,0,0,0,0,0,0,0,0,0,0,0,0,0,0,0,0,0,0,0,0,0,0,0,0,0,0,0,0,0,0,0,0,0,0,0,0,0,0,0,0,0,0,0,0,0,0,0,0,0,0,0,0,0,0,0,0,0,0,0,0,0,0,0,0,0,0,0,0,0,0,0,0,0,0,0,0,0],"sum_hessian":[3.58364E5,1.17606516E5,2.4075748E5,2.7064984E4,9.054153E4,6.69813E4,1.7377617E5,1.4757799E4,1.2307186E4,7.397631E4,1.6565219E4,5.475069E4,1.223061E4,1.3996728E4,1.5977945E5,7.3558936E3,7.4019053E3,5.382136E3,6.9250493E3,6.620829E4,7.768026E3,1.2351451E4,4.213767E3,6.3831685E3,4.8367523E4,4.1080605E3,8.12255E3,7.82346E3,6.1732676E3,2.0206672E4,1.3957278E5,4.070427E3,3.2854666E3,5.443043E3,1.9588622E3,4.4878833E3,8.9425287E2,2.6577795E3,4.26727E3,6.618715E4,2.1144516E1,6.389494E3,1.3785315E3,7.0557446E3,5.2957065E3,1.7816263E3,2.4321406E3,2.678624E3,3.7045444E3,4.1852395E4,6.515126E3,1.7551923E3,2.3528682E3,4.3868E3,3.73575E3,7.279759E3,5.4370154E2,3.636203E3,2.5370645E3,3.6965938E3,1.6510078E4,2.3218088E3,1.3725097E5,9.3478284E2,3.135644E3,2.3115723E3,9.7389417E2,1.6525425E3,3.7905005E3,8.121356E2,1.1467266E3,1.929426E3,2.5584575E3,3.488669E2,5.453859E2,1.502932E3,1.1548474E3,3.6645364E3,6.0273346E2,4.9307145E4,1.6880002E4,3.2651384E3,3.124356E3,1.00985394E3,3.686775E2,1.0414159E2,6.951603E3,2.6908643E3,2.6048425E3,7.4682404E2,1.0348024E3,8.7633044E2,1.55581E3,1.0881222E3,1.5905018E3,6.364817E2,3.0680627E3,3.7794202E3,3.8072977E4,3.7356895E3,2.7794365E3,1.7424164E3,1.2775856E1,1.1488419E3,1.2040261E3,2.3426357E3,2.044164E3,2.771443E2,3.4586057E3,4.687263E3,2.5924954E3,2.3176804E1,5.205247E2,2.8077256E3,8.284772E2,1.6927627E3,8.443019E2,1.6055299E3,2.091064E3,4.873738E3,1.1636341E4,4.285184E2,1.8932904E3,1.3639958E5,8.5139246E2],"tree_param":{"num_deleted":"0","num_feature":"65","num_nodes":"125","size_leaf_vector":"1"}},{"base_weights":[2.0390225E-3,-1.7887189E0,9.68133E-1,-4.2960557E-1,-2.105714E0,8.60127E-2,1.336235E0,-9.733498E-1,8.047202E-2,-2.322096E0,-1.2051947E0,-1.0116108E-1,9.012833E-1,4.3869254E-1,1.4213492E0,-1.7396288E0,-7.110291E-1,1.971118E-1,-1.9772772E0,-2.373089E0,-1.951635E0,-1.5695711E0,-2.4583896E-1,-7.3329586E-1,-2.8593466E-2,5.843235E-1,1.024143E0,-1.22291565E-1,9.818454E-1,1.1319388E0,1.4553531E0,-1.1146625E0,-2.1492553E0,-3.1227672E-1,-9.7422737E-1,-6.442755E-2,3.9078385E-1,-2.2419279E0,2.7949584E-1,-2.374232E0,1.1244455E-1,-2.1210866E0,-1.0118241E0,-1.8236923E0,-1.2937558E0,-5.2723545E-1,7.042733E-2,-1.0371902E0,-4.9820578E-1,-1.2083297E-1,4.078859E-1,3.8050538E-1,7.846529E-1,9.081149E-1,1.1530343E0,-2.2812149E-1,2.294365E-1,6.7137945E-1,1.2612957E0,3.3084264E-1,1.2881811E0,1.0427015E0,1.4589893E0,-1.541867E-1,-6.7342244E-2,-1.7968492E-1,-1.2605916E-1,-6.042646E-2,-1.890586E-2,-8.08772E-2,1.1747582E-1,-2.7626408E-2,1.4892512E-2,1.4885423E-2,4.736243E-2,-1.8557148E-1,5.1874984E-2,3.2905433E-2,-1.6126035E-1,-1.2677144E-1,-1.9033387E-1,-1.8060932E-1,-1.5981828E-1,-1.9658888E-2,-1.1621551E-1,-1.6845284E-1,-1.3588624E-1,-1.2573117E-1,-8.520634E-2,-1.7819574E-2,-6.8180725E-2,5.0897975E-2,-1.5730606E-2,-1.9253796E-2,-8.70655E-2,-7.675457E-2,-2.8616508E-2,-5.708124E-2,-6.98743E-3,9.5160044E-4,4.350065E-2,3.4072805E-2,-4.337357E-2,8.148346E-2,5.3044498E-2,6.078763E-2,8.438478E-2,8.1599236E-2,9.915534E-2,1.452636E-3,-3.393921E-2,7.8114592E-3,4.742245E-2,4.4095468E-2,8.256889E-2,8.892482E-2,1.09097764E-1,-7.072749E-3,5.4201767E-2,9.688609E-2,1.1225943E-1,9.678303E-2,-4.618774E-3,1.0915877E-1,1.1739276E-1],"categories":[],"categories_nodes":[],"categories_segments":[],"categories_sizes":[],"default_left":[0,0,0,0,0,0,0,0,0,0,0,0,0,0,0,0,0,0,0,0,0,0,0,0,0,0,0,0,0,0,0,0,0,0,0,0,0,0,0,0,0,0,0,0,0,0,0,0,0,0,0,0,0,0,0,0,0,0,0,0,0,0,0,0,0,0,0,0,0,0,0,0,0,0,0,0,0,0,0,0,0,0,0,0,0,0,0,0,0,0,0,0,0,0,0,0,0,0,0,0,0,0,0,0,0,0,0,0,0,0,0,0,0,0,0,0,0,0,0,0,0,0,0,0,0],"id":1,"left_children":[1,3,5,7,9,11,13,15,17,19,21,23,25,27,29,31,33,35,37,39,41,43,45,47,49,51,53,55,57,59,61,63,65,67,69,71,73,75,77,79,-1,81,83,85,87,89,91,93,95,97,99,101,103,105,107,109,111,113,115,117,119,121,123,-1,-1,-1,-1,-1,-1,-1,-1,-1,-1,-1,-1,-1,-1,-1,-1,-1,-1,-1,-1,-1,-1,-1,-1,-1,-1,-1,-1,-1,-1,-1,-1,-1,-1,-1,-1,-1,-1,-1,-1,-1,-1,-1,-1,-1,-1,-1,-1,-1,-1,-1,-1,-1,-1,-1,-1,-1,-1,-1,-1,-1,-1],"loss_changes":[6.179321E5,5.3925188E4,7.5336125E4,6.5659893E3,1.9774094E4,1.0424287E4,1.2505E4,2.3020898E3,2.9323865E3,1.5411562E3,6.8738594E3,2.5485505E3,4.9610547E2,4.320928E3,1.4697812E3,7.4554004E2,8.957798E2,5.8564764E2,3.9205737E2,3.1403125E2,1.5754961E3,9.965547E2,4.818871E2,4.082124E2,2.0065437E3,1.4527759E2,1.3640137E2,2.5974664E2,6.242471E2,1.9678164E3,1.9925E2,2.5536438E2,9.4384766E1,1.1411264E2,4.6299072E2,3.4636417E2,2.7355988E2,1.3329346E2,2.1911366E1,2.7678125E2,0E0,1.3683594E2,5.1140845E2,2.5801953E2,4.3282617E2,2.833695E2,3.8544604E2,1.01323975E2,2.0881372E2,8.166006E2,4.6781152E2,7.4350586E1,5.0435303E1,1.04501465E2,4.874707E1,2.590646E2,7.723772E1,1.4749573E2,5.6621582E1,3.7327505E2,1.1503906E2,2.1559204E2,1.035625E2,0E0,0E0,0E0,0E0,0E0,0E0,0E0,0E0,0E0,0E0,0E0,0E0,0E0,0E0,0E0,0E0,0E0,0E0,0E0,0E0,0E0,0E0,0E0,0E0,0E0,0E0,0E0,0E0,0E0,0E0,0E0,0E0,0E0,0E0,0E0,0E0,0E0,0E0,0E0,0E0,0E0,0E0,0E0,0E0,0E0,0E0,0E0,0E0,0E0,0E0,0E0,0E0,0E0,0E0,0E0,0E0,0E0,0E0,0E0,0E0,0E0,0E0],"parents":[2147483647,0,0,1,1,2,2,3,3,4,4,5,5,6,6,7,7,8,8,9,9,10,10,11,11,12,12,13,13,14,14,15,15,16,16,17,17,18,18,19,19,20,20,21,21,22,22,23,23,24,24,25,25,26,26,27,27,28,28,29,29,30,30,31,31,32,32,33,33,34,34,35,35,36,36,37,37,38,38,39,39,41,41,42,42,43,43,44,44,45,45,46,46,47,47,48,48,49,49,50,50,51,51,52,52,53,53,54,54,55,55,56,56,57,57,58,58,59,59,60,60,61,61,62,62],"right_children":[2,4,6,8,10,12,14,16,18,20,22,24,26,28,30,32,34,36,38,40,42,44,46,48,50,52,54,56,58,60,62,64,66,68,70,72,74,76,78,80,-1,82,84,86,88,90,92,94,96,98,100,102,104,106,108,110,112,114,116,118,120,122,124,-1,-1,-1,-1,-1,-1,-1,-1,-1,-1,-1,-1,-1,-1,-1,-1,-1,-1,-1,-1,-1,-1,-1,-1,-1,-1,-1,-1,-1,-1,-1,-1,-1,-1,-1,-1,-1,-1,-1,-1,-1,-1,-1,-1,-1,-1,-1,-1,-1,-1,-1,-1,-1,-1,-1,-1,-1,-1,-1,-1,-1,-1],"split_conditions":[4.964029E-1,2.9331509E1,5.2E-1,5.135135E-1,8.876405E-1,5.058824E-1,2.14E2,8.176796E-1,5.7E2,8.176796E-1,5.084746E-1,4.7619048E-1,5.0256413E-1,4.857143E-1,5.4310346E-1,2.0329796E1,2.069724E1,5.5E-1,4.60733E-1,1.7E1,5.185185E-1,4.856397E-1,5.283019E-1,1.0243902E0,1.0243902E0,5.294118E-1,5.365854E-1,4.625E-1,5.084746E-1,4.848485E-1,3.617021E-1,4.2647058E-1,1.2E1,4.642857E-1,1.1222222E2,4.7191012E-1,4.543919E-1,1.2E1,8.58E2,1.5E2,1.1244455E-1,4.7368422E-1,1E0,4.625E-1,4.888889E-1,1E0,1E0,1.5132104E1,4.6276596E-1,5E-1,4.918033E-1,3.8060577E1,5.2427185E-1,5.103448E-1,1.5E1,1.6846432E1,1.2413793E0,1E2,7.3E1,1E0,5.365854E-1,1.2E1,5.609574E-1,-1.541867E-1,-6.7342244E-2,-1.7968492E-1,-1.2605916E-1,-6.042646E-2,-1.890586E-2,-8.08772E-2,1.1747582E-1,-2.7626408E-2,1.4892512E-2,1.4885423E-2,4.736243E-2,-1.8557148E-1,5.1874984E-2,3.2905433E-2,-1.6126035E-1,-1.2677144E-1,-1.9033387E-1,-1.8060932E-1,-1.5981828E-1,-1.9658888E-2,-1.1621551E-1,-1.6845284E-1,-1.3588624E-1,-1.2573117E-1,-8.520634E-2,-1.7819574E-2,-6.8180725E-2,5.0897975E-2,-1.5730606E-2,-1.9253796E-2,-8.70655E-2,-7.675457E-2,-2.8616508E-2,-5.708124E-2,-6.98743E-3,9.5160044E-4,4.350065E-2,3.4072805E-2,-4.337357E-2,8.148346E-2,5.3044498E-2,6.078763E-2,8.438478E-2,8.1599236E-2,9.915534E-2,1.452636E-3,-3.393921E-2,7.8114592E-3,4.742245E-2,4.4095468E-2,8.256889E-2,8.892482E-2,1.09097764E-1,-7.072749E-3,5.4201767E-2,9.688609E-2,1.1225943E-1,9.678303E-2,-4.618774E-3,1.0915877E-1,1.1739276E-1],"split_indices":[48,60,48,49,62,49,18,62,26,62,49,49,48,49,48,60,60,49,48,20,49,48,49,62,62,49,49,49,49,49,49,49,22,49,43,48,48,20,34,26,0,49,17,49,49,17,17,60,55,49,49,60,56,48,22,60,62,1,1,8,49,28,48,0,0,0,0,0,0,0,0,0,0,0,0,0,0,0,0,0,0,0,0,0,0,0,0,0,0,0,0,0,0,0,0,0,0,0,0,0,0,0,0,0,0,0,0,0,0,0,0,0,0,0,0,0,0,0,0,0,0,0,0,0,0],"split_type":[0,0,0,0,0,0,0,0,0,0,0,0,0,0,0,0,0,0,0,0,0,0,0,0,0,0,0,0,0,0,0,0,0,0,0,0,0,0,0,0,0,0,0,0,0,0,0,0,0,0,0,0,0,0,0,0,0,0,0,0,0,0,0,0,0,0,0,0,0,0,0,0,0,0,0,0,0,0,0,0,0,0,0,0,0,0,0,0,0,0,0,0,0,0,0,0,0,0,0,0,0,0,0,0,0,0,0,0,0,0,0,0,0,0,0,0,0,0,0,0,0,0,0,0,0],"sum_hessian":[3.5717584E5,1.2516618E5,2.3200967E5,2.367259E4,1.0149359E5,6.8310805E4,1.6369888E5,1.145772E4,1.221487E4,8.182954E4,1.9664049E4,5.5556703E4,1.2754102E4,1.4179526E4,1.4951934E5,2.9205916E3,8.537128E3,1.1560489E4,6.5438116E2,7.1924E4,9.905544E3,1.4250774E4,5.413275E3,5.720084E3,4.983662E4,3.5643528E3,9.189749E3,6.975648E3,7.2038784E3,1.5724175E4,1.3379517E5,1.1578236E3,1.7627681E3,3.3953179E3,5.14181E3,4.918754E3,6.6417354E3,5.8570264E2,6.867848E1,7.190262E4,2.1380516E1,8.391302E3,1.5142418E3,7.414161E3,6.836614E3,2.8641995E3,2.5490754E3,2.4934536E3,3.2266301E3,4.1142797E4,8.693826E3,1.7682291E3,1.7961237E3,4.840432E3,4.3493164E3,5.3625E3,1.613148E3,3.4141746E3,3.7897039E3,2.5667695E3,1.3157405E4,1.1711575E3,1.3262402E5,2.8952692E2,8.682967E2,1.5056979E3,2.5707013E2,4.9557437E2,2.8997434E3,5.066201E3,7.5609085E1,2.3189038E3,2.5998503E3,3.29344E3,3.3482954E3,5.7055896E2,1.5143672E1,6.572455E1,2.9539332E0,4.4918353E2,7.145343E4,3.974792E3,4.41651E3,5.536814E2,9.605604E2,2.2738298E3,5.140331E3,3.0836006E3,3.7530132E3,1.4796807E3,1.3845188E3,8.169307E2,1.7321447E3,1.50745E2,2.3427087E3,7.52038E2,2.4745923E3,2.1993867E3,3.894341E4,2.2212432E3,6.4725825E3,1.6858091E3,8.241998E1,6.1185236E2,1.1842714E3,2.410369E3,2.4300632E3,1.7175559E3,2.6317605E3,2.3776416E3,2.9848584E3,1.1846991E3,4.2844882E2,2.562835E3,8.513395E2,1.5441663E3,2.2455376E3,1.1621202E3,1.4046492E3,7.8850356E3,5.27237E3,1.01668774E3,1.5446968E2,1.0863308E4,1.217607E5],"tree_param":{"num_deleted":"0","num_feature":"65","num_nodes":"125","size_leaf_vector":"1"}},{"base_weights":[4.338335E-3,-1.5951141E0,9.2649126E-1,-3.8097456E-1,-1.8777288E0,1.0447519E-1,1.2855756E0,-8.7376565E-1,7.965241E-2,-2.0920188E0,-1.1088337E0,-7.217265E-2,8.810155E-1,3.581257E-1,1.3637329E0,-1.3568591E0,-5.4491657E-1,1.8685395E-1,-1.7773561E0,-2.1367798E0,-1.8512288E0,-1.4572293E0,-3.0579516E-1,-6.5961224E-1,-1.118947E-2,7.0780206E-1,1.0805522E0,-4.664868E-3,8.7122464E-1,1.0895047E0,1.3982207E0,-7.8401744E-1,-1.7451994E0,-3.3567083E-1,-8.6408573E-1,-7.256042E-2,3.746885E-1,-1.9995314E0,1.8326639E-1,-2.1376033E0,1.322435E0,-1.9765176E0,-1.1244975E0,-1.7023013E0,-1.2002875E0,-5.988686E-1,3.9050117E-2,-9.353075E-1,-4.769141E-1,-9.709035E-2,3.8978443E-1,5.461973E-1,8.698492E-1,9.335581E-1,1.1624936E0,-8.8251345E-2,1.1925728E0,6.651394E-1,1.1862515E0,2.206863E-1,1.2113763E0,1.0773674E0,1.4041011E0,-1.2811054E-1,-4.7694955E-2,-1.182287E-1,-1.6546828E-1,-2.9059863E-2,1.1812093E-1,-8.948806E-2,-4.8055414E-2,-4.5667928E-2,4.7935606E-3,4.8884835E-2,1.655473E-2,-2.8283717E-2,-1.6764072E-1,4.7682013E-2,-4.691361E-2,-1.72117E-1,-1.5880567E-1,1.101185E-1,2.1061346E-2,-1.5012082E-1,-1.6512635E-1,-7.793294E-3,-1.1616333E-1,-1.5231611E-1,-1.2741691E-1,-1.2650692E-1,-8.632688E-2,-7.312386E-2,-1.9854086E-2,-1.7175993E-2,3.0453073E-2,-3.0648064E-2,-8.0893904E-2,-7.526435E-2,-2.7231714E-2,-4.7788505E-2,-5.173887E-3,2.2443137E-3,4.314782E-2,5.511592E-2,2.7636727E-2,8.5381284E-2,6.168666E-2,-1.1326327E-2,7.625629E-2,1.004478E-1,8.6122155E-2,-1.706548E-2,1.3324185E-2,1.01179495E-1,-1.9072533E-1,4.6852898E-2,8.682436E-2,7.9322554E-2,1.04665354E-1,-2.4340192E-2,4.721473E-2,6.864989E-2,1.0049021E-1,-8.482016E-3,1.03411615E-1,7.678894E-2,1.1254394E-1],"categories":[],"categories_nodes":[],"categories_segments":[],"categories_sizes":[],"default_left":[0,0,0,0,0,0,0,0,0,0,0,0,0,0,0,0,0,0,0,0,0,0,0,0,0,0,0,0,0,0,0,0,0,0,0,0,0,0,0,0,0,0,0,0,0,0,0,0,0,0,0,0,0,0,0,0,0,0,0,0,0,0,0,0,0,0,0,0,0,0,0,0,0,0,0,0,0,0,0,0,0,0,0,0,0,0,0,0,0,0,0,0,0,0,0,0,0,0,0,0,0,0,0,0,0,0,0,0,0,0,0,0,0,0,0,0,0,0,0,0,0,0,0,0,0,0,0],"id":2,"left_children":[1,3,5,7,9,11,13,15,17,19,21,23,25,27,29,31,33,35,37,39,41,43,45,47,49,51,53,55,57,59,61,63,65,67,69,71,73,75,77,79,81,83,85,87,89,91,93,95,97,99,101,103,105,107,109,111,113,115,117,119,121,123,125,-1,-1,-1,-1,-1,-1,-1,-1,-1,-1,-1,-1,-1,-1,-1,-1,-1,-1,-1,-1,-1,-1,-1,-1,-1,-1,-1,-1,-1,-1,-1,-1,-1,-1,-1,-1,-1,-1,-1,-1,-1,-1,-1,-1,-1,-1,-1,-1,-1,-1,-1,-1,-1,-1,-1,-1,-1,-1,-1,-1,-1,-1,-1,-1],"loss_changes":[5.2119484E5,4.434122E4,6.616008E4,5.5390576E3,1.7269531E4,9.347856E3,1.1307172E4,1.8721621E3,2.5113171E3,8.7959375E2,6.3922637E3,1.9888453E3,4.3572363E2,2.2571514E3,1.3591562E3,1.0606807E3,4.6827954E2,5.8113617E2,3.0027734E2,1.9975E2,1.1684805E3,1.00140234E3,6.988827E2,2.6254614E2,1.732472E3,1.7664014E2,6.957861E1,7.1104333E2,3.2527588E2,1.7020254E3,2.3960938E2,2.9545654E2,2.426836E2,2.1240485E2,1.855354E2,3.30722E2,2.7416534E2,9.696875E1,2.2904095E1,1.4178125E2,6.1478806E-1,9.215234E1,6.36699E2,1.7715625E2,3.5773047E2,4.129536E2,2.7554855E2,8.67511E1,1.9868146E2,6.717318E2,4.8009778E2,9.687543E1,6.498999E1,4.459375E1,2.8764648E1,2.1168448E2,1.22706726E2,1.008302E2,4.5881836E1,3.8402478E2,2.2180469E2,5.871831E2,1.490625E2,0E0,0E0,0E0,0E0,0E0,0E0,0E0,0E0,0E0,0E0,0E0,0E0,0E0,0E0,0E0,0E0,0E0,0E0,0E0,0E0,0E0,0E0,0E0,0E0,0E0,0E0,0E0,0E0,0E0,0E0,0E0,0E0,0E0,0E0,0E0,0E0,0E0,0E0,0E0,0E0,0E0,0E0,0E0,0E0,0E0,0E0,0E0,0E0,0E0,0E0,0E0,0E0,0E0,0E0,0E0,0E0,0E0,0E0,0E0,0E0,0E0,0E0,0E0,0E0],"parents":[2147483647,0,0,1,1,2,2,3,3,4,4,5,5,6,6,7,7,8,8,9,9,10,10,11,11,12,12,13,13,14,14,15,15,16,16,17,17,18,18,19,19,20,20,21,21,22,22,23,23,24,24,25,25,26,26,27,27,28,28,29,29,30,30,31,31,32,32,33,33,34,34,35,35,36,36,37,37,38,38,39,39,40,40,41,41,42,42,43,43,44,44,45,45,46,46,47,47,48,48,49,49,50,50,51,51,52,52,53,53,54,54,55,55,56,56,57,57,58,58,59,59,60,60,61,61,62,62],"right_children":[2,4,6,8,10,12,14,16,18,20,22,24,26,28,30,32,34,36,38,40,42,44,46,48,50,52,54,56,58,60,62,64,66,68,70,72,74,76,78,80,82,84,86,88,90,92,94,96,98,100,102,104,106,108,110,112,114,116,118,120,122,124,126,-1,-1,-1,-1,-1,-1,-1,-1,-1,-1,-1,-1,-1,-1,-1,-1,-1,-1,-1,-1,-1,-1,-1,-1,-1,-1,-1,-1,-1,-1,-1,-1,-1,-1,-1,-1,-1,-1,-1,-1,-1,-1,-1,-1,-1,-1,-1,-1,-1,-1,-1,-1,-1,-1,-1,-1,-1,-1,-1,-1,-1,-1,-1,-1],"split_conditions":[4.9726775E-1,2.9331509E1,1.0888889E0,5.113636E-1,4.6666667E-1,5.058824E-1,2.6812933E1,8.876405E-1,5.7E2,4.4E-1,5.058824E-1,4.722222E-1,5.09434E-1,4.857143E-1,1.1975E0,2.0329796E1,2.4399933E1,5.466667E-1,4.60733E-1,1.7E1,5.185185E-1,9.4E-1,9.4849783E-1,1.0243902E0,5.068493E-1,5.3061223E-1,1.5E1,5.59E2,5.151515E-1,4.7761193E-1,2.27E2,3.7777779E-1,7.653991E1,1.005E2,4.888889E-1,8.2522124E-1,5.609756E-1,1.992842E1,2E1,5.272727E-1,3.85E2,7E0,1.4836942E2,4.642857E-1,4.642857E-1,5.25E-1,5.272727E-1,2.1359413E1,4.6276596E-1,5E-1,4.918033E-1,1E0,5.2427185E-1,1E0,2E1,4.53125E-1,1.3E1,2.14E2,2.034565E1,1E0,4.935065E-1,4.722222E-1,3.493976E-1,-1.2811054E-1,-4.7694955E-2,-1.182287E-1,-1.6546828E-1,-2.9059863E-2,1.1812093E-1,-8.948806E-2,-4.8055414E-2,-4.5667928E-2,4.7935606E-3,4.8884835E-2,1.655473E-2,-2.8283717E-2,-1.6764072E-1,4.7682013E-2,-4.691361E-2,-1.72117E-1,-1.5880567E-1,1.101185E-1,2.1061346E-2,-1.5012082E-1,-1.6512635E-1,-7.793294E-3,-1.1616333E-1,-1.5231611E-1,-1.2741691E-1,-1.2650692E-1,-8.632688E-2,-7.312386E-2,-1.9854086E-2,-1.7175993E-2,3.0453073E-2,-3.0648064E-2,-8.0893904E-2,-7.526435E-2,-2.7231714E-2,-4.7788505E-2,-5.173887E-3,2.2443137E-3,4.314782E-2,5.511592E-2,2.7636727E-2,8.5381284E-2,6.168666E-2,-1.1326327E-2,7.625629E-2,1.004478E-1,8.6122155E-2,-1.706548E-2,1.3324185E-2,1.01179495E-1,-1.9072533E-1,4.6852898E-2,8.682436E-2,7.9322554E-2,1.04665354E-1,-2.4340192E-2,4.721473E-2,6.864989E-2,1.0049021E-1,-8.482016E-3,1.03411615E-1,7.678894E-2,1.1254394E-1],"split_indices":[48,60,62,49,48,49,59,62,26,48,49,49,48,49,62,60,60,49,48,3,49,62,62,62,48,49,22,18,49,49,18,48,57,42,48,62,56,60,15,49,0,27,52,49,49,49,49,60,55,49,49,17,56,3,30,49,28,18,59,8,49,49,49,0,0,0,0,0,0,0,0,0,0,0,0,0,0,0,0,0,0,0,0,0,0,0,0,0,0,0,0,0,0,0,0,0,0,0,0,0,0,0,0,0,0,0,0,0,0,0,0,0,0,0,0,0,0,0,0,0,0,0,0,0,0,0,0],"split_type":[0,0,0,0,0,0,0,0,0,0,0,0,0,0,0,0,0,0,0,0,0,0,0,0,0,0,0,0,0,0,0,0,0,0,0,0,0,0,0,0,0,0,0,0,0,0,0,0,0,0,0,0,0,0,0,0,0,0,0,0,0,0,0,0,0,0,0,0,0,0,0,0,0,0,0,0,0,0,0,0,0,0,0,0,0,0,0,0,0,0,0,0,0,0,0,0,0,0,0,0,0,0,0,0,0,0,0,0,0,0,0,0,0,0,0,0,0,0,0,0,0,0,0,0,0,0,0],"sum_hessian":[3.5336488E5,1.2922552E5,2.2413936E5,2.4400594E4,1.0482493E5,6.814443E4,1.5599492E5,1.1788279E4,1.2612314E4,8.197647E4,2.284846E4,5.5516426E4,1.2628003E4,1.2124586E4,1.4387034E5,4.7731655E3,7.0151133E3,1.1924816E4,6.874974E2,6.911983E4,1.2856639E4,1.5934511E4,6.9139497E3,5.2203125E3,5.0296113E4,6.7623267E3,5.8656763E3,7.103203E3,5.021383E3,1.6075899E4,1.2779444E5,1.9296917E3,2.843474E3,4.2384546E3,2.776659E3,5.0084146E3,6.9164023E3,6.1750287E2,6.999446E1,6.910376E4,1.6070213E1,1.0964615E4,1.8920239E3,8.1527544E3,7.7817563E3,3.7371357E3,3.1768137E3,2.0789758E3,3.1413367E3,4.1422836E4,8.87328E3,3.3879727E3,3.374354E3,2.1038992E3,3.761777E3,6.6405146E3,4.626886E2,3.0374475E3,1.9839355E3,1.9779536E3,1.4097946E4,2.3033267E3,1.2549111E5,3.5917548E2,1.5705161E3,1.5591694E3,1.2843047E3,4.175709E3,6.274564E1,1.4104772E3,1.3661818E3,1.0512191E3,3.9571956E3,2.869928E3,4.046474E3,3.4280895E1,5.83222E2,4.570821E1,2.4286255E1,6.3335863E4,5.7678965E3,1.5004967E1,1.0652472E0,5.129025E3,5.83559E3,4.57799E2,1.4342249E3,2.86488E3,5.2878745E3,1.8749601E3,5.9067964E3,1.9673779E3,1.7697578E3,1.823036E3,1.3537778E3,2.5185493E2,1.8271208E3,7.1292145E2,2.4284153E3,2.519753E3,3.8903082E4,2.5959536E3,6.277327E3,1.9785366E3,1.409436E3,1.1219508E3,2.252403E3,3.7642395E1,2.0662568E3,1.7993888E3,1.9623884E3,4.454327E3,2.1861875E3,4.5417056E2,8.518043E0,2.5562944E3,4.8115305E2,7.679766E2,1.2159589E3,8.17179E2,1.1607745E3,1.5874335E3,1.2510513E4,3.545971E2,1.9487296E3,7.597282E2,1.2473138E5],"tree_param":{"num_deleted":"0","num_feature":"65","num_nodes":"127","size_leaf_vector":"1"}},{"base_weights":[3.8864345E-3,-1.4320202E0,8.9438534E-1,-3.6830673E-1,-1.6975623E0,1.4182195E-1,1.2498512E0,-7.903249E-1,8.3458945E-2,-1.8901236E0,-8.886943E-1,-3.526059E-2,9.0158385E-1,3.255018E-1,1.321898E0,-1.3083957E0,-5.0647867E-1,1.9505638E-1,-1.5420227E0,-1.9362774E0,-1.5346614E0,-1.2121544E0,-1.4870039E-1,-5.3414726E-1,1.9190993E-2,7.1013427E-1,1.0551299E0,-3.8538058E-3,8.275741E-1,1.0985411E0,1.3540326E0,-7.64091E-1,-1.6213499E0,-8.5647464E-1,-3.6990944E-1,-2.8969804E-2,3.5037658E-1,-1.8463936E0,5.629234E-2,-1.9566797E0,-1.7471999E0,-1.6998726E0,-7.301714E-1,-1.3744156E0,-8.9420056E-1,-3.7633333E-1,1.9109608E-1,-1.1923519E0,-4.7212985E-1,-6.422311E-2,4.8149234E-1,5.7691485E-1,8.8114506E-1,7.904726E-1,1.0988824E0,-7.5705856E-2,1.1390619E0,6.3849926E-1,1.1374365E0,3.388379E-1,1.2098153E0,9.1020375E-1,1.3575393E0,-1.09331615E-1,-4.3038893E-2,-1.5090042E-1,-1.066137E-1,-7.2587535E-2,1.1160963E-1,-1.2459372E-2,-4.1016944E-2,-1.7795725E-2,2.4338875E-2,1.06993085E-2,4.3685906E-2,-1.5412515E-1,-2.4822839E-3,-1.0507823E-1,2.9823255E-2,-1.5846242E-1,-1.5265195E-1,-3.2530006E-2,-1.471556E-1,-1.4533512E-1,-1.2798E-1,-1.336871E-2,-8.54718E-2,-1.2646076E-1,-9.852476E-2,-1.0452268E-1,-6.265251E-2,-6.001633E-2,-7.937213E-3,3.9937012E-2,7.097004E-4,-9.9390484E-2,8.262752E-2,-5.714882E-2,-2.5434963E-2,-3.1161658E-2,-3.191595E-3,1.8019045E-2,5.6372922E-2,5.9455454E-2,3.352097E-2,5.861163E-2,7.829271E-2,4.6967626E-2,7.394371E-2,8.069379E-2,9.506842E-2,-2.3744874E-2,4.4569722E-3,1.0474592E-1,-6.641816E-2,4.2560875E-2,7.624278E-2,9.2094846E-2,-6.1220195E-2,-1.3572203E-2,5.5256963E-2,8.461041E-2,1.0227739E-1,1.1072304E-3,1.0165232E-1,1.0884563E-1,7.090042E-2],"categories":[],"categories_nodes":[],"categories_segments":[],"categories_sizes":[],"default_left":[0,0,0,0,0,0,0,0,0,0,0,0,0,0,0,0,0,0,0,0,0,0,0,0,0,0,0,0,0,0,0,0,0,0,0,0,0,0,0,0,0,0,0,0,0,0,0,0,0,0,0,0,0,0,0,0,0,0,0,0,0,0,0,0,0,0,0,0,0,0,0,0,0,0,0,0,0,0,0,0,0,0,0,0,0,0,0,0,0,0,0,0,0,0,0,0,0,0,0,0,0,0,0,0,0,0,0,0,0,0,0,0,0,0,0,0,0,0,0,0,0,0,0,0,0,0,0],"id":3,"left_children":[1,3,5,7,9,11,13,15,17,19,21,23,25,27,29,31,33,35,37,39,41,43,45,47,49,51,53,55,57,59,61,63,65,67,69,71,73,75,77,79,81,83,85,87,89,91,93,95,97,99,101,103,105,107,109,111,113,115,117,119,121,123,125,-1,-1,-1,-1,-1,-1,-1,-1,-1,-1,-1,-1,-1,-1,-1,-1,-1,-1,-1,-1,-1,-1,-1,-1,-1,-1,-1,-1,-1,-1,-1,-1,-1,-1,-1,-1,-1,-1,-1,-1,-1,-1,-1,-1,-1,-1,-1,-1,-1,-1,-1,-1,-1,-1,-1,-1,-1,-1,-1,-1,-1,-1,-1,-1],"loss_changes":[4.4433078E5,3.7570406E4,5.737561E4,5.0662964E3,1.657725E4,9.257551E3,9.700844E3,2.0196816E3,2.3285776E3,1.4074688E3,4.8992676E3,1.515913E3,3.8158594E2,1.742001E3,9.684844E2,8.270322E2,4.2401782E2,4.1795566E2,4.0130054E2,2.9009375E2,1.3125684E3,7.335957E2,4.8172433E2,2.2359595E2,1.9402156E3,1.3143799E2,8.2683105E1,5.225779E2,2.4376318E2,1.4369062E3,1.8264062E2,2.4136047E2,2.335122E2,2.865775E2,1.9527423E2,3.171761E2,3.0065515E2,1.00769775E2,5.810392E1,7.653125E1,9.168301E2,9.299805E1,3.208833E2,2.7598242E2,2.194646E2,3.8630377E2,1.4029018E2,5.385089E1,1.8727747E2,3.3730017E2,4.3964966E2,8.5242065E1,3.598047E1,2.7414185E1,4.8757812E1,1.7398419E2,1.27290405E2,8.637573E1,4.2217773E1,3.8902765E2,1.5358789E2,3.001718E2,1.6621875E2,0E0,0E0,0E0,0E0,0E0,0E0,0E0,0E0,0E0,0E0,0E0,0E0,0E0,0E0,0E0,0E0,0E0,0E0,0E0,0E0,0E0,0E0,0E0,0E0,0E0,0E0,0E0,0E0,0E0,0E0,0E0,0E0,0E0,0E0,0E0,0E0,0E0,0E0,0E0,0E0,0E0,0E0,0E0,0E0,0E0,0E0,0E0,0E0,0E0,0E0,0E0,0E0,0E0,0E0,0E0,0E0,0E0,0E0,0E0,0E0,0E0,0E0,0E0,0E0],"parents":[2147483647,0,0,1,1,2,2,3,3,4,4,5,5,6,6,7,7,8,8,9,9,10,10,11,11,12,12,13,13,14,14,15,15,16,16,17,17,18,18,19,19,20,20,21,21,22,22,23,23,24,24,25,25,26,26,27,27,28,28,29,29,30,30,31,31,32,32,33,33,34,34,35,35,36,36,37,37,38,38,39,39,40,40,41,41,42,42,43,43,44,44,45,45,46,46,47,47,48,48,49,49,50,50,51,51,52,52,53,53,54,54,55,55,56,56,57,57,58,58,59,59,60,60,61,61,62,62],"right_children":[2,4,6,8,10,12,14,16,18,20,22,24,26,28,30,32,34,36,38,40,42,44,46,48,50,52,54,56,58,60,62,64,66,68,70,72,74,76,78,80,82,84,86,88,90,92,94,96,98,100,102,104,106,108,110,112,114,116,118,120,122,124,126,-1,-1,-1,-1,-1,-1,-1,-1,-1,-1,-1,-1,-1,-1,-1,-1,-1,-1,-1,-1,-1,-1,-1,-1,-1,-1,-1,-1,-1,-1,-1,-1,-1,-1,-1,-1,-1,-1,-1,-1,-1,-1,-1,-1,-1,-1,-1,-1,-1,-1,-1,-1,-1,-1,-1,-1,-1,-1,-1,-1,-1,-1,-1,-1],"split_conditions":[9.9598396E-1,2.9666155E1,5.25E-1,5.151515E-1,9E-1,5.058824E-1,2.6323353E1,4.6666667E-1,3.1178094E2,8.333333E-1,5.058824E-1,4.722222E-1,1.0392157E0,4.8387095E-1,5.520833E-1,2.0329796E1,4.9473685E-1,5.466667E-1,4.60733E-1,5.217391E-1,5.151515E-1,4.918919E-1,4.909091E-1,3.125E-1,5.103448E-1,5.3571427E-1,4.6078957E1,5.84E2,5.185185E-1,4.7761193E-1,1.7E2,6.620763E-1,4.3220338E-1,9.6E2,2.069724E1,9.306931E-1,4.543919E-1,1.1E1,5.2380955E-1,4.3589744E-1,1.5612894E2,4.7368422E-1,1E0,4.7619048E-1,4.642857E-1,5.192308E-1,5.217391E-1,1.1E1,4.4444445E-1,5E-1,1.2995096E2,5.416667E-1,5E0,5.365854E-1,5.365854E-1,4.1666666E-1,3.2E1,1.55E2,1.9E1,1.7088599E2,5.058824E-1,4.8979592E-1,1.3E1,-1.09331615E-1,-4.3038893E-2,-1.5090042E-1,-1.066137E-1,-7.2587535E-2,1.1160963E-1,-1.2459372E-2,-4.1016944E-2,-1.7795725E-2,2.4338875E-2,1.06993085E-2,4.3685906E-2,-1.5412515E-1,-2.4822839E-3,-1.0507823E-1,2.9823255E-2,-1.5846242E-1,-1.5265195E-1,-3.2530006E-2,-1.471556E-1,-1.4533512E-1,-1.2798E-1,-1.336871E-2,-8.54718E-2,-1.2646076E-1,-9.852476E-2,-1.0452268E-1,-6.265251E-2,-6.001633E-2,-7.937213E-3,3.9937012E-2,7.097004E-4,-9.9390484E-2,8.262752E-2,-5.714882E-2,-2.5434963E-2,-3.1161658E-2,-3.191595E-3,1.8019045E-2,5.6372922E-2,5.9455454E-2,3.352097E-2,5.861163E-2,7.829271E-2,4.6967626E-2,7.394371E-2,8.069379E-2,9.506842E-2,-2.3744874E-2,4.4569722E-3,1.0474592E-1,-6.641816E-2,4.2560875E-2,7.624278E-2,9.2094846E-2,-6.1220195E-2,-1.3572203E-2,5.5256963E-2,8.461041E-2,1.0227739E-1,1.1072304E-3,1.0165232E-1,1.0884563E-1,7.090042E-2],"split_indices":[62,60,48,49,62,49,59,48,52,62,49,49,62,49,48,60,49,49,48,49,49,48,48,55,48,49,58,18,49,49,18,62,48,26,60,62,48,20,49,49,52,49,17,49,49,49,56,11,49,49,53,56,19,49,49,49,30,18,32,53,49,49,28,0,0,0,0,0,0,0,0,0,0,0,0,0,0,0,0,0,0,0,0,0,0,0,0,0,0,0,0,0,0,0,0,0,0,0,0,0,0,0,0,0,0,0,0,0,0,0,0,0,0,0,0,0,0,0,0,0,0,0,0,0,0,0,0],"split_type":[0,0,0,0,0,0,0,0,0,0,0,0,0,0,0,0,0,0,0,0,0,0,0,0,0,0,0,0,0,0,0,0,0,0,0,0,0,0,0,0,0,0,0,0,0,0,0,0,0,0,0,0,0,0,0,0,0,0,0,0,0,0,0,0,0,0,0,0,0,0,0,0,0,0,0,0,0,0,0,0,0,0,0,0,0,0,0,0,0,0,0,0,0,0,0,0,0,0,0,0,0,0,0,0,0,0,0,0,0,0,0,0,0,0,0,0,0,0,0,0,0,0,0,0,0,0,0],"sum_hessian":[3.474916E5,1.3301222E5,2.1447939E5,2.6571998E4,1.0644021E5,6.880738E4,1.45672E5,1.3737927E4,1.2834072E4,8.597213E4,2.0468082E4,5.580217E4,1.3005213E4,1.0533559E4,1.3513845E5,4.8613936E3,8.876533E3,1.201038E4,8.2369257E2,7.608825E4,9.883882E3,1.4242068E4,6.2260137E3,5.490379E3,5.0311793E4,5.7906895E3,7.214524E3,6.3614727E3,4.1720854E3,1.7001564E4,1.1813688E5,1.775975E3,3.0854187E3,2.4899878E3,6.386545E3,4.9178823E3,7.092497E3,6.917969E2,1.3189569E2,6.866918E4,7.4190684E3,8.199009E3,1.684873E3,9.427573E3,4.8144946E3,3.7282893E3,2.4977244E3,4.7120044E2,5.0191787E3,4.2622227E4,7.689566E3,3.2574612E3,2.533228E3,1.0261937E3,6.18833E3,5.9860776E3,3.7539493E2,2.5929534E3,1.5791322E3,2.1725999E3,1.4828966E4,9.281074E2,1.1720877E5,4.8320966E2,1.2927654E3,1.6060735E3,1.4793452E3,2.435559E3,5.4428726E1,2.5557144E3,3.8308308E3,3.111509E3,1.8063734E3,3.3669714E3,3.725526E3,6.6247894E2,2.9317905E1,2.4164473E1,1.0773122E2,4.585662E4,2.281256E4,4.779886E2,6.9410796E3,3.7761333E3,4.422876E3,6.328422E2,1.0520309E3,3.8526594E3,5.574914E3,1.0191997E3,3.7952947E3,1.5863611E3,2.1419282E3,9.27579E2,1.5701453E3,4.612713E2,9.929118E0,1.9508466E3,3.068332E3,2.964757E3,3.965747E4,3.5803896E3,4.1091763E3,1.5848445E3,1.6726167E3,1.0074852E3,1.5257429E3,4.093998E2,6.167939E2,3.0875803E3,3.1007498E3,2.2310967E3,3.7549812E3,3.4583005E2,2.9564863E1,1.9391362E3,6.5381714E2,1.5681952E3,1.0937083E1,8.8876733E2,1.2838325E3,4.615011E3,1.0213954E4,2.664761E2,6.616313E2,1.1645787E5,7.5090826E2],"tree_param":{"num_deleted":"0","num_feature":"65","num_nodes":"127","size_leaf_vector":"1"}},{"base_weights":[5.1002074E-3,-1.3320813E0,8.4432995E-1,-5.033757E-1,-1.6042868E0,1.2387465E-1,1.2061841E0,-2.2655854E-1,-1.0008162E0,-1.7631646E0,-7.992261E-1,-4.9322184E-2,4.6546063E-1,3.183459E-1,1.2808404E0,-1.5050732E-1,-7.643215E-1,-1.4908012E0,-6.961155E-1,-1.79828E0,-1.415397E0,-9.943223E-1,-5.106296E-1,-7.475187E-2,1.3895425E-1,1.277167E-1,6.4992607E-1,2.0935331E-1,9.2528194E-1,1.0527453E0,1.3114276E0,-1.3131413E-1,-1.1040214E0,-1.3215399E0,-4.9102956E-1,-1.5779576E0,-8.550618E-1,-9.044469E-1,-4.322461E-1,-1.8010358E0,-9.034234E-1,-1.1422977E0,-1.546891E0,-7.955405E-1,-1.2517383E0,-4.0048492E-1,-8.546529E-1,-1.6416642E-1,-2.3341311E-2,1.8376019E-2,3.1084824E-1,1.9990838E-1,-1.1389306E-1,4.6648517E-1,7.993211E-1,1.5113632E-1,5.221004E-1,5.8140594E-1,1.2000213E0,6.232554E-1,1.1209663E0,1.3145013E0,8.394137E-1,-2.023934E-2,-8.69291E-4,-1.3833524E-1,-7.010006E-2,-1.0977353E-1,4.4167742E-2,-5.6372475E-2,-7.540578E-3,-1.439377E-1,-1.1366536E-1,-1.0781092E-1,-1.4111189E-2,-4.841709E-2,-8.879307E-2,-2.2865793E-2,-5.660219E-2,-1.4569207E-1,-1.3607515E-1,-5.270433E-3,-1.4548802E-1,-1.13128975E-1,-5.1258307E-2,-1.1668748E-1,-1.4061815E-1,-7.604392E-2,5.560851E-4,-1.1818741E-1,-8.4465384E-2,-4.7515243E-2,5.44546E-3,-1.0454131E-1,-5.737022E-2,-1.5233075E-2,1.1015159E-2,-2.2352028E-4,-1.7932571E-2,5.5545084E-3,-6.77651E-2,5.1199682E-2,4.666289E-3,8.796027E-3,3.1577602E-2,-7.076032E-3,-1.0865325E-1,1.964944E-2,4.3512538E-2,5.3889375E-2,7.913882E-2,1.5053958E-2,-2.4950746E-2,4.8749737E-2,1.0483846E-3,-1.3626459E-1,4.8930693E-2,9.7908445E-2,-1.6375995E-1,2.7517365E-2,6.4624526E-2,8.027065E-2,9.481843E-2,7.968221E-2,1.05531774E-1,9.756783E-2,3.4608983E-2],"categories":[],"categories_nodes":[],"categories_segments":[],"categories_sizes":[],"default_left":[0,0,0,0,0,0,0,0,0,0,0,0,0,0,0,0,0,0,0,0,0,0,0,0,0,0,0,0,0,0,0,0,0,0,0,0,0,0,0,0,0,0,0,0,0,0,0,0,0,0,0,0,0,0,0,0,0,0,0,0,0,0,0,0,0,0,0,0,0,0,0,0,0,0,0,0,0,0,0,0,0,0,0,0,0,0,0,0,0,0,0,0,0,0,0,0,0,0,0,0,0,0,0,0,0,0,0,0,0,0,0,0,0,0,0,0,0,0,0,0,0,0,0,0,0,0,0],"id":4,"left_children":[1,3,5,7,9,11,13,15,17,19,21,23,25,27,29,31,33,35,37,39,41,43,45,47,49,51,53,55,57,59,61,63,65,67,69,71,73,75,77,79,81,83,85,87,89,91,93,95,97,99,101,103,105,107,109,111,113,115,117,119,121,123,125,-1,-1,-1,-1,-1,-1,-1,-1,-1,-1,-1,-1,-1,-1,-1,-1,-1,-1,-1,-1,-1,-1,-1,-1,-1,-1,-1,-1,-1,-1,-1,-1,-1,-1,-1,-1,-1,-1,-1,-1,-1,-1,-1,-1,-1,-1,-1,-1,-1,-1,-1,-1,-1,-1,-1,-1,-1,-1,-1,-1,-1,-1,-1,-1],"loss_changes":[3.8217503E5,2.962214E4,5.454814E4,4.4710273E3,1.2642172E4,4.138776E3,9.231594E3,8.5313196E2,1.7321582E3,1.0056094E3,9.1693555E2,2.2226506E2,1.4663076E3,7.1456104E2,8.95E2,3.3438535E2,3.929535E2,2.452334E2,3.9319238E2,1.8325E2,2.7030176E2,4.9642773E2,2.4877637E2,1.8799725E2,1.14491516E2,1.4506151E2,4.168003E2,1.6672052E2,1.546803E2,4.4456836E2,1.6325E2,2.62627E2,4.9825134E1,8.138318E1,1.4705661E2,1.3348047E2,1.79858E2,2.4525537E2,1.2719855E2,1.474375E2,1.7786679E2,3.353081E2,9.258496E1,6.8267456E2,1.8558936E2,4.516161E2,9.814404E1,1.1831595E2,1.071514E2,1.4356203E2,1.8925102E2,1.1216406E2,6.046099E1,1.16744995E2,1.9958789E2,1.3253615E2,6.38378E1,5.16192E1,7.318445E1,1.0720215E2,9.789258E1,1.6520312E2,1.1325525E2,0E0,0E0,0E0,0E0,0E0,0E0,0E0,0E0,0E0,0E0,0E0,0E0,0E0,0E0,0E0,0E0,0E0,0E0,0E0,0E0,0E0,0E0,0E0,0E0,0E0,0E0,0E0,0E0,0E0,0E0,0E0,0E0,0E0,0E0,0E0,0E0,0E0,0E0,0E0,0E0,0E0,0E0,0E0,0E0,0E0,0E0,0E0,0E0,0E0,0E0,0E0,0E0,0E0,0E0,0E0,0E0,0E0,0E0,0E0,0E0,0E0,0E0,0E0,0E0],"parents":[2147483647,0,0,1,1,2,2,3,3,4,4,5,5,6,6,7,7,8,8,9,9,10,10,11,11,12,12,13,13,14,14,15,15,16,16,17,17,18,18,19,19,20,20,21,21,22,22,23,23,24,24,25,25,26,26,27,27,28,28,29,29,30,30,31,31,32,32,33,33,34,34,35,35,36,36,37,37,38,38,39,39,40,40,41,41,42,42,43,43,44,44,45,45,46,46,47,47,48,48,49,49,50,50,51,51,52,52,53,53,54,54,55,55,56,56,57,57,58,58,59,59,60,60,61,61,62,62],"right_children":[2,4,6,8,10,12,14,16,18,20,22,24,26,28,30,32,34,36,38,40,42,44,46,48,50,52,54,56,58,60,62,64,66,68,70,72,74,76,78,80,82,84,86,88,90,92,94,96,98,100,102,104,106,108,110,112,114,116,118,120,122,124,126,-1,-1,-1,-1,-1,-1,-1,-1,-1,-1,-1,-1,-1,-1,-1,-1,-1,-1,-1,-1,-1,-1,-1,-1,-1,-1,-1,-1,-1,-1,-1,-1,-1,-1,-1,-1,-1,-1,-1,-1,-1,-1,-1,-1,-1,-1,-1,-1,-1,-1,-1,-1,-1,-1,-1,-1,-1,-1,-1,-1,-1,-1,-1,-1],"split_conditions":[9.925373E-1,3.05E2,5.25E-1,5.4562428E1,9E-1,1.0243902E0,2.6812933E1,1E0,4.6464646E-1,4.5652175E-1,4.899329E-1,1.0105263E0,2.9073786E1,5.9013206E1,1.2232825E0,6.2E1,4.473684E-1,1.7E1,9.5274585E-1,1.3E1,6E0,7E0,8E0,3.1E1,6E0,5E0,1.0555556E0,1.4E1,5.663074E-1,6.1239307E1,1.3E1,9E0,4.239351E-1,6.2E1,1.3E1,4.2105263E-1,1.6E1,1.44E2,5E0,7.446808E-1,1E0,1.7E1,8.4E1,7E0,8E0,7E0,8E0,3.5793343E1,1E1,6E0,7E0,1.7E2,8E0,1.4E1,7E0,1.5E1,1.7E1,3.4999607E1,1.3E1,1.02E2,6E0,2.14E2,1.82E2,-2.023934E-2,-8.69291E-4,-1.3833524E-1,-7.010006E-2,-1.0977353E-1,4.4167742E-2,-5.6372475E-2,-7.540578E-3,-1.439377E-1,-1.1366536E-1,-1.0781092E-1,-1.4111189E-2,-4.841709E-2,-8.879307E-2,-2.2865793E-2,-5.660219E-2,-1.4569207E-1,-1.3607515E-1,-5.270433E-3,-1.4548802E-1,-1.13128975E-1,-5.1258307E-2,-1.1668748E-1,-1.4061815E-1,-7.604392E-2,5.560851E-4,-1.1818741E-1,-8.4465384E-2,-4.7515243E-2,5.44546E-3,-1.0454131E-1,-5.737022E-2,-1.5233075E-2,1.1015159E-2,-2.2352028E-4,-1.7932571E-2,5.5545084E-3,-6.77651E-2,5.1199682E-2,4.666289E-3,8.796027E-3,3.1577602E-2,-7.076032E-3,-1.0865325E-1,1.964944E-2,4.3512538E-2,5.3889375E-2,7.913882E-2,1.5053958E-2,-2.4950746E-2,4.8749737E-2,1.0483846E-3,-1.3626459E-1,4.8930693E-2,9.7908445E-2,-1.6375995E-1,2.7517365E-2,6.4624526E-2,8.027065E-2,9.481843E-2,7.968221E-2,1.05531774E-1,9.756783E-2,3.4608983E-2],"split_indices":[62,26,48,57,62,62,59,17,48,48,48,62,59,58,62,41,48,22,62,3,11,11,11,38,19,27,62,24,48,58,28,22,48,38,22,48,38,1,11,62,41,22,41,19,19,19,19,59,31,11,27,18,11,5,2,16,16,54,28,10,2,18,41,0,0,0,0,0,0,0,0,0,0,0,0,0,0,0,0,0,0,0,0,0,0,0,0,0,0,0,0,0,0,0,0,0,0,0,0,0,0,0,0,0,0,0,0,0,0,0,0,0,0,0,0,0,0,0,0,0,0,0,0,0,0,0,0],"split_type":[0,0,0,0,0,0,0,0,0,0,0,0,0,0,0,0,0,0,0,0,0,0,0,0,0,0,0,0,0,0,0,0,0,0,0,0,0,0,0,0,0,0,0,0,0,0,0,0,0,0,0,0,0,0,0,0,0,0,0,0,0,0,0,0,0,0,0,0,0,0,0,0,0,0,0,0,0,0,0,0,0,0,0,0,0,0,0,0,0,0,0,0,0,0,0,0,0,0,0,0,0,0,0,0,0,0,0,0,0,0,0,0,0,0,0,0,0,0,0,0,0,0,0,0,0,0,0],"sum_hessian":[3.40556E5,1.3131903E5,2.0923697E5,3.2469957E4,9.884908E4,6.9955734E4,1.3928123E5,2.0862043E4,1.1607915E4,8.2555625E4,1.6293451E4,4.6419945E4,2.3535787E4,1.080381E4,1.2847742E5,1.827837E4,2.583673E3,4.449249E3,7.1586665E3,7.498042E4,7.5752017E3,9.720071E3,6.57338E3,4.0896793E4,5.5231494E3,8.314388E3,1.5221399E4,9.160184E3,1.643626E3,1.519567E4,1.1328175E5,1.791882E4,3.595484E2,8.489346E2,1.7347386E3,3.9115186E3,5.377303E2,3.9989607E3,3.159706E3,7.474922E4,2.312069E2,2.4651099E3,5.110092E3,5.486994E3,4.233077E3,4.980845E3,1.5925349E3,1.4929257E4,2.5967537E4,3.2467578E3,2.2763918E3,6.4017524E3,1.9126357E3,6.8340503E3,8.387349E3,7.7238877E3,1.4362965E3,7.313507E2,9.1227527E2,2.0842498E3,1.311142E4,1.12547055E5,7.3469934E2,8.913362E3,9.005458E3,9.42542E1,2.652942E2,8.268589E2,2.2075697E1,1.1271132E3,6.076255E2,1.6200034E3,2.2915151E3,3.1101346E2,2.2671683E2,1.6296085E3,2.369352E3,2.063929E3,1.095777E3,6.2227074E4,1.2522141E4,1.2128365E2,1.0992324E2,1.5975386E3,8.6757117E2,3.607287E3,1.5028046E3,4.598557E3,8.884374E2,1.9644532E3,2.2686238E3,3.5251274E3,1.4557178E3,3.6945398E2,1.223081E3,1.3735311E4,1.193946E3,2.3558105E4,2.4094316E3,3.0667585E3,1.7999908E2,9.875851E2,1.2888068E3,4.380525E3,2.0212274E3,1.8753597E3,3.7275936E1,1.7748776E3,5.0591724E3,5.049584E3,3.337765E3,7.152347E3,5.7154016E2,1.2259077E3,2.1038881E2,8.827011E0,7.2252374E2,9.0624615E2,6.029116E0,8.304151E2,1.2538346E3,4.639393E3,8.472027E3,1.6213081E3,1.1092574E5,3.7874127E2,3.5595804E2],"tree_param":{"num_deleted":"0","num_feature":"65","num_nodes":"127","size_leaf_vector":"1"}},{"base_weights":[6.9132796E-3,-1.2235851E0,8.132743E-1,-2.936352E-1,-1.4590926E0,1.4202078E-1,1.1753967E0,-6.719258E-1,1.13511175E-1,-1.643582E0,-7.8865623E-1,-2.5871912E-2,8.5193026E-1,3.5424855E-1,1.251696E0,-1.3575615E0,-5.082815E-1,2.0684993E-1,-1.3674424E0,-1.6870677E0,-1.3964643E0,-1.0758595E0,-1.2767191E-1,-4.8784807E-1,2.7926864E-2,6.801832E-1,1.0120113E0,-9.2249624E-2,8.773364E-1,1.0418923E0,1.2758948E0,-8.9966476E-1,-1.6017585E0,-9.948526E-1,-3.9936137E-1,1.0969256E-1,4.9199083E-1,-1.5887884E0,4.0345407E-1,-1.6879841E0,1.1232067E-1,-1.4987628E0,-6.2092423E-1,-1.2846189E0,-8.651713E-1,-3.8169348E-1,1.3026272E-1,-8.60643E-1,-3.7930766E-1,-5.2367073E-2,4.396507E-1,5.8218706E-1,8.626437E-1,9.005584E-1,1.0981926E0,-2.0333968E-1,1.4899918E-1,6.132016E-1,1.1543722E0,2.221695E-1,1.1429151E0,1.279399E0,7.5910735E-1,-1.2717192E-1,-5.1842384E-2,-1.3116278E-1,-6.791268E-2,-3.811674E-2,-9.470125E-2,-5.3630278E-2,-1.6502425E-2,1.4314338E-2,-3.9418917E-2,1.7251499E-2,4.975927E-2,-1.3182484E-1,6.1436657E-2,1.6581122E-4,7.80172E-2,-1.3692665E-1,-1.2801124E-1,-1.23545356E-1,-9.4784155E-2,1.2181054E-2,-7.884687E-2,-8.612304E-2,-1.1093325E-1,-9.6276246E-2,-6.1152104E-2,1.245823E-2,-4.525779E-2,-9.635033E-3,2.520467E-2,-1.4279993E-2,-7.47243E-2,-4.9325332E-2,-1.6912337E-2,-2.9563319E-2,-2.2921981E-3,1.6408911E-2,5.65039E-2,3.915957E-2,6.652998E-2,2.9332979E-2,7.1958415E-2,6.1671086E-2,8.275092E-2,8.957156E-2,5.7870917E-2,-7.171512E-4,-3.6951613E-2,5.2026785E-3,5.0548095E-2,3.8202167E-2,7.79433E-2,8.120247E-2,1.0067468E-1,-3.2805953E-2,5.2210096E-2,7.212565E-2,9.470703E-2,9.511076E-2,1.03121355E-1,-2.8182175E-2,7.805669E-2],"categories":[],"categories_nodes":[],"categories_segments":[],"categories_sizes":[],"default_left":[0,0,0,0,0,0,0,0,0,0,0,0,0,0,0,0,0,0,0,0,0,0,0,0,0,0,0,0,0,0,0,0,0,0,0,0,0,0,0,0,0,0,0,0,0,0,0,0,0,0,0,0,0,0,0,0,0,0,0,0,0,0,0,0,0,0,0,0,0,0,0,0,0,0,0,0,0,0,0,0,0,0,0,0,0,0,0,0,0,0,0,0,0,0,0,0,0,0,0,0,0,0,0,0,0,0,0,0,0,0,0,0,0,0,0,0,0,0,0,0,0,0,0,0,0],"id":5,"left_children":[1,3,5,7,9,11,13,15,17,19,21,23,25,27,29,31,33,35,37,39,41,43,45,47,49,51,53,55,57,59,61,63,65,67,69,71,73,75,77,79,-1,81,83,85,87,89,91,93,95,97,99,101,103,105,107,109,111,113,115,117,119,121,123,-1,-1,-1,-1,-1,-1,-1,-1,-1,-1,-1,-1,-1,-1,-1,-1,-1,-1,-1,-1,-1,-1,-1,-1,-1,-1,-1,-1,-1,-1,-1,-1,-1,-1,-1,-1,-1,-1,-1,-1,-1,-1,-1,-1,-1,-1,-1,-1,-1,-1,-1,-1,-1,-1,-1,-1,-1,-1,-1,-1,-1,-1],"loss_changes":[3.3003797E5,2.8838938E4,4.8844266E4,4.098592E3,1.2994828E4,8.392921E3,8.1775E3,1.5470161E3,1.7720111E3,8.830625E2,4.304579E3,1.4154257E3,3.6960254E2,2.5922402E3,6.05E2,2.9569434E2,5.8987646E2,3.3399976E2,2.9856824E2,2.0082812E2,9.777344E2,6.941387E2,4.5015173E2,2.4003711E2,1.6863707E3,1.15728516E2,6.5947754E1,1.6052536E2,3.7329053E2,1.02295605E3,1.9295312E2,1.5983905E2,4.786035E1,1.9887488E2,4.7616772E2,3.752705E2,1.0994684E2,9.5270996E1,1.9560684E1,1.4245312E2,0E0,1.5402734E2,4.0594305E2,1.6706152E2,2.6737012E2,3.424144E2,1.579847E2,6.68728E1,1.8321942E2,3.2106442E2,5.204739E2,9.7444824E1,4.1130493E1,5.203418E1,3.0751953E1,2.0608992E2,7.653348E1,1.2782025E2,3.4878174E1,3.695593E2,1.0757422E2,9.103125E1,1.7453766E2,0E0,0E0,0E0,0E0,0E0,0E0,0E0,0E0,0E0,0E0,0E0,0E0,0E0,0E0,0E0,0E0,0E0,0E0,0E0,0E0,0E0,0E0,0E0,0E0,0E0,0E0,0E0,0E0,0E0,0E0,0E0,0E0,0E0,0E0,0E0,0E0,0E0,0E0,0E0,0E0,0E0,0E0,0E0,0E0,0E0,0E0,0E0,0E0,0E0,0E0,0E0,0E0,0E0,0E0,0E0,0E0,0E0,0E0,0E0,0E0,0E0,0E0],"parents":[2147483647,0,0,1,1,2,2,3,3,4,4,5,5,6,6,7,7,8,8,9,9,10,10,11,11,12,12,13,13,14,14,15,15,16,16,17,17,18,18,19,19,20,20,21,21,22,22,23,23,24,24,25,25,26,26,27,27,28,28,29,29,30,30,31,31,32,32,33,33,34,34,35,35,36,36,37,37,38,38,39,39,41,41,42,42,43,43,44,44,45,45,46,46,47,47,48,48,49,49,50,50,51,51,52,52,53,53,54,54,55,55,56,56,57,57,58,58,59,59,60,60,61,61,62,62],"right_children":[2,4,6,8,10,12,14,16,18,20,22,24,26,28,30,32,34,36,38,40,42,44,46,48,50,52,54,56,58,60,62,64,66,68,70,72,74,76,78,80,-1,82,84,86,88,90,92,94,96,98,100,102,104,106,108,110,112,114,116,118,120,122,124,-1,-1,-1,-1,-1,-1,-1,-1,-1,-1,-1,-1,-1,-1,-1,-1,-1,-1,-1,-1,-1,-1,-1,-1,-1,-1,-1,-1,-1,-1,-1,-1,-1,-1,-1,-1,-1,-1,-1,-1,-1,-1,-1,-1,-1,-1,-1,-1,-1,-1,-1,-1,-1,-1,-1,-1,-1,-1,-1,-1,-1,-1],"split_conditions":[9.9598396E-1,2.9666155E1,5.2755904E-1,5.151515E-1,8.876405E-1,5.058824E-1,2.14E2,4.375E-1,5.82E2,8.018253E-1,5.058824E-1,4.722222E-1,5.114504E-1,4.857143E-1,1.2232825E0,2.0329796E1,4.7368422E-1,9.354839E-1,4.60733E-1,1.7E1,5.263158E-1,4.8677248E-1,4.878049E-1,4.6276596E-1,5.103448E-1,5.441176E-1,6E0,4.53125E-1,5.25E-1,4.722222E-1,1.3E1,4.1509435E-1,1.6E1,1.8190815E1,6E0,2.06E2,5.319149E-1,1.2E1,5.5263156E-1,4.868421E-1,1.1232067E-1,5.068493E-1,1E0,2.08E2,4.642857E-1,1.85E2,5.192308E-1,9.209935E0,5.09434E-1,5E-1,1.86E2,2.6875E1,2.9E1,5.441176E-1,3.2E1,1.950766E1,1.4E2,1E2,7.3E1,1E0,5E-1,4.6969697E-1,3.783784E-1,-1.2717192E-1,-5.1842384E-2,-1.3116278E-1,-6.791268E-2,-3.811674E-2,-9.470125E-2,-5.3630278E-2,-1.6502425E-2,1.4314338E-2,-3.9418917E-2,1.7251499E-2,4.975927E-2,-1.3182484E-1,6.1436657E-2,1.6581122E-4,7.80172E-2,-1.3692665E-1,-1.2801124E-1,-1.23545356E-1,-9.4784155E-2,1.2181054E-2,-7.884687E-2,-8.612304E-2,-1.1093325E-1,-9.6276246E-2,-6.1152104E-2,1.245823E-2,-4.525779E-2,-9.635033E-3,2.520467E-2,-1.4279993E-2,-7.47243E-2,-4.9325332E-2,-1.6912337E-2,-2.9563319E-2,-2.2921981E-3,1.6408911E-2,5.65039E-2,3.915957E-2,6.652998E-2,2.9332979E-2,7.1958415E-2,6.1671086E-2,8.275092E-2,8.957156E-2,5.7870917E-2,-7.171512E-4,-3.6951613E-2,5.2026785E-3,5.0548095E-2,3.8202167E-2,7.79433E-2,8.120247E-2,1.0067468E-1,-3.2805953E-2,5.2210096E-2,7.212565E-2,9.470703E-2,9.511076E-2,1.03121355E-1,-2.8182175E-2,7.805669E-2],"split_indices":[62,60,48,49,62,49,18,48,26,62,49,49,48,49,62,60,49,62,48,20,49,48,48,55,48,49,19,49,49,49,28,49,22,60,39,10,49,20,49,49,0,49,17,10,49,10,49,58,48,49,1,43,9,49,30,60,1,1,1,8,49,49,49,0,0,0,0,0,0,0,0,0,0,0,0,0,0,0,0,0,0,0,0,0,0,0,0,0,0,0,0,0,0,0,0,0,0,0,0,0,0,0,0,0,0,0,0,0,0,0,0,0,0,0,0,0,0,0,0,0,0,0,0,0,0],"split_type":[0,0,0,0,0,0,0,0,0,0,0,0,0,0,0,0,0,0,0,0,0,0,0,0,0,0,0,0,0,0,0,0,0,0,0,0,0,0,0,0,0,0,0,0,0,0,0,0,0,0,0,0,0,0,0,0,0,0,0,0,0,0,0,0,0,0,0,0,0,0,0,0,0,0,0,0,0,0,0,0,0,0,0,0,0,0,0,0,0,0,0,0,0,0,0,0,0,0,0,0,0,0,0,0,0,0,0,0,0,0,0,0,0,0,0,0,0,0,0,0,0,0,0,0,0],"sum_hessian":[3.3262178E5,1.316796E5,2.0094219E5,2.6609344E4,1.0507026E5,7.041595E4,1.3052623E5,1.3793128E4,1.2816216E4,8.239539E4,2.2674861E4,5.6948637E4,1.3467316E4,1.1097578E4,1.1942865E5,2.656336E3,1.1136792E4,1.205716E4,7.5905566E2,7.006081E4,1.2334581E4,1.5806273E4,6.868588E3,5.9392827E3,5.1009355E4,6.4994546E3,6.967862E3,5.987544E3,5.1100337E3,1.2354994E4,1.0707366E5,9.2553644E2,1.7307994E3,2.035521E3,9.101271E3,8.993983E3,3.0631765E3,6.74813E2,8.4242676E1,7.00405E4,2.030914E1,1.0896353E4,1.438228E3,7.936921E3,7.869353E3,3.4603018E3,3.4082861E3,1.3377369E3,4.601546E3,4.2685707E4,8.323647E3,4.231167E3,2.2682878E3,3.0434329E3,3.924429E3,4.0998193E3,1.8877246E3,2.6175715E3,2.4924624E3,1.3559236E3,1.099907E4,1.0635104E5,7.2261505E2,2.4591606E2,6.7962036E2,1.6469802E3,8.381919E1,5.4460406E2,1.490917E3,3.7854185E3,5.315853E3,8.067496E3,9.264875E2,9.808332E2,2.0823433E3,6.586194E2,1.6193558E1,5.008569E1,3.4156986E1,5.51942E4,1.4846302E4,9.512253E3,1.3840996E3,4.611148E2,9.771133E2,2.615429E3,5.3214917E3,1.803642E3,6.065711E3,8.826995E2,2.5776023E3,1.4463978E3,1.9618884E3,1.3030995E2,1.2074269E3,1.9058201E3,2.6957256E3,2.9684983E3,3.971721E4,4.429394E3,3.894254E3,3.0869875E3,1.1441792E3,1.5757574E2,2.1107122E3,1.5491644E3,1.4942684E3,3.7100952E3,2.1433366E2,2.3409722E3,1.7588473E3,1.6090526E3,2.7867203E2,1.9043577E3,7.13214E2,1.0701936E3,1.4222687E3,5.4924854E2,8.06675E2,1.5979684E3,9.401103E3,1.022727E4,9.612377E4,1.1776004E2,6.0485504E2],"tree_param":{"num_deleted":"0","num_feature":"65","num_nodes":"125","size_leaf_vector":"1"}},{"base_weights":[7.1617067E-3,-1.1749914E0,7.5458014E-1,-2.6196945E-1,-1.3875635E0,1.214415E-1,1.1439561E0,-6.403299E-1,8.7040424E-2,-1.5602037E0,-8.139714E-1,-4.233382E-2,7.8459746E-1,3.4989873E-1,1.2096027E0,-1.1485219E0,-4.5657688E-1,1.7112587E-1,-1.1653316E0,-1.5900329E0,-1.3276612E0,-1.0468552E0,-1.3642964E-1,-4.1278473E-1,2.3345798E-2,5.751375E-1,9.62337E-1,-3.3356056E-2,8.2797337E-1,9.8024267E-1,1.2408533E0,-1.5210866E0,-9.358366E-1,-7.8554106E-1,-2.6636228E-1,4.539718E-2,4.175474E-1,-1.4955968E0,1.4422E-1,-1.6060863E0,-1.4462545E0,-4.91553E-1,-1.4951833E0,-1.2459801E0,-8.455886E-1,1.7170024E-1,-3.594531E-1,-8.3143234E-1,-3.2597366E-1,-7.566438E-2,4.0942708E-1,3.4480855E-1,6.761434E-1,6.924681E-1,1.0059646E0,-8.3351135E-2,7.358271E-1,5.532372E-1,1.1016929E0,1.5547593E-1,1.0957152E0,1.1051714E0,1.2545602E0,-8.00132E-2,-1.2803724E-1,-3.900994E-2,-9.1986686E-2,-9.019438E-2,-4.2039488E-2,-2.2787029E-2,1.1057494E-1,-2.2488084E-2,1.3017762E-2,1.6388007E-2,4.7859095E-2,-1.2581153E-1,9.559276E-3,-2.9504176E-2,5.4510854E-2,-1.299901E-1,-1.2509535E-1,-1.0822777E-1,-1.2265849E-1,1.2353281E-2,-6.46825E-2,-1.2011264E-1,1.0906748E-1,-1.14540175E-1,-9.2065096E-2,-8.418084E-2,-5.428093E-2,-6.910675E-3,4.7606595E-2,-3.9041962E-2,2.8071653E-2,-1.5171315E-2,-8.34778E-2,-3.8966447E-2,-8.011469E-3,-4.118998E-2,-4.457762E-3,1.7739236E-2,4.8783198E-2,4.0709324E-2,5.0011827E-3,6.530319E-2,4.4658914E-2,3.9238513E-2,6.588222E-2,7.28727E-2,8.781021E-2,8.685962E-3,-1.5900888E-2,6.5984584E-2,-1.4191432E-1,2.418467E-2,5.714563E-2,7.409257E-2,9.852845E-2,-3.4685925E-2,5.3867172E-2,7.4480005E-2,9.4061114E-2,-4.796064E-3,9.307706E-2,1.00981325E-1,9.627916E-2],"categories":[],"categories_nodes":[],"categories_segments":[],"categories_sizes":[],"default_left":[0,0,0,0,0,0,0,0,0,0,0,0,0,0,0,0,0,0,0,0,0,0,0,0,0,0,0,0,0,0,0,0,0,0,0,0,0,0,0,0,0,0,0,0,0,0,0,0,0,0,0,0,0,0,0,0,0,0,0,0,0,0,0,0,0,0,0,0,0,0,0,0,0,0,0,0,0,0,0,0,0,0,0,0,0,0,0,0,0,0,0,0,0,0,0,0,0,0,0,0,0,0,0,0,0,0,0,0,0,0,0,0,0,0,0,0,0,0,0,0,0,0,0,0,0,0,0],"id":6,"left_children":[1,3,5,7,9,11,13,15,17,19,21,23,25,27,29,31,33,35,37,39,41,43,45,47,49,51,53,55,57,59,61,63,65,67,69,71,73,75,77,79,81,83,85,87,89,91,93,95,97,99,101,103,105,107,109,111,113,115,117,119,121,123,125,-1,-1,-1,-1,-1,-1,-1,-1,-1,-1,-1,-1,-1,-1,-1,-1,-1,-1,-1,-1,-1,-1,-1,-1,-1,-1,-1,-1,-1,-1,-1,-1,-1,-1,-1,-1,-1,-1,-1,-1,-1,-1,-1,-1,-1,-1,-1,-1,-1,-1,-1,-1,-1,-1,-1,-1,-1,-1,-1,-1,-1,-1,-1,-1],"loss_changes":[2.863942E5,2.4367484E4,4.8956023E4,3.1313228E3,1.0083672E4,8.21318E3,6.409203E3,1.0619673E3,1.2992078E3,5.408906E2,3.7178604E3,1.4755796E3,5.5703125E2,1.7206285E3,8.128125E2,2.3794751E2,5.227866E2,3.5814493E2,3.3593835E2,1.5779688E2,1.246666E3,7.0172656E2,4.1434418E2,3.316532E2,1.9691833E3,1.5976953E2,9.467676E1,2.005364E2,3.1361548E2,1.2972998E3,1.8451562E2,4.3727783E1,1.8414038E2,2.716134E2,1.6174078E2,2.9331296E2,1.4997382E2,7.733826E1,4.3585743E1,4.715625E1,5.461621E1,3.0480676E2,1.3405469E2,1.541543E2,3.005288E2,2.7671503E2,3.1960614E2,2.1317432E2,2.7522766E2,3.590865E2,3.9526196E2,9.71608E1,7.8528564E1,2.9523438E1,5.9739258E1,1.0846689E2,7.2538025E1,8.415692E1,4.656836E1,5.1102982E2,1.5647168E2,6.234824E2,3.4203125E1,0E0,0E0,0E0,0E0,0E0,0E0,0E0,0E0,0E0,0E0,0E0,0E0,0E0,0E0,0E0,0E0,0E0,0E0,0E0,0E0,0E0,0E0,0E0,0E0,0E0,0E0,0E0,0E0,0E0,0E0,0E0,0E0,0E0,0E0,0E0,0E0,0E0,0E0,0E0,0E0,0E0,0E0,0E0,0E0,0E0,0E0,0E0,0E0,0E0,0E0,0E0,0E0,0E0,0E0,0E0,0E0,0E0,0E0,0E0,0E0,0E0,0E0,0E0,0E0],"parents":[2147483647,0,0,1,1,2,2,3,3,4,4,5,5,6,6,7,7,8,8,9,9,10,10,11,11,12,12,13,13,14,14,15,15,16,16,17,17,18,18,19,19,20,20,21,21,22,22,23,23,24,24,25,25,26,26,27,27,28,28,29,29,30,30,31,31,32,32,33,33,34,34,35,35,36,36,37,37,38,38,39,39,40,40,41,41,42,42,43,43,44,44,45,45,46,46,47,47,48,48,49,49,50,50,51,51,52,52,53,53,54,54,55,55,56,56,57,57,58,58,59,59,60,60,61,61,62,62],"right_children":[2,4,6,8,10,12,14,16,18,20,22,24,26,28,30,32,34,36,38,40,42,44,46,48,50,52,54,56,58,60,62,64,66,68,70,72,74,76,78,80,82,84,86,88,90,92,94,96,98,100,102,104,106,108,110,112,114,116,118,120,122,124,126,-1,-1,-1,-1,-1,-1,-1,-1,-1,-1,-1,-1,-1,-1,-1,-1,-1,-1,-1,-1,-1,-1,-1,-1,-1,-1,-1,-1,-1,-1,-1,-1,-1,-1,-1,-1,-1,-1,-1,-1,-1,-1,-1,-1,-1,-1,-1,-1,-1,-1,-1,-1,-1,-1,-1,-1,-1,-1,-1,-1,-1,-1,-1,-1],"split_conditions":[9.859155E-1,2.9211353E1,1.1234568E0,5.102041E-1,8.681319E-1,5.058824E-1,9.3E1,4.7368422E-1,4.87E2,5.1724136E-1,5.09434E-1,4.814815E-1,1.0392157E0,4.8E-1,1.2413793E0,7.531285E-1,6E0,5.740741E-1,8.545455E-1,8.095238E-1,4.5E2,9.354839E-1,1E0,4.2647058E-1,1.0243902E0,5.185185E-1,4.6078957E1,1.13012E2,5.058824E-1,4.722222E-1,4.6666667E-1,4E0,1.950766E1,9.2105263E-1,1.066E2,8.2522124E-1,5.1E1,1.1E1,5.416667E-1,4.3589744E-1,7E0,1.59E2,1.7E1,4.642857E-1,4.888889E-1,5.283019E-1,5.641026E-1,1.8632624E1,1.0555556E0,5E-1,1.456023E2,4E0,1E0,5.365854E-1,5.365854E-1,1.4325939E1,1.2E1,5.0980395E-1,1.3461539E0,1E0,5.058824E-1,1.638651E2,7E0,-8.00132E-2,-1.2803724E-1,-3.900994E-2,-9.1986686E-2,-9.019438E-2,-4.2039488E-2,-2.2787029E-2,1.1057494E-1,-2.2488084E-2,1.3017762E-2,1.6388007E-2,4.7859095E-2,-1.2581153E-1,9.559276E-3,-2.9504176E-2,5.4510854E-2,-1.299901E-1,-1.2509535E-1,-1.0822777E-1,-1.2265849E-1,1.2353281E-2,-6.46825E-2,-1.2011264E-1,1.0906748E-1,-1.14540175E-1,-9.2065096E-2,-8.418084E-2,-5.428093E-2,-6.910675E-3,4.7606595E-2,-3.9041962E-2,2.8071653E-2,-1.5171315E-2,-8.34778E-2,-3.8966447E-2,-8.011469E-3,-4.118998E-2,-4.457762E-3,1.7739236E-2,4.8783198E-2,4.0709324E-2,5.0011827E-3,6.530319E-2,4.4658914E-2,3.9238513E-2,6.588222E-2,7.28727E-2,8.781021E-2,8.685962E-3,-1.5900888E-2,6.5984584E-2,-1.4191432E-1,2.418467E-2,5.714563E-2,7.409257E-2,9.852845E-2,-3.4685925E-2,5.3867172E-2,7.4480005E-2,9.4061114E-2,-4.796064E-3,9.307706E-2,1.00981325E-1,9.627916E-2],"split_indices":[62,60,62,49,62,49,0,49,26,49,49,49,62,49,62,62,39,49,62,62,26,62,17,49,62,49,58,53,49,49,49,31,60,62,42,62,26,20,49,49,27,10,20,49,49,49,49,60,62,49,53,39,17,49,49,60,28,55,62,8,49,53,28,0,0,0,0,0,0,0,0,0,0,0,0,0,0,0,0,0,0,0,0,0,0,0,0,0,0,0,0,0,0,0,0,0,0,0,0,0,0,0,0,0,0,0,0,0,0,0,0,0,0,0,0,0,0,0,0,0,0,0,0,0,0,0,0],"split_type":[0,0,0,0,0,0,0,0,0,0,0,0,0,0,0,0,0,0,0,0,0,0,0,0,0,0,0,0,0,0,0,0,0,0,0,0,0,0,0,0,0,0,0,0,0,0,0,0,0,0,0,0,0,0,0,0,0,0,0,0,0,0,0,0,0,0,0,0,0,0,0,0,0,0,0,0,0,0,0,0,0,0,0,0,0,0,0,0,0,0,0,0,0,0,0,0,0,0,0,0,0,0,0,0,0,0,0,0,0,0,0,0,0,0,0,0,0,0,0,0,0,0,0,0,0,0,0],"sum_hessian":[3.2413353E5,1.2555272E5,1.9858081E5,2.3711459E4,1.0184126E5,7.562053E4,1.2296027E5,1.1376931E4,1.2334527E4,7.827905E4,2.3562209E4,6.0644492E4,1.4976041E4,9.389676E3,1.135706E5,3.019865E3,8.357066E3,1.1559289E4,7.7523834E2,6.937427E4,8.904778E3,1.7534668E4,6.0275396E3,9.132037E3,5.1512457E4,6.876528E3,8.0995127E3,5.2121875E3,4.1774883E3,1.3622475E4,9.9948125E4,1.0952114E3,1.9246534E3,3.0606807E3,5.2963853E3,7.654838E3,3.9044514E3,6.1898895E2,1.5624933E2,6.2397223E4,6.9770474E3,1.4870089E3,7.4177695E3,8.811621E3,8.723047E3,2.530972E3,3.4965679E3,1.5669279E3,7.5651094E3,4.0999086E4,1.0513372E4,2.0976228E3,4.7789053E3,1.129514E3,6.969999E3,4.894921E3,3.172666E2,2.0863804E3,2.091108E3,1.673289E3,1.1949186E4,9.17802E3,9.07701E4,1.4662044E2,9.48591E2,6.230228E2,1.3016306E3,1.3208291E3,1.7398517E3,5.238504E3,5.7881565E1,2.0231912E3,5.6316465E3,1.7943728E3,2.1100786E3,5.9082983E2,2.8159132E1,8.008105E1,7.616829E1,4.3208895E4,1.918833E4,3.3721416E3,3.604906E3,4.8965506E2,9.973538E2,7.4021255E3,1.5644138E1,2.980132E3,5.831489E3,3.8970972E3,4.82595E3,1.5729408E3,9.580311E2,2.960955E3,5.3561285E2,3.8960092E2,1.1773269E3,4.414591E3,3.1505186E3,1.7796326E3,3.9219453E4,5.429492E3,5.08388E3,1.3261272E3,7.714955E2,2.1808184E3,2.598087E3,4.463501E2,6.831639E2,3.4270422E3,3.5429568E3,1.8381517E3,3.0567693E3,3.0705185E2,1.0214776E1,8.1683105E2,1.2695493E3,8.928428E2,1.1982651E3,7.829155E2,8.903734E2,3.912051E3,8.037135E3,4.3730295E2,8.740717E3,7.884836E4,1.1921743E4],"tree_param":{"num_deleted":"0","num_feature":"65","num_nodes":"127","size_leaf_vector":"1"}},{"base_weights":[7.0921467E-3,-8.262493E-1,9.6072394E-1,-1.3465384E0,-2.5541934E-1,3.6298418E-1,1.123043E0,-2.5108865E-1,-1.4635968E0,-5.0251257E-2,-6.0647964E-1,1.7169563E-1,6.8732446E-1,5.3935957E-1,1.1984332E0,-1.8100482E-1,-1.2599214E0,-1.5177603E0,-1.2458334E0,-2.6079014E-2,-2.721966E-1,-8.921876E-1,-3.5441747E-1,2.7364856E-1,1.7288525E-2,3.6716354E-1,9.687061E-1,3.5456312E-1,7.320683E-1,1.018531E0,1.2169944E0,-5.130836E-1,-9.55575E-2,-1.3130132E0,8.3861184E-1,-1.0519425E0,-1.5233694E0,-7.1642035E-1,-1.3233155E0,-4.609673E-2,4.424884E-1,-4.2727837E-1,1.2050964E-1,-7.5233334E-1,-1.103073E0,-5.5955344E-1,-2.4805173E-1,1.9364595E-1,6.4102834E-1,9.258695E-2,-3.792382E-1,4.3771768E-1,-8.338559E-2,5.547316E-1,1.0563874E0,2.6161447E-1,5.673459E-1,5.0436676E-1,8.2634985E-1,1.054474E0,7.0226985E-1,1.2209203E0,6.7264766E-1,-1.6079312E-2,-7.1426995E-2,1.4502023E-3,-2.3785476E-2,-1.23181924E-1,-6.2885575E-2,1.3337113E-1,-1.0180412E-1,-1.0916E-1,-3.1569082E-2,-1.2193828E-1,1.06183946E-1,-8.042305E-2,-2.8214192E-2,-9.2713915E-2,-1.120948E-1,-3.979567E-3,1.15516774E-1,5.502765E-3,5.1228054E-2,-5.4474875E-2,-2.1829737E-2,-6.513958E-3,3.131368E-2,-6.930106E-2,5.244092E-4,-1.0916713E-1,-7.800073E-2,-5.2619353E-2,-2.3955345E-2,-3.3677835E-2,-9.329998E-3,1.2430395E-2,4.521386E-2,3.540249E-2,7.358937E-2,-6.488162E-3,1.7285084E-2,-1.8198453E-2,-5.0433856E-2,2.8353862E-2,6.9129184E-2,-3.7408743E-2,1.327411E-2,2.8260486E-2,8.10566E-2,9.0057984E-2,5.218698E-2,3.354958E-2,-2.5540803E-2,6.5463535E-2,3.5441287E-2,5.664575E-2,1.8548986E-2,7.924018E-2,5.4672755E-2,2.7087597E-2,8.5564904E-2,1.7918464E-2,7.746751E-2,-1.8175611E-3,9.7742796E-2,-2.6931861E-2,7.15873E-2],"categories":[],"categories_nodes":[],"categories_segments":[],"categories_sizes":[],"default_left":[0,0,0,0,0,0,0,0,0,0,0,0,0,0,0,0,0,0,0,0,0,0,0,0,0,0,0,0,0,0,0,0,0,0,0,0,0,0,0,0,0,0,0,0,0,0,0,0,0,0,0,0,0,0,0,0,0,0,0,0,0,0,0,0,0,0,0,0,0,0,0,0,0,0,0,0,0,0,0,0,0,0,0,0,0,0,0,0,0,0,0,0,0,0,0,0,0,0,0,0,0,0,0,0,0,0,0,0,0,0,0,0,0,0,0,0,0,0,0,0,0,0,0,0,0,0,0],"id":7,"left_children":[1,3,5,7,9,11,13,15,17,19,21,23,25,27,29,31,33,35,37,39,41,43,45,47,49,51,53,55,57,59,61,63,65,67,69,71,73,75,77,79,81,83,85,87,89,91,93,95,97,99,101,103,105,107,109,111,113,115,117,119,121,123,125,-1,-1,-1,-1,-1,-1,-1,-1,-1,-1,-1,-1,-1,-1,-1,-1,-1,-1,-1,-1,-1,-1,-1,-1,-1,-1,-1,-1,-1,-1,-1,-1,-1,-1,-1,-1,-1,-1,-1,-1,-1,-1,-1,-1,-1,-1,-1,-1,-1,-1,-1,-1,-1,-1,-1,-1,-1,-1,-1,-1,-1,-1,-1,-1],"loss_changes":[2.5035898E5,4.9931062E4,1.4253891E4,1.1278109E4,5.7741865E3,1.9465718E3,5.0835156E3,6.0021545E2,9.353594E2,2.714507E2,2.1292266E3,3.1071368E2,1.0482456E3,4.7046167E2,3.4045312E2,2.2530743E2,6.254474E1,1.6465625E2,6.4853125E2,4.2801663E2,3.026962E2,4.0793262E2,3.426858E2,3.4928467E2,2.3444005E2,1.7316516E2,2.2426074E2,1.3334253E2,1.3847266E2,1.0811035E2,1.97375E2,1.9242636E2,1.449202E2,6.3107117E1,2.6991432E1,1.5567108E2,1.5601562E2,2.1227307E2,1.7516797E2,2.3793906E2,1.3819803E2,1.3935474E2,7.703892E1,7.207622E2,1.8367871E2,1.3680457E2,2.3513995E2,1.387215E2,1.1723395E2,1.4153487E2,4.7623276E1,1.6694415E2,7.079471E1,9.984717E1,1.4244531E2,4.3076596E2,6.3633545E1,1.05137085E2,1.0663843E2,9.248535E1,1.24525055E2,9.9046875E1,1.4973541E2,0E0,0E0,0E0,0E0,0E0,0E0,0E0,0E0,0E0,0E0,0E0,0E0,0E0,0E0,0E0,0E0,0E0,0E0,0E0,0E0,0E0,0E0,0E0,0E0,0E0,0E0,0E0,0E0,0E0,0E0,0E0,0E0,0E0,0E0,0E0,0E0,0E0,0E0,0E0,0E0,0E0,0E0,0E0,0E0,0E0,0E0,0E0,0E0,0E0,0E0,0E0,0E0,0E0,0E0,0E0,0E0,0E0,0E0,0E0,0E0,0E0,0E0,0E0,0E0],"parents":[2147483647,0,0,1,1,2,2,3,3,4,4,5,5,6,6,7,7,8,8,9,9,10,10,11,11,12,12,13,13,14,14,15,15,16,16,17,17,18,18,19,19,20,20,21,21,22,22,23,23,24,24,25,25,26,26,27,27,28,28,29,29,30,30,31,31,32,32,33,33,34,34,35,35,36,36,37,37,38,38,39,39,40,40,41,41,42,42,43,43,44,44,45,45,46,46,47,47,48,48,49,49,50,50,51,51,52,52,53,53,54,54,55,55,56,56,57,57,58,58,59,59,60,60,61,61,62,62],"right_children":[2,4,6,8,10,12,14,16,18,20,22,24,26,28,30,32,34,36,38,40,42,44,46,48,50,52,54,56,58,60,62,64,66,68,70,72,74,76,78,80,82,84,86,88,90,92,94,96,98,100,102,104,106,108,110,112,114,116,118,120,122,124,126,-1,-1,-1,-1,-1,-1,-1,-1,-1,-1,-1,-1,-1,-1,-1,-1,-1,-1,-1,-1,-1,-1,-1,-1,-1,-1,-1,-1,-1,-1,-1,-1,-1,-1,-1,-1,-1,-1,-1,-1,-1,-1,-1,-1,-1,-1,-1,-1,-1,-1,-1,-1,-1,-1,-1,-1,-1,-1,-1,-1,-1,-1,-1,-1],"split_conditions":[5.0340134E-1,4.6666667E-1,3.2E2,2.6398102E1,2.9552166E1,2.9511724E1,5.263158E-1,2.7142857E1,4.347826E-1,2.6768602E1,4.878049E-1,1E1,5.263158E-1,5.1331717E-1,1.2232825E0,6.516544E-1,4.6297424E1,1.81E2,1.21896286E2,2.6812933E1,3.0037247E1,7E0,4.9375E-1,1.08E2,2.9331509E1,2.1E1,4.4798084E1,8E0,3.2493317E1,1.22E2,1.3E1,1.2292894E1,1.992842E1,4.375E-1,3.4E1,9E0,1.7E1,1.3E1,6E0,3.0582608E2,4E0,4.888889E-1,9.6825397E-1,7E0,2.1E1,3.5197144E1,6E0,1E1,5.319149E-1,1.3E1,1.7E1,1.8E1,2.1E1,1.3461539E0,1.7E1,7E0,8E0,1.7E1,3.389006E1,2.6812933E1,1.1E1,2.034565E1,9.13E2,-1.6079312E-2,-7.1426995E-2,1.4502023E-3,-2.3785476E-2,-1.23181924E-1,-6.2885575E-2,1.3337113E-1,-1.0180412E-1,-1.0916E-1,-3.1569082E-2,-1.2193828E-1,1.06183946E-1,-8.042305E-2,-2.8214192E-2,-9.2713915E-2,-1.120948E-1,-3.979567E-3,1.15516774E-1,5.502765E-3,5.1228054E-2,-5.4474875E-2,-2.1829737E-2,-6.513958E-3,3.131368E-2,-6.930106E-2,5.244092E-4,-1.0916713E-1,-7.800073E-2,-5.2619353E-2,-2.3955345E-2,-3.3677835E-2,-9.329998E-3,1.2430395E-2,4.521386E-2,3.540249E-2,7.358937E-2,-6.488162E-3,1.7285084E-2,-1.8198453E-2,-5.0433856E-2,2.8353862E-2,6.9129184E-2,-3.7408743E-2,1.327411E-2,2.8260486E-2,8.10566E-2,9.0057984E-2,5.218698E-2,3.354958E-2,-2.5540803E-2,6.5463535E-2,3.5441287E-2,5.664575E-2,1.8548986E-2,7.924018E-2,5.4672755E-2,2.7087597E-2,8.5564904E-2,1.7918464E-2,7.746751E-2,-1.8175611E-3,9.7742796E-2,-2.6931861E-2,7.15873E-2],"split_indices":[48,48,18,60,60,59,48,42,48,60,48,30,48,48,62,62,59,26,52,59,59,11,48,1,60,30,58,19,59,41,28,60,60,48,5,22,20,22,11,43,19,48,62,19,22,59,19,22,48,22,30,5,5,62,30,11,11,30,60,59,6,59,0,0,0,0,0,0,0,0,0,0,0,0,0,0,0,0,0,0,0,0,0,0,0,0,0,0,0,0,0,0,0,0,0,0,0,0,0,0,0,0,0,0,0,0,0,0,0,0,0,0,0,0,0,0,0,0,0,0,0,0,0,0,0,0,0],"split_type":[0,0,0,0,0,0,0,0,0,0,0,0,0,0,0,0,0,0,0,0,0,0,0,0,0,0,0,0,0,0,0,0,0,0,0,0,0,0,0,0,0,0,0,0,0,0,0,0,0,0,0,0,0,0,0,0,0,0,0,0,0,0,0,0,0,0,0,0,0,0,0,0,0,0,0,0,0,0,0,0,0,0,0,0,0,0,0,0,0,0,0,0,0,0,0,0,0,0,0,0,0,0,0,0,0,0,0,0,0,0,0,0,0,0,0,0,0,0,0,0,0,0,0,0,0,0,0],"sum_hessian":[3.150335E5,1.681201E5,1.4691342E5,8.795301E4,8.016708E4,3.1375678E4,1.15537734E5,8.491494E3,7.9461516E4,5.0597707E4,2.9569373E4,1.9736855E4,1.1638821E4,1.3217093E4,1.0232065E5,7.9410103E3,5.5048425E2,6.362927E4,1.5832243E4,4.56293E4,4.9684062E3,1.3858489E4,1.5710885E4,1.1887154E4,7.849701E3,5.4453325E3,6.193489E3,6.7485073E3,6.4685854E3,9.574716E3,9.274593E4,1.6241151E3,6.316895E3,5.37266E2,1.3218231E1,7.5931726E2,6.2869953E4,2.0226046E3,1.3809639E4,4.3760695E4,1.8686036E3,3.56176E3,1.4066462E3,8.335291E3,5.5231978E3,5.363202E3,1.0347683E4,9.762703E3,2.1244521E3,6.597614E3,1.252087E3,4.708093E3,7.372395E2,1.0838029E3,5.109686E3,4.698374E3,2.0501333E3,1.895959E3,4.5726265E3,8.595505E3,9.792107E2,9.2080586E4,6.653459E2,8.923152E2,7.317999E2,4.0409023E3,2.275993E3,3.7427936E2,1.6298663E2,9.643827E0,3.5744038E0,5.13889E2,2.4542827E2,6.2851473E4,1.8478449E1,1.1263479E3,8.962567E2,4.443917E3,9.365722E3,4.365479E4,1.0590612E2,6.4733167E2,1.221272E3,1.3464371E3,2.2153228E3,8.063225E2,6.003237E2,7.247154E3,1.0881372E3,1.8124282E3,3.7107698E3,3.8923623E3,1.47084E3,4.467494E3,5.8801885E3,8.852358E3,9.103439E2,1.2425232E3,8.8192896E2,2.7415469E3,3.8560671E3,7.817099E2,4.7037717E2,3.9402227E3,7.6787024E2,2.897774E2,4.474621E2,7.5416046E2,3.296424E2,4.359743E3,7.4994275E2,3.6951218E3,1.0032523E3,6.7736084E2,1.3727723E3,1.084022E3,8.119371E2,2.1256292E3,2.446997E3,1.7789809E2,8.417607E3,3.5067917E2,6.285315E2,6.395574E1,9.2016625E4,1.1995324E2,5.4539264E2],"tree_param":{"num_deleted":"0","num_feature":"65","num_nodes":"127","size_leaf_vector":"1"}},{"base_weights":[6.537173E-3,-7.736388E-1,9.269888E-1,-1.2961365E0,-2.555391E-1,3.478257E-1,1.0964726E0,-2.3396356E-1,-1.4061283E0,-9.040089E-1,-9.058729E-2,5.898347E-2,9.5262825E-1,5.16382E-1,1.1716574E0,-7.4718976E-1,9.860601E-2,-9.1415185E-1,-1.4269876E0,-1.0720481E0,-6.7713004E-1,-1.6243586E-1,3.4478408E-1,-1.79982E-1,3.2684264E-1,7.5039655E-1,1.1254473E0,-1.020396E-1,7.7715164E-1,9.8344773E-1,1.1908944E0,-1.2285256E0,-5.508882E-1,1.5403691E-1,-1.107855E0,-1.2043178E0,1.4581968E-1,-1.4560055E0,-1.262089E0,-5.2369964E-1,-1.1337365E0,-7.8139764E-1,-4.019752E-1,-5.265929E-1,-5.879513E-2,5.1941067E-1,9.603495E-2,-3.8975102E-1,-5.906932E-2,6.495738E-2,4.822239E-1,5.9138656E-1,8.826999E-1,8.559152E-1,1.1534752E0,-4.1828853E-1,1.0002925E-1,6.038198E-1,9.2635286E-1,4.622232E-1,1.0753919E0,5.4087114E-1,1.1944528E0,-1.1859953E-1,-7.849341E-2,-3.768789E-2,-1.0798969E-1,-2.2168511E-5,2.6883628E-2,-1.04414925E-1,5.5195443E-2,-1.1115154E-1,-6.819802E-2,-3.370519E-2,3.666043E-2,-1.1654814E-1,1.0315924E-1,-1.0719892E-1,-5.534402E-2,-5.035898E-2,1.0717788E-1,-1.0064269E-1,-8.128267E-2,-8.26173E-2,-5.5309694E-2,-4.6485342E-2,-1.54104065E-2,-2.3259886E-2,-6.318303E-2,-6.2214644E-3,1.9478347E-2,6.223083E-2,3.108649E-2,-2.004828E-2,2.6122902E-2,-1.16176065E-2,-4.058641E-2,1.1288058E-3,-2.5695888E-2,-1.4279925E-2,8.9482E-3,2.9289462E-2,6.766331E-2,3.8566787E-2,6.537117E-2,1.7619787E-2,7.442561E-2,2.3467686E-2,7.654256E-2,8.677661E-2,9.7094245E-2,-5.3905096E-2,-8.386023E-3,-2.518758E-2,1.6578835E-2,3.5348337E-2,6.267103E-2,7.505026E-2,-1.3026422E-3,-6.2218137E-2,4.341524E-2,8.910833E-2,6.693268E-2,7.404647E-2,-1.1890617E-2,9.57475E-2,5.375217E-2],"categories":[],"categories_nodes":[],"categories_segments":[],"categories_sizes":[],"default_left":[0,0,0,0,0,0,0,0,0,0,0,0,0,0,0,0,0,0,0,0,0,0,0,0,0,0,0,0,0,0,0,0,0,0,0,0,0,0,0,0,0,0,0,0,0,0,0,0,0,0,0,0,0,0,0,0,0,0,0,0,0,0,0,0,0,0,0,0,0,0,0,0,0,0,0,0,0,0,0,0,0,0,0,0,0,0,0,0,0,0,0,0,0,0,0,0,0,0,0,0,0,0,0,0,0,0,0,0,0,0,0,0,0,0,0,0,0,0,0,0,0,0,0,0,0,0,0],"id":8,"left_children":[1,3,5,7,9,11,13,15,17,19,21,23,25,27,29,31,33,35,37,39,41,43,45,47,49,51,53,55,57,59,61,63,65,67,69,71,73,75,77,79,81,83,85,87,89,91,93,95,97,99,101,103,105,107,109,111,113,115,117,119,121,123,125,-1,-1,-1,-1,-1,-1,-1,-1,-1,-1,-1,-1,-1,-1,-1,-1,-1,-1,-1,-1,-1,-1,-1,-1,-1,-1,-1,-1,-1,-1,-1,-1,-1,-1,-1,-1,-1,-1,-1,-1,-1,-1,-1,-1,-1,-1,-1,-1,-1,-1,-1,-1,-1,-1,-1,-1,-1,-1,-1,-1,-1,-1,-1,-1],"loss_changes":[2.1973064E5,4.48315E4,1.3778375E4,9.6329375E3,8.894875E3,5.5516455E3,4.7355625E3,1.3209083E3,7.6546875E2,6.4216895E2,2.0738054E3,1.3768364E3,3.5814844E2,2.0096929E3,3.4689062E2,2.868396E2,3.1425574E2,9.357654E2,3.4114062E2,3.270537E2,2.0562085E2,2.147633E3,4.0788123E2,2.8831952E2,4.1265906E2,9.911426E1,4.0838867E1,2.3629457E2,2.2612842E2,4.2699414E2,2.0108594E2,5.3870728E1,1.3727203E2,1.26140755E2,7.413345E1,1.5433325E2,1.16191505E2,1.4350781E2,4.7588867E2,1.942908E2,1.2608594E2,1.17036865E2,7.392026E1,7.823308E2,2.5407529E2,1.8627405E2,3.096719E2,1.1943585E2,1.3836183E2,4.3150192E1,2.6837317E2,5.2756226E1,8.128296E1,2.9532257E1,1.943457E1,1.1538901E2,1.0042804E2,1.1766846E2,5.228247E1,1.3405563E2,6.86875E1,1.2657535E2,1.075625E2,0E0,0E0,0E0,0E0,0E0,0E0,0E0,0E0,0E0,0E0,0E0,0E0,0E0,0E0,0E0,0E0,0E0,0E0,0E0,0E0,0E0,0E0,0E0,0E0,0E0,0E0,0E0,0E0,0E0,0E0,0E0,0E0,0E0,0E0,0E0,0E0,0E0,0E0,0E0,0E0,0E0,0E0,0E0,0E0,0E0,0E0,0E0,0E0,0E0,0E0,0E0,0E0,0E0,0E0,0E0,0E0,0E0,0E0,0E0,0E0,0E0,0E0,0E0,0E0],"parents":[2147483647,0,0,1,1,2,2,3,3,4,4,5,5,6,6,7,7,8,8,9,9,10,10,11,11,12,12,13,13,14,14,15,15,16,16,17,17,18,18,19,19,20,20,21,21,22,22,23,23,24,24,25,25,26,26,27,27,28,28,29,29,30,30,31,31,32,32,33,33,34,34,35,35,36,36,37,37,38,38,39,39,40,40,41,41,42,42,43,43,44,44,45,45,46,46,47,47,48,48,49,49,50,50,51,51,52,52,53,53,54,54,55,55,56,56,57,57,58,58,59,59,60,60,61,61,62,62],"right_children":[2,4,6,8,10,12,14,16,18,20,22,24,26,28,30,32,34,36,38,40,42,44,46,48,50,52,54,56,58,60,62,64,66,68,70,72,74,76,78,80,82,84,86,88,90,92,94,96,98,100,102,104,106,108,110,112,114,116,118,120,122,124,126,-1,-1,-1,-1,-1,-1,-1,-1,-1,-1,-1,-1,-1,-1,-1,-1,-1,-1,-1,-1,-1,-1,-1,-1,-1,-1,-1,-1,-1,-1,-1,-1,-1,-1,-1,-1,-1,-1,-1,-1,-1,-1,-1,-1,-1,-1,-1,-1,-1,-1,-1,-1,-1,-1,-1,-1,-1,-1,-1,-1,-1,-1,-1,-1],"split_conditions":[1.0138888E0,4.627451E-1,3.28E2,2.6398102E1,5E-1,5.058824E-1,5.263158E-1,5.263158E-1,2.43E2,4.888889E-1,5.283019E-1,4.827586E-1,1.1433567E0,5E-1,1.2232825E0,4.5652175E-1,2.122693E2,5.283019E-1,4.375E-1,2.6398102E1,2.2E1,9.6458334E-1,1E0,5.3488374E-1,5.1331717E-1,5.365854E-1,2.034565E1,5.167785E-1,1.051282E0,4.848485E-1,3.3333334E-1,4.0169132E-1,4.6E1,5.857143E-1,1.1E1,4.8E-1,4E0,1.7E1,5.263158E-1,3.448301E2,4.642857E-1,4.5454547E-1,4.6835443E-1,1.5766304E2,5.09434E-1,4.9056605E-1,9.444444E-1,2.0329796E1,1.6E1,4.9253732E-1,1.2995096E2,1.64E2,1.3988879E1,5.3846157E-1,5.740741E-1,4.8387095E-1,1E0,5.121951E-1,1.9E2,4.090909E-1,1.04E2,1E1,1.4E1,-1.1859953E-1,-7.849341E-2,-3.768789E-2,-1.0798969E-1,-2.2168511E-5,2.6883628E-2,-1.04414925E-1,5.5195443E-2,-1.1115154E-1,-6.819802E-2,-3.370519E-2,3.666043E-2,-1.1654814E-1,1.0315924E-1,-1.0719892E-1,-5.534402E-2,-5.035898E-2,1.0717788E-1,-1.0064269E-1,-8.128267E-2,-8.26173E-2,-5.5309694E-2,-4.6485342E-2,-1.54104065E-2,-2.3259886E-2,-6.318303E-2,-6.2214644E-3,1.9478347E-2,6.223083E-2,3.108649E-2,-2.004828E-2,2.6122902E-2,-1.16176065E-2,-4.058641E-2,1.1288058E-3,-2.5695888E-2,-1.4279925E-2,8.9482E-3,2.9289462E-2,6.766331E-2,3.8566787E-2,6.537117E-2,1.7619787E-2,7.442561E-2,2.3467686E-2,7.654256E-2,8.677661E-2,9.7094245E-2,-5.3905096E-2,-8.386023E-3,-2.518758E-2,1.6578835E-2,3.5348337E-2,6.267103E-2,7.505026E-2,-1.3026422E-3,-6.2218137E-2,4.341524E-2,8.910833E-2,6.693268E-2,7.404647E-2,-1.1890617E-2,9.57475E-2,5.375217E-2],"split_indices":[62,48,18,60,49,49,48,49,26,48,49,49,62,49,62,49,52,49,48,60,38,62,17,55,48,49,59,55,62,49,49,48,41,49,20,49,19,20,49,52,49,49,49,52,49,56,62,60,30,49,53,9,59,49,49,49,47,49,41,49,41,28,28,0,0,0,0,0,0,0,0,0,0,0,0,0,0,0,0,0,0,0,0,0,0,0,0,0,0,0,0,0,0,0,0,0,0,0,0,0,0,0,0,0,0,0,0,0,0,0,0,0,0,0,0,0,0,0,0,0,0,0,0,0,0,0,0],"split_type":[0,0,0,0,0,0,0,0,0,0,0,0,0,0,0,0,0,0,0,0,0,0,0,0,0,0,0,0,0,0,0,0,0,0,0,0,0,0,0,0,0,0,0,0,0,0,0,0,0,0,0,0,0,0,0,0,0,0,0,0,0,0,0,0,0,0,0,0,0,0,0,0,0,0,0,0,0,0,0,0,0,0,0,0,0,0,0,0,0,0,0,0,0,0,0,0,0,0,0,0,0,0,0,0,0,0,0,0,0,0,0,0,0,0,0,0,0,0,0,0,0,0,0,0,0,0,0],"sum_hessian":[3.0598088E5,1.6560989E5,1.40371E5,8.2454234E4,8.315566E4,3.1778852E4,1.0859214E5,7.737507E3,7.471673E4,1.6862025E4,6.6293625E4,2.1508092E4,1.0270761E4,1.2460513E4,9.613163E4,3.041922E3,4.6955845E3,3.0408982E3,7.167583E4,9.685028E3,7.176996E3,5.6903562E4,9.390067E3,1.13673E4,1.0140792E4,4.735109E3,5.5356514E3,3.6959912E3,8.764521E3,8.919277E3,8.721235E4,8.796765E2,2.1622456E3,4.4901567E3,2.054281E2,2.387254E3,6.536443E2,6.094353E4,1.0732294E4,9.803331E2,8.704695E3,5.20338E3,1.9736162E3,1.2606095E4,4.4297465E4,5.516378E3,3.8736895E3,4.155603E3,7.211697E3,3.7767454E3,6.364047E3,2.1529893E3,2.5821196E3,5.243885E2,5.011263E3,1.440484E3,2.255507E3,4.0567314E3,4.70779E3,1.338343E3,7.5809346E3,4.7565817E2,8.6736695E4,4.3157492E2,4.4810156E2,1.9673663E3,1.9487921E2,2.4304893E3,2.0596672E3,1.853568E2,2.00713E1,1.562433E3,8.248209E2,2.3205983E2,4.2158444E2,6.092522E4,1.8313269E1,9.441326E3,1.2909681E3,9.282955E2,5.203771E1,4.2290435E3,4.4756523E3,1.3695796E3,3.8338E3,1.0627092E3,9.1090704E2,6.6496055E3,5.9564893E3,4.1681918E4,2.6155488E3,1.852171E3,3.6642068E3,1.5470609E3,2.3266284E3,1.350073E3,2.8055303E3,5.6385205E3,1.573176E3,6.095346E2,3.1672107E3,4.8251406E3,1.5389062E3,1.4527527E3,7.002366E2,1.7354433E2,2.4085752E3,8.032067E1,4.4406784E2,2.3481152E3,2.6631477E3,7.9294836E2,6.475356E2,4.6275775E2,1.7927494E3,2.134726E3,1.9220052E3,4.649711E3,5.8079403E1,8.103167E1,1.2573113E3,6.525888E3,1.0550468E3,3.0509024E2,1.7056795E2,8.6340336E4,3.9635684E2],"tree_param":{"num_deleted":"0","num_feature":"65","num_nodes":"127","size_leaf_vector":"1"}},{"base_weights":[7.856174E-3,-7.186527E-1,9.022523E-1,-1.2549877E0,-2.4487668E-1,3.379794E-1,1.0741863E0,-2.3565063E-1,-1.3572031E0,-8.531704E-1,-8.282667E-2,6.1127454E-2,9.289836E-1,5.2828187E-1,1.1507697E0,-7.0607364E-1,8.972959E-2,-1.3913796E0,-1.1134645E0,-1.0618762E0,-6.5413356E-1,-1.5222308E-1,3.172479E-1,-1.3787766E-1,3.6589208E-1,7.290193E-1,1.0949332E0,-5.2676957E-2,7.7573264E-1,9.4433475E-1,1.1644168E0,-1.1649216E0,-5.2412367E-1,1.4598922E-1,-1.0390325E0,-1.4237268E0,-1.3302469E0,-1.6912441E-1,-1.2803303E0,-4.331269E-1,-1.1115103E0,-7.5991374E-1,-3.889882E-1,-5.0930256E-1,-5.3103495E-2,4.852102E-1,7.5716175E-2,-3.811244E-1,-4.866927E-2,2.4291773E-1,6.634419E-1,5.8057046E-1,8.523053E-1,8.903618E-1,1.1505829E0,-2.7883288E-1,1.97043E-1,6.0479164E-1,9.3201685E-1,4.0528667E-1,1.0400865E0,7.929158E-1,1.1713656E0,-5.2566104E-2,-1.04141206E-1,-3.0238673E-2,-8.201427E-2,2.9340923E-2,5.9100706E-4,-9.919516E-2,4.925908E-2,-1.1394362E-1,-7.0690356E-2,-8.4533654E-2,-1.0783681E-1,1.0869814E-2,-5.585613E-2,-1.0378834E-1,-2.8552959E-2,-4.5531314E-2,1.02104545E-1,-9.809121E-2,-7.967349E-2,-8.152253E-2,-5.4558236E-2,-4.594613E-2,-1.5675621E-2,-1.4603618E-2,-5.9938487E-2,-5.8682174E-3,1.4969994E-2,1.4097338E-2,4.718214E-2,-2.6695313E-2,2.2483587E-2,-4.8193935E-2,-1.7034791E-2,-1.4979135E-2,8.610093E-3,7.550443E-3,3.2511447E-2,2.4896886E-2,7.2154E-2,-2.1813249E-3,4.8904E-2,2.1110117E-2,7.182053E-2,4.8440874E-2,8.436407E-2,8.482784E-2,9.542284E-2,-9.599211E-3,-6.2061947E-2,5.8424108E-2,5.696634E-3,3.619002E-2,6.1427392E-2,7.817958E-2,5.6877207E-2,-3.4092866E-2,4.188499E-2,7.870024E-2,9.248851E-2,7.4355826E-2,-1.784737E-2,9.597374E-2,9.179259E-2],"categories":[],"categories_nodes":[],"categories_segments":[],"categories_sizes":[],"default_left":[0,0,0,0,0,0,0,0,0,0,0,0,0,0,0,0,0,0,0,0,0,0,0,0,0,0,0,0,0,0,0,0,0,0,0,0,0,0,0,0,0,0,0,0,0,0,0,0,0,0,0,0,0,0,0,0,0,0,0,0,0,0,0,0,0,0,0,0,0,0,0,0,0,0,0,0,0,0,0,0,0,0,0,0,0,0,0,0,0,0,0,0,0,0,0,0,0,0,0,0,0,0,0,0,0,0,0,0,0,0,0,0,0,0,0,0,0,0,0,0,0,0,0,0,0,0,0],"id":9,"left_children":[1,3,5,7,9,11,13,15,17,19,21,23,25,27,29,31,33,35,37,39,41,43,45,47,49,51,53,55,57,59,61,63,65,67,69,71,73,75,77,79,81,83,85,87,89,91,93,95,97,99,101,103,105,107,109,111,113,115,117,119,121,123,125,-1,-1,-1,-1,-1,-1,-1,-1,-1,-1,-1,-1,-1,-1,-1,-1,-1,-1,-1,-1,-1,-1,-1,-1,-1,-1,-1,-1,-1,-1,-1,-1,-1,-1,-1,-1,-1,-1,-1,-1,-1,-1,-1,-1,-1,-1,-1,-1,-1,-1,-1,-1,-1,-1,-1,-1,-1,-1,-1,-1,-1,-1,-1,-1],"loss_changes":[1.9270828E5,4.1582242E4,1.2895914E4,7.9968984E3,8.565131E3,5.079588E3,4.2588125E3,1.0709812E3,5.795625E2,7.585908E2,1.9050216E3,1.2823481E3,3.278418E2,1.8022378E3,2.5061719E2,2.3822546E2,2.6284662E2,1.19078125E2,1.3523711E3,2.7791602E2,2.621836E2,2.0695063E3,4.1143414E2,2.7754974E2,3.05458E2,8.1761475E1,6.0566406E1,2.115896E2,2.3430957E2,2.8581445E2,2.1540625E2,5.5538208E1,1.4974237E2,1.2059474E2,6.609589E1,1.10234375E1,1.01234375E2,2.0827774E2,1.14206055E2,1.5286435E2,1.08325195E2,1.3437842E2,9.544757E1,9.9585645E2,2.2265312E2,1.9318555E2,3.499153E2,1.27618866E2,2.0274158E2,1.4350348E2,2.0484143E2,3.8163513E1,6.537329E1,5.3679504E1,1.4918945E1,1.5508987E2,1.19433975E2,1.0407385E2,4.5203613E1,8.264458E1,2.9636719E1,2.1408508E2,5.4414062E1,0E0,0E0,0E0,0E0,0E0,0E0,0E0,0E0,0E0,0E0,0E0,0E0,0E0,0E0,0E0,0E0,0E0,0E0,0E0,0E0,0E0,0E0,0E0,0E0,0E0,0E0,0E0,0E0,0E0,0E0,0E0,0E0,0E0,0E0,0E0,0E0,0E0,0E0,0E0,0E0,0E0,0E0,0E0,0E0,0E0,0E0,0E0,0E0,0E0,0E0,0E0,0E0,0E0,0E0,0E0,0E0,0E0,0E0,0E0,0E0,0E0,0E0,0E0,0E0],"parents":[2147483647,0,0,1,1,2,2,3,3,4,4,5,5,6,6,7,7,8,8,9,9,10,10,11,11,12,12,13,13,14,14,15,15,16,16,17,17,18,18,19,19,20,20,21,21,22,22,23,23,24,24,25,25,26,26,27,27,28,28,29,29,30,30,31,31,32,32,33,33,34,34,35,35,36,36,37,37,38,38,39,39,40,40,41,41,42,42,43,43,44,44,45,45,46,46,47,47,48,48,49,49,50,50,51,51,52,52,53,53,54,54,55,55,56,56,57,57,58,58,59,59,60,60,61,61,62,62],"right_children":[2,4,6,8,10,12,14,16,18,20,22,24,26,28,30,32,34,36,38,40,42,44,46,48,50,52,54,56,58,60,62,64,66,68,70,72,74,76,78,80,82,84,86,88,90,92,94,96,98,100,102,104,106,108,110,112,114,116,118,120,122,124,126,-1,-1,-1,-1,-1,-1,-1,-1,-1,-1,-1,-1,-1,-1,-1,-1,-1,-1,-1,-1,-1,-1,-1,-1,-1,-1,-1,-1,-1,-1,-1,-1,-1,-1,-1,-1,-1,-1,-1,-1,-1,-1,-1,-1,-1,-1,-1,-1,-1,-1,-1,-1,-1,-1,-1,-1,-1,-1,-1,-1,-1,-1,-1,-1],"split_conditions":[1.0169492E0,4.5864663E-1,3.32E2,2.6398102E1,5E-1,5.068493E-1,1.1234568E0,5.3061223E-1,5.1724136E-1,9.4E-1,5.283019E-1,4.909091E-1,5.3333336E-1,5E-1,1.1975E0,4.5652175E-1,2.122693E2,4.3589744E-1,1.9150934E2,2.4206995E1,2.1E1,4.899329E-1,1E0,4.698795E-1,1.46E2,5.365854E-1,7.3E1,7E0,5.1435405E-1,4.848485E-1,3.9285713E-1,4E0,4E0,5.282523E-1,1.1E1,1.3E1,1.2887968E2,1E0,1.3E1,4.05E2,4.642857E-1,4.5E-1,4.6575344E-1,1.45E2,5.068493E-1,2.034565E1,4.820144E-1,4.53125E-1,4.5454547E-1,5.2E-1,5.1435405E-1,3E0,1.4479329E1,5.740741E-1,5.5E-1,7E0,7E0,5.121951E-1,6.2648422E1,4.3103448E-1,5.5E-1,1.2E1,4E0,-5.2566104E-2,-1.04141206E-1,-3.0238673E-2,-8.201427E-2,2.9340923E-2,5.9100706E-4,-9.919516E-2,4.925908E-2,-1.1394362E-1,-7.0690356E-2,-8.4533654E-2,-1.0783681E-1,1.0869814E-2,-5.585613E-2,-1.0378834E-1,-2.8552959E-2,-4.5531314E-2,1.02104545E-1,-9.809121E-2,-7.967349E-2,-8.152253E-2,-5.4558236E-2,-4.594613E-2,-1.5675621E-2,-1.4603618E-2,-5.9938487E-2,-5.8682174E-3,1.4969994E-2,1.4097338E-2,4.718214E-2,-2.6695313E-2,2.2483587E-2,-4.8193935E-2,-1.7034791E-2,-1.4979135E-2,8.610093E-3,7.550443E-3,3.2511447E-2,2.4896886E-2,7.2154E-2,-2.1813249E-3,4.8904E-2,2.1110117E-2,7.182053E-2,4.8440874E-2,8.436407E-2,8.482784E-2,9.542284E-2,-9.599211E-3,-6.2061947E-2,5.8424108E-2,5.696634E-3,3.619002E-2,6.1427392E-2,7.817958E-2,5.6877207E-2,-3.4092866E-2,4.188499E-2,7.870024E-2,9.248851E-2,7.4355826E-2,-1.784737E-2,9.597374E-2,9.179259E-2],"split_indices":[62,48,18,60,49,49,62,49,49,62,49,49,48,49,62,49,52,49,52,60,38,48,17,55,1,49,1,19,48,49,49,31,3,56,20,20,52,17,20,18,49,49,49,10,49,59,48,49,49,48,48,15,59,49,49,27,27,49,54,49,49,28,28,0,0,0,0,0,0,0,0,0,0,0,0,0,0,0,0,0,0,0,0,0,0,0,0,0,0,0,0,0,0,0,0,0,0,0,0,0,0,0,0,0,0,0,0,0,0,0,0,0,0,0,0,0,0,0,0,0,0,0,0,0,0,0,0],"split_type":[0,0,0,0,0,0,0,0,0,0,0,0,0,0,0,0,0,0,0,0,0,0,0,0,0,0,0,0,0,0,0,0,0,0,0,0,0,0,0,0,0,0,0,0,0,0,0,0,0,0,0,0,0,0,0,0,0,0,0,0,0,0,0,0,0,0,0,0,0,0,0,0,0,0,0,0,0,0,0,0,0,0,0,0,0,0,0,0,0,0,0,0,0,0,0,0,0,0,0,0,0,0,0,0,0,0,0,0,0,0,0,0,0,0,0,0,0,0,0,0,0,0,0,0,0,0,0],"sum_hessian":[2.965696E5,1.6364369E5,1.329259E5,7.675362E4,8.689007E4,3.1044254E4,1.0188165E5,6.995429E3,6.975819E4,1.8277355E4,6.861271E4,2.114168E4,9.902574E3,1.2535263E4,8.934639E4,2.8597441E3,4.135685E3,6.117559E4,8.582594E3,8.919853E3,9.357503E3,5.8471023E4,1.01416875E4,1.2790373E4,8.351306E3,4.4934697E3,5.4091045E3,3.7445908E3,8.790672E3,5.5446187E3,8.3801766E4,8.104697E2,2.0492744E3,3.9401702E3,1.9551485E2,3.9992176E4,2.1183416E4,1.2891202E3,7.293473E3,6.5333466E2,8.266518E3,6.6876055E3,2.6698972E3,1.2703256E4,4.576777E4,5.981273E3,4.160415E3,3.4311895E3,9.359184E3,5.910409E3,2.4408967E3,2.0412753E3,2.452194E3,1.1604021E3,4.248702E3,1.9649451E3,1.7796458E3,4.2007905E3,4.5898813E3,8.3712695E2,4.7074917E3,1.5408217E3,8.2260945E4,1.73264E2,6.372057E2,1.587895E3,4.6137946E2,1.5189912E3,2.421179E3,1.7457076E2,2.0944094E1,3.9948484E4,4.3689674E1,1.2918466E3,1.989157E4,8.181973E2,4.709229E2,7.16105E3,1.3242357E2,6.058E2,4.7534645E1,4.1456997E3,4.1208184E3,1.5435594E3,5.144046E3,1.3611227E3,1.3087744E3,5.379165E3,7.3240913E3,4.2210477E4,3.5572913E3,1.5130132E3,4.46826E3,1.3894155E3,2.7709993E3,1.4805435E3,1.950646E3,4.9607954E3,4.3983887E3,3.097517E3,2.8128923E3,9.863698E2,1.4545269E3,9.823725E1,1.9430381E3,1.763184E2,2.2758757E3,4.2600897E2,7.343932E2,1.3622178E3,2.8864844E3,1.4899408E3,4.750043E2,3.3885544E2,1.4407903E3,2.1731501E3,2.0276401E3,3.8074446E3,7.8243677E2,1.0392912E2,7.331978E2,3.1752349E3,1.532257E3,1.3583683E3,1.8245343E2,3.768621E4,4.4574734E4],"tree_param":{"num_deleted":"0","num_feature":"65","num_nodes":"127","size_leaf_vector":"1"}},{"base_weights":[7.552915E-3,-6.6911155E-1,8.8118815E-1,-1.1837877E0,-2.0717844E-1,2.2088134E-1,1.0211673E0,-2.4081194E-1,-1.29901E0,-7.6301503E-1,-6.5487415E-2,8.0230586E-2,8.4716135E-1,5.355633E-1,1.127184E0,-6.817288E-1,1.6104978E-1,-1.3401134E0,-1.059705E0,-9.4086146E-1,-5.560811E-1,-1.3197398E-1,2.9426152E-1,2.716556E-2,9.328062E-1,6.917427E-1,1.0824364E0,-7.886257E-2,7.423162E-1,9.673804E-1,1.1457355E0,-1.0870681E0,-4.2062494E-1,2.9407078E-1,-5.1672656E-2,-1.3568108E0,-1.1981579E0,-3.639736E-1,-1.2413808E0,-1.0448247E0,-6.4372003E-1,-4.7996855E-1,-9.1787034E-1,-4.465453E-1,-3.645212E-2,5.895363E-1,1.7145102E-1,-1.8981315E-1,2.3095228E-1,-4.5740655E-1,1.0396887E0,2.7798507E-1,7.5158215E-1,1.0890527E0,-7.0316553E-1,-3.635552E-1,1.1695875E-1,5.351426E-1,8.761457E-1,3.8184234E-1,1.0359535E0,1.1499404E0,5.9076506E-1,-6.8341844E-2,-1.0084255E-1,-2.4300339E-2,-8.06905E-2,1.08760465E-2,3.2938655E-2,-2.3942381E-2,6.654761E-3,-1.1013096E-1,-1.0474185E-1,-8.857142E-2,-1.0397391E-1,-5.2309062E-2,2.3516554E-3,-1.0062405E-1,-2.4416719E-2,-6.498719E-2,-8.9495726E-2,-5.4647665E-2,1.0288283E-1,-5.9244804E-2,-3.1213433E-2,-8.878684E-2,-5.575153E-2,-1.6884645E-2,-5.5765048E-2,-4.347813E-3,1.7522262E-2,3.469086E-2,6.250959E-2,5.093655E-3,4.184999E-2,-1.1930172E-3,-2.7292168E-2,1.2296127E-2,4.836096E-2,1.5268592E-2,-2.2563341E-1,1.3872917E-2,9.0876035E-2,-2.1047927E-2,3.5850488E-2,4.7760777E-2,7.290798E-2,7.885481E-2,9.45837E-2,-1.4798509E-1,5.5198062E-2,-4.9549002E-2,-7.962848E-3,-5.8082856E-2,1.760755E-2,3.5253987E-2,6.4933464E-2,6.30934E-2,8.1548855E-2,-2.9517569E-2,5.509081E-2,7.255119E-2,8.7342575E-2,6.952069E-2,9.225911E-2,8.5557766E-2,8.0504855E-3],"categories":[],"categories_nodes":[],"categories_segments":[],"categories_sizes":[],"default_left":[0,0,0,0,0,0,0,0,0,0,0,0,0,0,0,0,0,0,0,0,0,0,0,0,0,0,0,0,0,0,0,0,0,0,0,0,0,0,0,0,0,0,0,0,0,0,0,0,0,0,0,0,0,0,0,0,0,0,0,0,0,0,0,0,0,0,0,0,0,0,0,0,0,0,0,0,0,0,0,0,0,0,0,0,0,0,0,0,0,0,0,0,0,0,0,0,0,0,0,0,0,0,0,0,0,0,0,0,0,0,0,0,0,0,0,0,0,0,0,0,0,0,0,0,0,0,0],"id":10,"left_children":[1,3,5,7,9,11,13,15,17,19,21,23,25,27,29,31,33,35,37,39,41,43,45,47,49,51,53,55,57,59,61,63,65,67,69,71,73,75,77,79,81,83,85,87,89,91,93,95,97,99,101,103,105,107,109,111,113,115,117,119,121,123,125,-1,-1,-1,-1,-1,-1,-1,-1,-1,-1,-1,-1,-1,-1,-1,-1,-1,-1,-1,-1,-1,-1,-1,-1,-1,-1,-1,-1,-1,-1,-1,-1,-1,-1,-1,-1,-1,-1,-1,-1,-1,-1,-1,-1,-1,-1,-1,-1,-1,-1,-1,-1,-1,-1,-1,-1,-1,-1,-1,-1,-1,-1,-1,-1],"loss_changes":[1.699359E5,3.851292E4,1.1596844E4,8.324789E3,6.723598E3,1.9332051E3,5.3290156E3,1.4786053E3,6.701953E2,6.376963E2,1.6272417E3,8.108666E2,1.4642676E2,2.3569292E3,2.5078906E2,4.2065955E2,1.2356548E2,1.3649219E2,1.2652119E3,2.8739258E2,2.2034497E2,1.7253658E3,3.8472723E2,7.4618024E2,1.5652045E2,5.9870605E1,1.9660645E1,2.605071E2,3.844204E2,3.5473828E2,1.7696875E2,6.1848755E1,1.6611404E2,4.9926666E1,5.614695E1,4.7328125E1,5.529785E1,2.3661407E2,1.2166113E2,1.1770117E2,1.8472968E2,1.5477649E2,5.8296265E1,7.888701E2,2.0139043E2,9.28772E1,2.8410382E2,2.1633243E2,2.5103052E2,1.1645355E2,8.114978E1,2.849055E1,5.179541E1,1.4196777E1,1.1678781E1,1.2854732E2,2.4089233E2,1.420282E2,1.04836914E2,2.1419914E2,5.605371E1,6.9015625E1,1.3469054E2,0E0,0E0,0E0,0E0,0E0,0E0,0E0,0E0,0E0,0E0,0E0,0E0,0E0,0E0,0E0,0E0,0E0,0E0,0E0,0E0,0E0,0E0,0E0,0E0,0E0,0E0,0E0,0E0,0E0,0E0,0E0,0E0,0E0,0E0,0E0,0E0,0E0,0E0,0E0,0E0,0E0,0E0,0E0,0E0,0E0,0E0,0E0,0E0,0E0,0E0,0E0,0E0,0E0,0E0,0E0,0E0,0E0,0E0,0E0,0E0,0E0,0E0,0E0,0E0],"parents":[2147483647,0,0,1,1,2,2,3,3,4,4,5,5,6,6,7,7,8,8,9,9,10,10,11,11,12,12,13,13,14,14,15,15,16,16,17,17,18,18,19,19,20,20,21,21,22,22,23,23,24,24,25,25,26,26,27,27,28,28,29,29,30,30,31,31,32,32,33,33,34,34,35,35,36,36,37,37,38,38,39,39,40,40,41,41,42,42,43,43,44,44,45,45,46,46,47,47,48,48,49,49,50,50,51,51,52,52,53,53,54,54,55,55,56,56,57,57,58,58,59,59,60,60,61,61,62,62],"right_children":[2,4,6,8,10,12,14,16,18,20,22,24,26,28,30,32,34,36,38,40,42,44,46,48,50,52,54,56,58,60,62,64,66,68,70,72,74,76,78,80,82,84,86,88,90,92,94,96,98,100,102,104,106,108,110,112,114,116,118,120,122,124,126,-1,-1,-1,-1,-1,-1,-1,-1,-1,-1,-1,-1,-1,-1,-1,-1,-1,-1,-1,-1,-1,-1,-1,-1,-1,-1,-1,-1,-1,-1,-1,-1,-1,-1,-1,-1,-1,-1,-1,-1,-1,-1,-1,-1,-1,-1,-1,-1,-1,-1,-1,-1,-1,-1,-1,-1,-1,-1,-1,-1,-1,-1,-1,-1],"split_conditions":[1.0208334E0,8.6153847E-1,2.9511724E1,1.99E2,5E-1,5.068493E-1,1.1515151E0,5.3061223E-1,5.113636E-1,4.888889E-1,5.25E-1,3.1600586E2,5.520833E-1,4.918033E-1,1.2597402E0,4.7368422E-1,6.4375E-1,8.018253E-1,4.66E2,2E1,2.84E2,4.9275362E-1,4.8818898E-1,4.6969697E-1,2.1177296E1,1.4981419E1,1.9E1,1E0,1.059322E0,4.722222E-1,1.3E1,6E1,1.2E2,5.675676E-1,5.740741E-1,4.3589744E-1,5.8E1,5.4285717E-1,1.3E1,4E0,4.3834714E2,4.473684E-1,7E0,1.85E2,5.058824E-1,5.483871E-1,5.740741E-1,2.069724E1,5.4831934E-1,1.4E1,5.22293E-1,1E0,5.365854E-1,6.0844946E-1,1.9E1,4.7887325E-1,4.3103448E-1,5.365854E-1,5.365854E-1,1E0,5.058824E-1,3.8372093E-1,1.77E2,-6.8341844E-2,-1.0084255E-1,-2.4300339E-2,-8.06905E-2,1.08760465E-2,3.2938655E-2,-2.3942381E-2,6.654761E-3,-1.1013096E-1,-1.0474185E-1,-8.857142E-2,-1.0397391E-1,-5.2309062E-2,2.3516554E-3,-1.0062405E-1,-2.4416719E-2,-6.498719E-2,-8.9495726E-2,-5.4647665E-2,1.0288283E-1,-5.9244804E-2,-3.1213433E-2,-8.878684E-2,-5.575153E-2,-1.6884645E-2,-5.5765048E-2,-4.347813E-3,1.7522262E-2,3.469086E-2,6.250959E-2,5.093655E-3,4.184999E-2,-1.1930172E-3,-2.7292168E-2,1.2296127E-2,4.836096E-2,1.5268592E-2,-2.2563341E-1,1.3872917E-2,9.0876035E-2,-2.1047927E-2,3.5850488E-2,4.7760777E-2,7.290798E-2,7.885481E-2,9.45837E-2,-1.4798509E-1,5.5198062E-2,-4.9549002E-2,-7.962848E-3,-5.8082856E-2,1.760755E-2,3.5253987E-2,6.4933464E-2,6.30934E-2,8.1548855E-2,-2.9517569E-2,5.509081E-2,7.255119E-2,8.7342575E-2,6.952069E-2,9.225911E-2,8.5557766E-2,8.0504855E-3],"split_indices":[62,62,59,26,49,49,62,49,49,48,49,53,48,49,62,49,56,62,26,38,0,48,56,49,59,59,32,8,62,49,28,10,10,49,49,49,41,49,20,28,44,49,19,10,49,49,49,60,48,35,48,3,49,48,39,49,49,49,49,8,49,49,41,0,0,0,0,0,0,0,0,0,0,0,0,0,0,0,0,0,0,0,0,0,0,0,0,0,0,0,0,0,0,0,0,0,0,0,0,0,0,0,0,0,0,0,0,0,0,0,0,0,0,0,0,0,0,0,0,0,0,0,0,0,0,0,0],"split_type":[0,0,0,0,0,0,0,0,0,0,0,0,0,0,0,0,0,0,0,0,0,0,0,0,0,0,0,0,0,0,0,0,0,0,0,0,0,0,0,0,0,0,0,0,0,0,0,0,0,0,0,0,0,0,0,0,0,0,0,0,0,0,0,0,0,0,0,0,0,0,0,0,0,0,0,0,0,0,0,0,0,0,0,0,0,0,0,0,0,0,0,0,0,0,0,0,0,0,0,0,0,0,0,0,0,0,0,0,0,0,0,0,0,0,0,0,0,0,0,0,0,0,0,0,0,0,0],"sum_hessian":[2.874608E5,1.6199195E5,1.2546884E5,7.662095E4,8.537101E4,2.1946373E4,1.0352247E5,8.343237E3,6.827772E4,1.7340795E4,6.803021E4,1.7922453E4,4.0239192E3,1.855202E4,8.4970445E4,3.9779697E3,4.365267E3,5.826535E4,1.0012362E4,9.323931E3,8.016865E3,5.7419016E4,1.0611194E4,1.6873277E4,1.0491753E3,2.42557E3,1.5983491E3,4.6711045E3,1.3880914E4,8.843682E3,7.6126766E4,1.5572782E3,2.4206917E3,2.6855432E3,1.679724E3,5.2125586E4,6.1397676E3,2.07378E3,7.9385825E3,6.9053745E3,2.4185557E3,6.625361E3,1.3915046E3,1.3373597E4,4.404542E4,3.1158696E3,7.4953247E3,8.1721636E3,8.701114E3,7.4669876E1,9.745054E2,3.0718622E2,2.1183838E3,1.5928372E3,5.5119405E0,1.9032416E3,2.7678628E3,5.4496426E3,8.431271E3,9.278079E2,7.915874E3,7.555326E4,5.7351227E2,6.6745416E2,8.89824E2,2.0205989E3,4.0009268E2,1.1467042E3,1.538839E3,5.918419E2,1.0878821E3,3.676453E4,1.5361054E4,3.2435981E3,2.8961694E3,1.1935457E3,8.802343E2,7.801408E3,1.371744E2,1.6679861E3,5.2373887E3,2.3708262E3,4.772955E1,1.6961304E3,4.9292305E3,7.424797E2,6.4902496E2,6.8945493E3,6.4790474E3,4.1162887E4,2.8825344E3,1.720722E3,1.3951476E3,5.73795E3,1.7573749E3,3.7914885E3,4.3806753E3,7.2112646E3,1.48985E3,5.931637E1,1.5353507E1,9.773863E1,8.767667E2,7.335679E1,2.3382945E2,1.0791047E3,1.039279E3,7.6089624E2,8.3194086E2,2.8436372E0,2.6683035E0,9.6597095E2,9.3727057E2,3.0106046E2,2.4668025E3,4.0639087E3,1.385734E3,5.238198E3,3.1930735E3,2.6908218E2,6.587257E2,2.3954219E3,5.520452E3,8.798854E2,7.467337E4,2.895403E2,2.8397192E2],"tree_param":{"num_deleted":"0","num_feature":"65","num_nodes":"127","size_leaf_vector":"1"}},{"base_weights":[7.589345E-3,-6.1246216E-1,8.762512E-1,-1.1669384E0,-1.9818068E-1,2.5491622E-1,1.0273677E0,-2.597822E-1,-1.2717848E0,-7.195557E-1,-5.3604055E-2,-1.2360716E-1,6.052102E-1,5.729972E-1,1.1115525E0,-7.3452353E-1,9.6517175E-2,-1.3017309E0,-1.0462999E0,-9.2794716E-1,-4.9382794E-1,-1.20523475E-1,2.7706727E-1,1.0537043E-1,-1.8725133E-1,3.7094015E-1,8.986851E-1,6.9593966E-2,7.958597E-1,6.952108E-1,1.1193249E0,-1.2013788E0,-5.393887E-1,2.691826E-1,-2.9382585E-2,-1.3313662E0,-1.2395252E0,-2.3238672E-1,-1.184438E0,-4.172637E-1,-9.864349E-1,-4.5067304E-1,-9.4289786E-1,-5.0827247E-1,-4.1290097E-2,9.441683E-2,4.5720068E-1,-4.01935E-1,1.9286457E-1,-4.228147E-1,-5.002908E-2,2.0166221E-1,6.59951E-1,7.201023E-1,1.0377588E0,-1.4004135E-1,2.8788918E-1,6.0289395E-1,8.9715177E-1,8.386691E-1,-2.9870975E-1,9.690672E-1,1.1331973E0,-1.01087235E-1,-2.9715752E-2,-3.0054562E-2,-6.828963E-2,3.174522E-3,2.9775042E-2,-1.8187357E-2,8.5738255E-3,-1.073384E-1,-1.0305783E-1,-8.617641E-2,-1.0075406E-1,7.228922E-3,-5.833984E-2,-9.6330434E-2,-1.9787636E-2,-3.9336406E-2,9.941054E-2,-8.9103065E-2,-7.067817E-2,-5.4104906E-2,-2.858801E-2,8.4552184E-2,-7.8437544E-2,-5.5207364E-2,-1.7912216E-2,-1.7226592E-2,-5.648709E-4,2.2935487E-2,-2.4037428E-2,5.618765E-2,2.677413E-2,2.1239035E-2,-5.765241E-2,5.507167E-2,1.0877819E-2,-4.805897E-2,-1.8938486E-2,-1.3896476E-2,1.6628578E-2,9.81972E-3,3.339609E-2,3.772625E-2,7.119777E-2,1.0874616E-2,6.184898E-2,6.715029E-2,8.954578E-2,-3.463961E-2,5.2305385E-3,-5.017482E-2,2.8738862E-2,3.5099592E-2,6.020085E-2,7.33457E-2,3.1835523E-2,-2.3174798E-1,6.881254E-2,-9.294405E-2,1.0416461E-1,4.238327E-2,8.170104E-2,9.170829E-2,8.483985E-2],"categories":[],"categories_nodes":[],"categories_segments":[],"categories_sizes":[],"default_left":[0,0,0,0,0,0,0,0,0,0,0,0,0,0,0,0,0,0,0,0,0,0,0,0,0,0,0,0,0,0,0,0,0,0,0,0,0,0,0,0,0,0,0,0,0,0,0,0,0,0,0,0,0,0,0,0,0,0,0,0,0,0,0,0,0,0,0,0,0,0,0,0,0,0,0,0,0,0,0,0,0,0,0,0,0,0,0,0,0,0,0,0,0,0,0,0,0,0,0,0,0,0,0,0,0,0,0,0,0,0,0,0,0,0,0,0,0,0,0,0,0,0,0,0,0,0,0],"id":11,"left_children":[1,3,5,7,9,11,13,15,17,19,21,23,25,27,29,31,33,35,37,39,41,43,45,47,49,51,53,55,57,59,61,63,65,67,69,71,73,75,77,79,81,83,85,87,89,91,93,95,97,99,101,103,105,107,109,111,113,115,117,119,121,123,125,-1,-1,-1,-1,-1,-1,-1,-1,-1,-1,-1,-1,-1,-1,-1,-1,-1,-1,-1,-1,-1,-1,-1,-1,-1,-1,-1,-1,-1,-1,-1,-1,-1,-1,-1,-1,-1,-1,-1,-1,-1,-1,-1,-1,-1,-1,-1,-1,-1,-1,-1,-1,-1,-1,-1,-1,-1,-1,-1,-1,-1,-1,-1,-1],"loss_changes":[1.4977811E5,3.7272227E4,1.0874617E4,6.5993594E3,7.000495E3,3.0046157E3,3.5629219E3,1.2162802E3,4.186328E2,9.4796387E2,1.6089945E3,1.5874696E2,8.088003E2,1.6339644E3,2.5355469E2,2.801942E2,8.93168E1,9.95625E1,8.2016895E2,3.126875E2,1.8718115E2,1.8578735E3,4.0261694E2,1.0525373E2,2.7548846E2,3.2013025E2,1.2898633E2,2.046192E2,1.9678125E2,2.0600916E2,1.5972656E2,4.640686E1,1.1161145E2,4.094143E1,6.427544E1,1.48828125E1,5.591992E1,1.7005441E2,1.14819336E2,1.3392639E2,1.223291E2,1.857738E2,6.473718E1,5.303513E2,2.9913776E2,4.615706E2,1.8482898E2,7.440635E1,5.6901047E1,1.0372778E2,1.7185118E2,7.027406E1,1.0433191E2,7.081531E1,4.6540283E1,1.373059E2,1.4322595E2,8.509155E1,6.461963E1,1.0373334E2,2.5400136E2,1.4913965E2,6.634375E1,0E0,0E0,0E0,0E0,0E0,0E0,0E0,0E0,0E0,0E0,0E0,0E0,0E0,0E0,0E0,0E0,0E0,0E0,0E0,0E0,0E0,0E0,0E0,0E0,0E0,0E0,0E0,0E0,0E0,0E0,0E0,0E0,0E0,0E0,0E0,0E0,0E0,0E0,0E0,0E0,0E0,0E0,0E0,0E0,0E0,0E0,0E0,0E0,0E0,0E0,0E0,0E0,0E0,0E0,0E0,0E0,0E0,0E0,0E0,0E0,0E0,0E0,0E0,0E0],"parents":[2147483647,0,0,1,1,2,2,3,3,4,4,5,5,6,6,7,7,8,8,9,9,10,10,11,11,12,12,13,13,14,14,15,15,16,16,17,17,18,18,19,19,20,20,21,21,22,22,23,23,24,24,25,25,26,26,27,27,28,28,29,29,30,30,31,31,32,32,33,33,34,34,35,35,36,36,37,37,38,38,39,39,40,40,41,41,42,42,43,43,44,44,45,45,46,46,47,47,48,48,49,49,50,50,51,51,52,52,53,53,54,54,55,55,56,56,57,57,58,58,59,59,60,60,61,61,62,62],"right_children":[2,4,6,8,10,12,14,16,18,20,22,24,26,28,30,32,34,36,38,40,42,44,46,48,50,52,54,56,58,60,62,64,66,68,70,72,74,76,78,80,82,84,86,88,90,92,94,96,98,100,102,104,106,108,110,112,114,116,118,120,122,124,126,-1,-1,-1,-1,-1,-1,-1,-1,-1,-1,-1,-1,-1,-1,-1,-1,-1,-1,-1,-1,-1,-1,-1,-1,-1,-1,-1,-1,-1,-1,-1,-1,-1,-1,-1,-1,-1,-1,-1,-1,-1,-1,-1,-1,-1,-1,-1,-1,-1,-1,-1,-1,-1,-1,-1,-1,-1,-1,-1,-1,-1,-1,-1,-1],"split_conditions":[5.0769234E-1,4.5652175E-1,2.83E2,2.02E2,5E-1,4.935065E-1,1.1578947E0,5.217391E-1,5.205479E-1,4.878049E-1,5.25E-1,1.4325939E1,5.185185E-1,5E-1,3.9285713E-1,4.2857143E-1,5.416667E-1,4.4230768E-1,2.1078485E2,2.658405E1,2.3745863E2,9.4849783E-1,4.856397E-1,3.181818E-1,4.4444445E-1,1E2,5.364759E-1,2.86E2,1.0645162E0,1.2E1,5.555556E-1,5.2E1,6.4E1,5.510204E-1,5.740741E-1,5E0,1.7104819E2,1E0,1.3E1,3.7559668E2,4.5945945E-1,4.53125E-1,1E0,6.298573E1,9.892473E-1,1E0,5.2E-1,1E0,5.8834953E0,1.2142857E0,1.46E2,1.173913E0,1.1E0,1.4479329E1,7.3E1,4.722222E-1,4.2647058E-1,5.113636E-1,1.41E2,2.8466913E1,6.006E3,4.722222E-1,7E0,-1.01087235E-1,-2.9715752E-2,-3.0054562E-2,-6.828963E-2,3.174522E-3,2.9775042E-2,-1.8187357E-2,8.5738255E-3,-1.073384E-1,-1.0305783E-1,-8.617641E-2,-1.0075406E-1,7.228922E-3,-5.833984E-2,-9.6330434E-2,-1.9787636E-2,-3.9336406E-2,9.941054E-2,-8.9103065E-2,-7.067817E-2,-5.4104906E-2,-2.858801E-2,8.4552184E-2,-7.8437544E-2,-5.5207364E-2,-1.7912216E-2,-1.7226592E-2,-5.648709E-4,2.2935487E-2,-2.4037428E-2,5.618765E-2,2.677413E-2,2.1239035E-2,-5.765241E-2,5.507167E-2,1.0877819E-2,-4.805897E-2,-1.8938486E-2,-1.3896476E-2,1.6628578E-2,9.81972E-3,3.339609E-2,3.772625E-2,7.119777E-2,1.0874616E-2,6.184898E-2,6.715029E-2,8.954578E-2,-3.463961E-2,5.2305385E-3,-5.017482E-2,2.8738862E-2,3.5099592E-2,6.020085E-2,7.33457E-2,3.1835523E-2,-2.3174798E-1,6.881254E-2,-9.294405E-2,1.0416461E-1,4.238327E-2,8.170104E-2,9.170829E-2,8.483985E-2],"split_indices":[48,48,18,26,49,49,62,49,49,48,49,60,49,49,49,49,56,49,52,60,44,62,48,49,49,1,48,1,62,28,48,38,0,49,49,20,52,17,20,52,49,49,12,54,62,17,56,12,60,62,1,62,62,59,1,49,49,49,41,60,18,49,28,0,0,0,0,0,0,0,0,0,0,0,0,0,0,0,0,0,0,0,0,0,0,0,0,0,0,0,0,0,0,0,0,0,0,0,0,0,0,0,0,0,0,0,0,0,0,0,0,0,0,0,0,0,0,0,0,0,0,0,0,0,0,0,0],"split_type":[0,0,0,0,0,0,0,0,0,0,0,0,0,0,0,0,0,0,0,0,0,0,0,0,0,0,0,0,0,0,0,0,0,0,0,0,0,0,0,0,0,0,0,0,0,0,0,0,0,0,0,0,0,0,0,0,0,0,0,0,0,0,0,0,0,0,0,0,0,0,0,0,0,0,0,0,0,0,0,0,0,0,0,0,0,0,0,0,0,0,0,0,0,0,0,0,0,0,0,0,0,0,0,0,0,0,0,0,0,0,0,0,0,0,0,0,0,0,0,0,0,0,0,0,0,0,0],"sum_hessian":[2.7807803E5,1.6225827E5,1.1581977E5,6.9387664E4,9.28706E4,2.2658621E4,9.316115E4,7.1891206E3,6.2198547E4,2.0161139E4,7.270946E4,1.0890802E4,1.1767819E4,1.4563792E4,7.859736E4,3.0817996E3,4.1073213E3,5.490232E4,7.2962236E3,1.0481512E4,9.679627E3,6.047209E4,1.2237369E4,2.3685674E3,8.522234E3,6.5452524E3,5.222567E3,4.4694595E3,1.0094332E4,1.4420476E3,7.715531E4,9.0690204E2,2.1748975E3,1.7315062E3,2.375815E3,3.7172625E4,1.7729697E4,1.0590358E3,6.237188E3,1.0779099E3,9.403602E3,8.832812E3,8.4681506E2,1.0259443E4,5.021265E4,6.0769897E3,6.1603794E3,3.478841E2,2.0206833E3,3.1362651E3,5.385969E3,4.1287056E3,2.4165469E3,2.2892058E3,2.933361E3,2.2801362E3,2.1893235E3,3.4771555E3,6.617177E3,1.2602977E3,1.8174988E2,6.527183E3,7.062813E4,8.4317523E2,6.372682E1,1.4313805E3,7.43517E2,5.368233E2,1.1946829E3,9.6958215E2,1.4062328E3,2.9948365E4,7.2242593E3,1.9423025E3,1.5787395E4,6.425016E2,4.1653424E2,6.1085356E3,1.2865236E2,1.0323174E3,4.5592587E1,4.1993726E3,5.204229E3,2.582511E3,6.250301E3,1.5115901E1,8.3169916E2,6.2572627E3,4.0021804E3,8.251527E3,4.196112E4,4.087152E3,1.9898374E3,2.051342E3,4.1090376E3,1.1248966E2,2.3539442E2,2.0695883E2,1.8137245E3,1.6021517E3,1.5341135E3,3.6404246E3,1.7455447E3,3.0242737E3,1.1044319E3,1.330226E3,1.0863209E3,1.9074617E2,2.0984595E3,8.579438E2,2.0754172E3,9.393795E2,1.3407567E3,1.5778754E2,2.0315359E3,1.6599294E3,1.8172261E3,6.3655293E3,2.5164758E2,6.442782E0,1.253855E3,1.1826096E2,6.3488914E1,6.9439075E2,5.8327925E3,5.9792727E4,1.0835404E4],"tree_param":{"num_deleted":"0","num_feature":"65","num_nodes":"127","size_leaf_vector":"1"}},{"base_weights":[7.1501345E-3,-5.669972E-1,8.652606E-1,-1.1150261E0,-1.6974092E-1,2.736507E-1,1.0206674E0,-2.2180714E-1,-1.2251477E0,-6.424272E-1,-4.0142506E-2,-9.099223E-2,6.187814E-1,6.012265E-1,1.0975082E0,-6.7093307E-1,8.2142256E-2,-1.258416E0,-9.816937E-1,-8.648551E-1,-4.3793026E-1,-1.1023139E-1,2.4716449E-1,-2.4991223E-1,3.1769205E-2,4.2923588E-1,9.4803745E-1,1.2181372E-1,8.060621E-1,6.8098724E-1,1.1056186E0,-1.1349146E0,-4.7911927E-1,-9.5946476E-2,2.013145E-1,-1.2804935E0,-1.143278E0,-2.5979748E-1,-1.144895E0,-3.7309775E-1,-9.230823E-1,-5.2990425E-1,-2.6016486E-1,-4.1784227E-1,-1.834682E-2,8.0952145E-2,4.5502302E-1,-7.008257E-1,-2.0332092E-1,-2.9622952E-2,3.658394E-1,2.4617328E-1,7.32257E-1,7.5767535E-1,1.043403E0,-1.1535144E-1,2.965758E-1,7.134513E-1,9.690957E-1,9.041179E-1,1.5159896E-2,9.819565E-1,1.1172568E0,-9.535422E-2,-3.0078847E-2,-2.3951747E-2,-7.662083E-2,-2.1733677E-2,1.0299159E-2,2.693501E-2,3.1906953E-3,-1.0352364E-1,-9.724576E-2,-6.547435E-2,-9.343513E-2,1.0921447E-2,-4.9460523E-2,-9.3130805E-2,-2.255847E-2,-3.5402324E-2,9.720006E-2,-8.3645344E-2,-6.5137886E-2,-5.2098993E-2,-3.040232E-2,-3.266627E-2,-6.3392376E-3,-1.4781907E-2,-5.439267E-2,-3.3209245E-3,1.4463799E-2,2.0302836E-2,-1.9461358E-2,5.336483E-2,2.761284E-2,-1.3948748E-1,-4.607296E-2,-9.6807553E-4,-2.4879452E-2,7.982631E-3,-1.2096321E-2,4.591236E-2,3.2194057E-3,1.3320276E-2,3.5147946E-2,4.7040302E-2,7.6269664E-2,2.4116237E-2,6.741249E-2,6.708957E-2,8.86977E-2,-4.4337634E-2,3.1242114E-3,3.3781359E-3,4.185379E-2,5.854639E-2,-1.6574206E-2,6.590695E-2,8.024515E-2,-7.1251795E-2,7.706685E-2,-2.6404288E-2,9.999367E-2,5.964867E-2,8.415536E-2,9.025679E-2,8.097806E-2],"categories":[],"categories_nodes":[],"categories_segments":[],"categories_sizes":[],"default_left":[0,0,0,0,0,0,0,0,0,0,0,0,0,0,0,0,0,0,0,0,0,0,0,0,0,0,0,0,0,0,0,0,0,0,0,0,0,0,0,0,0,0,0,0,0,0,0,0,0,0,0,0,0,0,0,0,0,0,0,0,0,0,0,0,0,0,0,0,0,0,0,0,0,0,0,0,0,0,0,0,0,0,0,0,0,0,0,0,0,0,0,0,0,0,0,0,0,0,0,0,0,0,0,0,0,0,0,0,0,0,0,0,0,0,0,0,0,0,0,0,0,0,0,0,0,0,0],"id":12,"left_children":[1,3,5,7,9,11,13,15,17,19,21,23,25,27,29,31,33,35,37,39,41,43,45,47,49,51,53,55,57,59,61,63,65,67,69,71,73,75,77,79,81,83,85,87,89,91,93,95,97,99,101,103,105,107,109,111,113,115,117,119,121,123,125,-1,-1,-1,-1,-1,-1,-1,-1,-1,-1,-1,-1,-1,-1,-1,-1,-1,-1,-1,-1,-1,-1,-1,-1,-1,-1,-1,-1,-1,-1,-1,-1,-1,-1,-1,-1,-1,-1,-1,-1,-1,-1,-1,-1,-1,-1,-1,-1,-1,-1,-1,-1,-1,-1,-1,-1,-1,-1,-1,-1,-1,-1,-1,-1],"loss_changes":[1.327426E5,3.5142902E4,9.929766E3,6.672453E3,5.73301E3,2.8279521E3,2.7561875E3,1.01662476E3,4.8790625E2,9.1559766E2,1.4790839E3,2.131901E2,7.2005664E2,1.3006714E3,2.4346094E2,2.6695825E2,9.429421E1,1.3357812E2,8.556328E2,2.7582373E2,1.7143225E2,1.6689121E3,4.9761945E2,9.990875E1,1.2646811E2,4.0633618E2,7.5762695E1,1.644351E2,1.3943213E2,2.0550574E2,1.0096094E2,3.755957E1,1.8279474E2,7.03738E1,5.8150635E1,3.7648438E1,6.759863E1,1.905744E2,9.8043945E1,1.1331424E2,1.1412549E2,1.2549475E2,9.593587E1,8.293711E2,2.0974995E2,4.4864636E2,1.4886194E2,5.7036377E1,8.889566E1,8.197902E1,6.4827545E1,7.0259705E1,8.74541E1,5.4454346E1,3.6614014E1,1.14102356E2,1.3161343E2,1.00356445E2,1.5748779E1,1.1097778E2,1.4885255E2,1.0024219E2,7.339844E1,0E0,0E0,0E0,0E0,0E0,0E0,0E0,0E0,0E0,0E0,0E0,0E0,0E0,0E0,0E0,0E0,0E0,0E0,0E0,0E0,0E0,0E0,0E0,0E0,0E0,0E0,0E0,0E0,0E0,0E0,0E0,0E0,0E0,0E0,0E0,0E0,0E0,0E0,0E0,0E0,0E0,0E0,0E0,0E0,0E0,0E0,0E0,0E0,0E0,0E0,0E0,0E0,0E0,0E0,0E0,0E0,0E0,0E0,0E0,0E0,0E0,0E0,0E0,0E0],"parents":[2147483647,0,0,1,1,2,2,3,3,4,4,5,5,6,6,7,7,8,8,9,9,10,10,11,11,12,12,13,13,14,14,15,15,16,16,17,17,18,18,19,19,20,20,21,21,22,22,23,23,24,24,25,25,26,26,27,27,28,28,29,29,30,30,31,31,32,32,33,33,34,34,35,35,36,36,37,37,38,38,39,39,40,40,41,41,42,42,43,43,44,44,45,45,46,46,47,47,48,48,49,49,50,50,51,51,52,52,53,53,54,54,55,55,56,56,57,57,58,58,59,59,60,60,61,61,62,62],"right_children":[2,4,6,8,10,12,14,16,18,20,22,24,26,28,30,32,34,36,38,40,42,44,46,48,50,52,54,56,58,60,62,64,66,68,70,72,74,76,78,80,82,84,86,88,90,92,94,96,98,100,102,104,106,108,110,112,114,116,118,120,122,124,126,