{"learner":{"attributes":{"best_iteration":"280","best_score":"0.05786771377432112"},"feature_names":[],"feature_types":[],"gradient_booster":{"model":{"cats":{"enc":[],"feature_segments":[],"sorted_idx":[]},"gbtree_model_param":{"num_parallel_tree":"1","num_trees":"361"},"iteration_indptr":[0,1,2,3,4,5,6,7,8,9,10,11,12,13,14,15,16,17,18,19,20,21,22,23,24,25,26,27,28,29,30,31,32,33,34,35,36,37,38,39,40,41,42,43,44,45,46,47,48,49,50,51,52,53,54,55,56,57,58,59,60,61,62,63,64,65,66,67,68,69,70,71,72,73,74,75,76,77,78,79,80,81,82,83,84,85,86,87,88,89,90,91,92,93,94,95,96,97,98,99,100,101,102,103,104,105,106,107,108,109,110,111,112,113,114,115,116,117,118,119,120,121,122,123,124,125,126,127,128,129,130,131,132,133,134,135,136,137,138,139,140,141,142,143,144,145,146,147,148,149,150,151,152,153,154,155,156,157,158,159,160,161,162,163,164,165,166,167,168,169,170,171,172,173,174,175,176,177,178,179,180,181,182,183,184,185,186,187,188,189,190,191,192,193,194,195,196,197,198,199,200,201,202,203,204,205,206,207,208,209,210,211,212,213,214,215,216,217,218,219,220,221,222,223,224,225,226,227,228,229,230,231,232,233,234,235,236,237,238,239,240,241,242,243,244,245,246,247,248,249,250,251,252,253,254,255,256,257,258,259,260,261,262,263,264,265,266,267,268,269,270,271,272,273,274,275,276,277,278,279,280,281,282,283,284,285,286,287,288,289,290,291,292,293,294,295,296,297,298,299,300,301,302,303,304,305,306,307,308,309,310,311,312,313,314,315,316,317,318,319,320,321,322,323,324,325,326,327,328,329,330,331,332,333,334,335,336,337,338,339,340,341,342,343,344,345,346,347,348,349,350,351,352,353,354,355,356,357,358,359,360,361],"tree_info":[0,0,0,0,0,0,0,0,0,0,0,0,0,0,0,0,0,0,0,0,0,0,0,0,0,0,0,0,0,0,0,0,0,0,0,0,0,0,0,0,0,0,0,0,0,0,0,0,0,0,0,0,0,0,0,0,0,0,0,0,0,0,0,0,0,0,0,0,0,0,0,0,0,0,0,0,0,0,0,0,0,0,0,0,0,0,0,0,0,0,0,0,0,0,0,0,0,0,0,0,0,0,0,0,0,0,0,0,0,0,0,0,0,0,0,0,0,0,0,0,0,0,0,0,0,0,0,0,0,0,0,0,0,0,0,0,0,0,0,0,0,0,0,0,0,0,0,0,0,0,0,0,0,0,0,0,0,0,0,0,0,0,0,0,0,0,0,0,0,0,0,0,0,0,0,0,0,0,0,0,0,0,0,0,0,0,0,0,0,0,0,0,0,0,0,0,0,0,0,0,0,0,0,0,0,0,0,0,0,0,0,0,0,0,0,0,0,0,0,0,0,0,0,0,0,0,0,0,0,0,0,0,0,0,0,0,0,0,0,0,0,0,0,0,0,0,0,0,0,0,0,0,0,0,0,0,0,0,0,0,0,0,0,0,0,0,0,0,0,0,0,0,0,0,0,0,0,0,0,0,0,0,0,0,0,0,0,0,0,0,0,0,0,0,0,0,0,0,0,0,0,0,0,0,0,0,0,0,0,0,0,0,0,0,0,0,0,0,0,0,0,0,0,0,0,0,0,0,0,0,0,0,0,0,0,0,0,0,0,0,0,0,0,0,0,0,0,0,0,0,0,0,0,0,0,0,0,0,0,0,0],"trees":[{"base_weights":[-1.5404937E-3,-1.6647291E0,1.8241786E0,-1.9672525E0,-1.6235404E-1,3.9306358E-1,1.9746515E0,-1.9732251E0,1.4067796E0,2.555447E-1,-1.8718022E0,7.5549936E-1,-1.7824987E0,-1.7306733E0,1.9802749E0,-1.9962617E0,-1.4748232E0,7.920792E-2,-7.555555E-2,-4.3969363E-2,1.8732142E0,-1.9913726E0,7.899686E-2,4.5458874E-1,1.9329053E0,-1.9755384E0,1.9390863E0,-7.914893E-2,6.896552E-2,1.4991313E0,1.9943447E0,-1.9983944E0,-1.7213528E0,-1.5224812E0,1.3333334E0,-1.9551479E0,9.11639E-3,-7.739837E-2,1.943039E0,-7.9968564E-2,6.666666E-2,-1.887522E0,5.271538E-1,-7.135135E-2,1.9599667E0,-1.9935898E0,6.476191E-2,7.834197E-2,2E-2,1.5630114E0,-1.5612903E0,1.9947982E0,-1.1E0,-1.9986794E0,-1.6396396E0,-1.8529595E0,-1.1473684E0,-1.3135741E0,-7.990901E-2,-8.0851066E-1,7.793549E-2,4E-2,-1.983556E0,-3.8570085E-1,2.322655E-1,7.994958E-2,5.426357E-1,1.1578947E0,-1.9783393E0,-6.635904E-2,7.228304E-1,-5.833333E-1,1.9840068E0,-7.982883E-2,-8.888889E-3,1.4124252E0,1.9638554E0,-7.771429E-2,6.315789E-2,1.7954875E0,1.9986106E0,-7.030303E-2,5.0909087E-2,-7.999158E-2,-1.9354116E0,6.545454E-2,-7.843137E-2,-1.8767296E0,5.263158E-1,-1.5403727E0,9.677419E-1,-1.3589061E0,1.3777778E0,-7.0857145E-2,6E-2,-0E0,-7.966976E-2,-7.958429E-1,-5.6755614E-2,1.9734105E-1,1.9128541E0,-6.993007E-2,1.2605042E0,5.8666665E-2,-0E0,-7.941818E-2,-2E-2,-4.7080293E-1,3.0892932E-1,4.1791046E-1,9.500063E-1,5.5384617E-2,-1.1794872E0,1.9890249E0,2.2222222E-1,8.7489504E-1,1.565071E0,5.1428574E-1,1.9857216E0,1.8142828E0,-1.25E0,1.9313929E0,7.9985075E-2,-7.779684E-2,-1.6969698E-2,-7.546028E-2,4E-2,5.7142857E-2,-4.4444446E-2,-6.972973E-2,2.6666667E-2,6.6086955E-2,-3.2E-2,-7.122541E-2,-4.5833807E-2,-6.6086955E-2,7.7241376E-2,1.9330855E-2,-3.435329E-2,-5.6889937E-3,7.275081E-2,5.693922E-3,3.1097177E-2,7.928412E-2,-2E-2,-2.1284403E-2,5.0526313E-2,-1.1428571E-2,6.117647E-2,-4.068331E-2,-7.1916375E-3,-1.9601837E-3,2.9934024E-2,1.5109565E-2,7.7866666E-2,3.3312615E-2,5.8434308E-2,-6.060606E-2,1.6E-2,7.986342E-2,4.8571426E-2,-3.6363635E-2,5.0909087E-2,-4.285714E-3,4.391349E-2,6.322924E-2,-3.2E-2,6.0799997E-2,-5.7142857E-2,7.950945E-2,2E-2,6.905504E-2,7.903846E-2,4E-2,-6.8571426E-2,7.79607E-2,4.27907E-2],"categories":[],"categories_nodes":[],"categories_segments":[],"categories_sizes":[],"default_left":[0,0,0,0,0,0,0,0,0,0,0,0,0,0,0,0,0,0,0,0,0,0,0,0,0,0,0,0,0,0,0,0,0,0,0,0,0,0,0,0,0,0,0,0,0,0,0,0,0,0,0,0,0,0,0,0,0,0,0,0,0,0,0,0,0,0,0,0,0,0,0,0,0,0,0,0,0,0,0,0,0,0,0,0,0,0,0,0,0,0,0,0,0,0,0,0,0,0,0,0,0,0,0,0,0,0,0,0,0,0,0,0,0,0,0,0,0,0,0,0,0,0,0,0,0,0,0,0,0,0,0,0,0,0,0,0,0,0,0,0,0,0,0,0,0,0,0,0,0,0,0,0,0,0,0,0,0,0,0,0,0,0,0,0,0,0,0,0,0,0,0,0,0,0,0,0,0],"id":0,"left_children":[1,3,5,7,9,11,13,15,17,19,21,23,25,27,29,31,33,-1,-1,35,37,39,-1,41,43,45,47,-1,-1,49,51,53,55,57,59,61,63,-1,65,-1,-1,67,69,-1,71,73,-1,-1,-1,75,77,79,81,83,85,87,89,91,-1,93,-1,-1,95,97,99,-1,101,103,105,107,109,111,113,-1,-1,115,117,-1,-1,119,121,-1,-1,-1,123,-1,-1,125,127,129,131,133,135,-1,-1,-1,-1,137,139,141,143,145,147,-1,-1,-1,-1,149,151,153,155,-1,157,159,161,163,165,167,169,171,173,175,-1,-1,-1,-1,-1,-1,-1,-1,-1,-1,-1,-1,-1,-1,-1,-1,-1,-1,-1,-1,-1,-1,-1,-1,-1,-1,-1,-1,-1,-1,-1,-1,-1,-1,-1,-1,-1,-1,-1,-1,-1,-1,-1,-1,-1,-1,-1,-1,-1,-1,-1,-1,-1,-1,-1],"loss_changes":[4.6321888E5,3.6281797E4,1.5659359E4,1.3418281E3,9.559726E3,5.4577783E3,1.3745469E3,7.586406E2,2.2673642E2,5.2103125E3,1.2130371E3,2.10097E3,7.139824E2,8.932245E1,4.4178125E2,3.371875E1,3.9472363E2,0E0,0E0,9.206835E2,4.5047852E2,7.647949E1,0E0,8.0424646E2,1.2491943E2,6.423804E1,4.0016174E-1,0E0,0E0,3.6817188E2,9.1796875E1,3.15625E0,3.528528E1,2.8387842E2,6.678407E1,2.2572449E1,7.7806213E2,0E0,1.27640625E2,0E0,0E0,4.163376E1,5.325343E2,0E0,7.446582E1,3.0895996E0,0E0,0E0,0E0,1.0786914E2,4.949833E1,4.4890625E1,1.7839394E1,5.46875E-1,6.1598495E1,2.3680664E1,8.045918E1,2.4679663E2,0E0,2.8776295E1,0E0,0E0,3.9507446E0,4.301964E2,3.307866E2,0E0,2.8451485E1,1.6982455E0,4.6411133E-1,1.7283665E2,2.3846497E2,1.5711538E1,1.0061035E1,0E0,0E0,1.0825171E2,1.4763672E1,0E0,0E0,7.140039E1,4.375E-1,0E0,0E0,0E0,1.5194824E1,0E0,0E0,1.3066895E1,8.604846E0,3.720549E1,2.0075176E1,1.7539893E2,5.9766922E1,0E0,0E0,0E0,0E0,1.1476483E2,2.8410947E2,1.7625291E2,2.0164337E1,2.2698666E1,1.2806721E1,0E0,0E0,0E0,0E0,8.693487E1,9.2952065E1,8.9786194E1,1.1703601E2,0E0,5.7752914E0,4.51416E0,6.5050507E0,6.5306335E1,3.9755615E1,1.9268572E1,4.736328E-1,1.3654541E1,1.0071428E1,1.2523926E1,0E0,0E0,0E0,0E0,0E0,0E0,0E0,0E0,0E0,0E0,0E0,0E0,0E0,0E0,0E0,0E0,0E0,0E0,0E0,0E0,0E0,0E0,0E0,0E0,0E0,0E0,0E0,0E0,0E0,0E0,0E0,0E0,0E0,0E0,0E0,0E0,0E0,0E0,0E0,0E0,0E0,0E0,0E0,0E0,0E0,0E0,0E0,0E0,0E0,0E0,0E0,0E0,0E0,0E0,0E0],"parents":[2147483647,0,0,1,1,2,2,3,3,4,4,5,5,6,6,7,7,8,8,9,9,10,10,11,11,12,12,13,13,14,14,15,15,16,16,19,19,20,20,21,21,23,23,24,24,25,25,26,26,29,29,30,30,31,31,32,32,33,33,34,34,35,35,36,36,38,38,41,41,42,42,44,44,45,45,49,49,50,50,51,51,52,52,53,53,54,54,55,55,56,56,57,57,59,59,62,62,63,63,64,64,66,66,67,67,68,68,69,69,70,70,71,71,72,72,75,75,76,76,79,79,80,80,84,84,87,87,88,88,89,89,90,90,91,91,92,92,97,97,98,98,99,99,100,100,101,101,102,102,107,107,108,108,109,109,110,110,112,112,113,113,114,114,115,115,116,116,117,117,118,118,119,119,120,120,121,121],"right_children":[2,4,6,8,10,12,14,16,18,20,22,24,26,28,30,32,34,-1,-1,36,38,40,-1,42,44,46,48,-1,-1,50,52,54,56,58,60,62,64,-1,66,-1,-1,68,70,-1,72,74,-1,-1,-1,76,78,80,82,84,86,88,90,92,-1,94,-1,-1,96,98,100,-1,102,104,106,108,110,112,114,-1,-1,116,118,-1,-1,120,122,-1,-1,-1,124,-1,-1,126,128,130,132,134,136,-1,-1,-1,-1,138,140,142,144,146,148,-1,-1,-1,-1,150,152,154,156,-1,158,160,162,164,166,168,170,172,174,176,-1,-1,-1,-1,-1,-1,-1,-1,-1,-1,-1,-1,-1,-1,-1,-1,-1,-1,-1,-1,-1,-1,-1,-1,-1,-1,-1,-1,-1,-1,-1,-1,-1,-1,-1,-1,-1,-1,-1,-1,-1,-1,-1,-1,-1,-1,-1,-1,-1,-1,-1,-1,-1,-1,-1],"split_conditions":[1E0,-1.5E1,2.1E1,1.5703999E3,5.605398E2,5.605398E2,-4.2190132E1,-5.5E1,6.56E2,3.09538E2,1.6186552E1,2.7632272E2,1.6891762E1,7.28E2,8.5E1,-7.4E1,1.0051606E1,7.920792E-2,-7.555555E-2,-7.648769E0,-1.689473E4,1.274352E3,7.899686E-2,-7.648769E0,-1.689473E4,1.274352E3,4.05E2,-7.914893E-2,6.896552E-2,1.0638356E3,2.7344624E3,2.5262169E1,3.6199094E-4,4.218951E2,1.215684E2,-6.2060595E-1,-1E0,-7.739837E-2,4.7E1,-7.9968564E-2,6.666666E-2,-5.167421E-2,-1.8E1,-7.135135E-2,-7.4823527E-4,2.7028921E1,6.476191E-2,7.834197E-2,2E-2,3.1366006E2,8.87507E3,6.382979E-2,3.53E2,-8.8E1,3.17E2,8.210475E2,8.295899E0,5.132003E2,-7.990901E-2,6E0,7.793549E-2,4E-2,-2.081448E-2,0E0,1.0163358E3,7.994958E-2,1.9283747E-2,2.62E2,8.4447145E-1,-3E0,8E0,0E0,3.6957688E-3,-7.982883E-2,-8.888889E-3,0E0,-3.3E1,-7.771429E-2,6.315789E-2,1.0638356E3,8.8E1,-7.030303E-2,5.0909087E-2,-7.999158E-2,3.4950823E-3,6.545454E-2,-7.843137E-2,1.6891762E1,2E1,2.6E1,6E0,-5.882353E-2,-9.677577E2,-7.0857145E-2,6E-2,-0E0,-7.966976E-2,0E0,6.3324927E2,2E1,5.7E1,-3.6E1,-2.09E2,5.8666665E-2,-0E0,-7.941818E-2,-2E-2,-3.6E1,1.0144927E-1,1.4773728E3,4.1E2,5.5384617E-2,-5E0,8.506787E-3,4.6253353E1,-2.9140271E-2,5.1E1,-2.0408163E-2,5.2636894E1,2.3015714E2,1.7403904E1,1.45E2,7.9985075E-2,-7.779684E-2,-1.6969698E-2,-7.546028E-2,4E-2,5.7142857E-2,-4.4444446E-2,-6.972973E-2,2.6666667E-2,6.6086955E-2,-3.2E-2,-7.122541E-2,-4.5833807E-2,-6.6086955E-2,7.7241376E-2,1.9330855E-2,-3.435329E-2,-5.6889937E-3,7.275081E-2,5.693922E-3,3.1097177E-2,7.928412E-2,-2E-2,-2.1284403E-2,5.0526313E-2,-1.1428571E-2,6.117647E-2,-4.068331E-2,-7.1916375E-3,-1.9601837E-3,2.9934024E-2,1.5109565E-2,7.7866666E-2,3.3312615E-2,5.8434308E-2,-6.060606E-2,1.6E-2,7.986342E-2,4.8571426E-2,-3.6363635E-2,5.0909087E-2,-4.285714E-3,4.391349E-2,6.322924E-2,-3.2E-2,6.0799997E-2,-5.7142857E-2,7.950945E-2,2E-2,6.905504E-2,7.903846E-2,4E-2,-6.8571426E-2,7.79607E-2,4.27907E-2],"split_indices":[114,60,60,167,166,166,169,60,1,167,169,167,169,1,114,114,169,0,0,169,159,167,0,169,159,167,0,0,0,166,166,169,146,166,167,148,101,0,46,0,0,147,60,0,103,85,0,0,0,167,158,61,0,60,0,167,128,167,0,36,0,0,146,156,158,0,61,0,105,117,101,78,154,0,0,72,139,0,0,166,60,0,0,0,151,0,0,169,5,42,21,102,159,0,0,0,0,64,159,71,46,114,114,0,0,0,0,71,70,159,99,0,168,149,162,153,42,70,48,167,52,46,0,0,0,0,0,0,0,0,0,0,0,0,0,0,0,0,0,0,0,0,0,0,0,0,0,0,0,0,0,0,0,0,0,0,0,0,0,0,0,0,0,0,0,0,0,0,0,0,0,0,0,0,0,0,0],"split_type":[0,0,0,0,0,0,0,0,0,0,0,0,0,0,0,0,0,0,0,0,0,0,0,0,0,0,0,0,0,0,0,0,0,0,0,0,0,0,0,0,0,0,0,0,0,0,0,0,0,0,0,0,0,0,0,0,0,0,0,0,0,0,0,0,0,0,0,0,0,0,0,0,0,0,0,0,0,0,0,0,0,0,0,0,0,0,0,0,0,0,0,0,0,0,0,0,0,0,0,0,0,0,0,0,0,0,0,0,0,0,0,0,0,0,0,0,0,0,0,0,0,0,0,0,0,0,0,0,0,0,0,0,0,0,0,0,0,0,0,0,0,0,0,0,0,0,0,0,0,0,0,0,0,0,0,0,0,0,0,0,0,0,0,0,0,0,0,0,0,0,0,0,0,0,0,0,0],"sum_hessian":[1.525475E5,7.9827E4,7.27205E4,6.644675E4,1.338025E4,6.919E3,6.58015E4,6.632975E4,1.17E2,1.07525E4,2.62775E3,5.9315E3,9.875E2,9.925E1,6.570225E4,6.33965E4,2.93325E3,1E2,1.7E1,9.0735E3,1.679E3,2.549E3,7.875E1,4.72525E3,1.20625E3,9.3925E2,4.825E1,9.3E1,6.25E0,1.86975E3,6.38325E4,6.290225E4,4.9425E2,2.88475E3,4.85E1,2.4425E2,8.82925E3,2.975E1,1.64925E3,2.544E3,5E0,1.4125E2,4.584E3,8.25E0,1.198E3,9.35E2,4.25E0,4.725E1,1E0,1.832E3,3.775E1,6.38235E4,9E0,6.284775E4,5.45E1,4.0025E2,9.4E1,2.0065E3,8.7825E2,1.075E1,3.775E1,2E0,2.4225E2,3.188E3,5.64125E3,1.58575E3,6.35E1,3.75E0,1.375E2,1.13675E3,3.44725E3,1.1E1,1.187E3,9.3375E2,1.25E0,1.335E3,4.97E2,3.4E1,3.75E0,1.20675E3,6.261675E4,7.25E0,1.75E0,6.1734E4,1.11375E3,4.5E0,5E1,3.965E2,3.75E0,7.95E1,1.45E1,1.97375E3,3.275E1,7.75E0,3E0,1E0,2.4125E2,1.41825E3,1.76975E3,5.5275E3,1.1375E2,3.475E1,2.875E1,2.75E0,1E0,1.365E2,1E0,5.47E2,5.8975E2,1.473E3,1.97425E3,2.25E0,8.75E0,1.1835E3,3.5E0,2.9675E2,1.03825E3,7.75E0,4.8925E2,1.19975E3,7E0,9.61E2,6.165575E4,1.1065E3,7.25E0,3.955E2,1E0,2.5E0,1.25E0,7.3E1,6.5E0,1.05E1,4E0,6.6E2,1.31375E3,4.75E0,2.8E1,6.625E1,1.352E3,1.6935E3,7.625E1,5.05E3,4.775E2,1.1075E2,3E0,2.625E1,8.5E0,4.25E0,2.45E1,1.8925E2,3.5775E2,3.255E2,2.6425E2,1.4365E3,3.65E1,1.608E3,3.6625E2,7.25E0,1.5E0,1.1705E3,1.3E1,1.75E0,1.75E0,5.5E1,2.4175E2,1.03175E3,6.5E0,5.25E0,2.5E0,4.8825E2,1E0,7.8475E2,4.15E2,1E0,6E0,9.405E2,2.05E1],"tree_param":{"num_deleted":"0","num_feature":"170","num_nodes":"177","size_leaf_vector":"1"}},{"base_weights":[2.1390633E-3,-1.7535286E0,1.6001717E0,-1.8956423E0,-3.5773906E-1,1.6718754E-1,1.8944689E0,-1.9013625E0,1.3676965E0,3.2195944E-2,-1.8075993E0,5.505365E-1,-1.759144E0,-1.7027487E0,1.9010775E0,-1.9196035E0,-1.4578493E0,7.618124E-2,-7.2614186E-2,-2.6482072E-1,1.7017099E0,-1.9133936E0,7.50467E-2,2.4442737E-1,1.8079563E0,-1.9084879E0,1.8918593E0,-7.629812E-2,6.7012474E-2,1.4128743E0,1.91696E0,-1.9218597E0,-1.6906053E0,-1.4997641E0,1.3752173E0,-5.852537E-1,1.0942615E-1,-7.3129125E-2,1.7888011E0,-7.6870225E-2,5.8049083E-2,-1.7753639E0,2.9771835E-1,-7.4717656E-2,1.8629625E0,-1.9209371E0,6.777605E-2,7.610479E-2,2.5197523E-2,1.4777259E0,-1.5796989E0,1.9173951E0,-1.058798E0,-7.688051E-2,-1.5508868E0,-1.7138431E0,1.2380499E0,-1.3099713E0,-7.683171E-2,-5.615838E-2,1.78447E0,-1.0298755E0,-3.9107302E-1,-2.0293018E-1,4.9780554E-1,-1.12095766E-1,1.8862785E0,-1.894169E0,1.157686E0,8.237241E-2,6.522434E-1,7.694616E-2,5.9691966E-1,-7.687381E-2,-9.4996953E-1,1.315189E0,1.8780085E0,-7.512757E-2,6.024085E-2,1.7014325E0,1.9213862E0,-6.7895666E-2,4.963396E-2,5.5315685E-2,-7.427746E-2,-1.36803E0,-1.8446671E0,5.949105E-2,8.6671095E-3,-1.3499697E0,1.207911E0,7.469245E-2,-8.563192E-3,-1.4122224E0,-7.940928E-1,-3.3467734E-1,-7.582021E-2,1.1813872E0,-3.0973163E-1,2.473278E-1,9.635574E-1,-4.201491E-1,5.9734974E-2,1.9096957E0,2.7588874E-2,1.2700079E-2,-7.6614425E-2,1.5057756E0,-2.6878512E-2,-9.764501E-1,1.22359514E-1,5.427505E-1,1.1118196E0,-7.054065E-1,9.3021584E-1,-4.9178746E-2,-7.4362317E-3,4.742361E-1,1.3709364E0,7.585784E-1,1.9055182E0,1.7201731E0,-1.3311965E0,1.8425943E0,7.6907866E-2,-6.3928925E-2,-6.909982E-3,-7.428452E-2,-4.4057015E-3,-6.91184E-2,-4.613326E-2,-6.3961655E-2,7.374424E-2,-6.3521706E-2,-3.7218165E-2,-4.9855623E-2,-2.1627467E-2,-2.1068908E-2,-4.731897E-4,1.7349886E-2,7.0898324E-2,5.123364E-3,-2.3427332E-2,-4.294048E-3,2.2181239E-2,4.0541675E-2,-6.508452E-2,-3.0441985E-2,3.917803E-2,-5.908609E-3,7.670583E-2,-4.88391E-2,4.4650037E-2,8.366845E-3,6.8018146E-2,-5.8191985E-2,-2.2416176E-2,6.5601277E-3,-2.4698269E-2,-1.5858162E-2,2.4079427E-2,4.5475133E-2,-4.1003857E-2,-4.96003E-2,6.239849E-2,-1.6172359E-2,4.3464016E-2,4.5628347E-2,-1.2802686E-2,2.96936E-2,5.7421982E-2,5.883781E-2,-6.058169E-2,7.635668E-2,1.4669214E-2,5.4095745E-2,7.123951E-2,8.799234E-3,-6.653706E-2,7.402471E-2,-2.2833606E-2],"categories":[],"categories_nodes":[],"categories_segments":[],"categories_sizes":[],"default_left":[0,0,0,0,0,0,0,0,0,0,0,0,0,0,0,0,0,0,0,0,0,0,0,0,0,0,0,0,0,0,0,0,0,0,0,0,0,0,0,0,0,0,0,0,0,0,0,0,0,0,0,0,0,0,0,0,0,0,0,0,0,0,0,0,0,0,0,0,0,0,0,0,0,0,0,0,0,0,0,0,0,0,0,0,0,0,0,0,0,0,0,0,0,0,0,0,0,0,0,0,0,0,0,0,0,0,0,0,0,0,0,0,0,0,0,0,0,0,0,0,0,0,0,0,0,0,0,0,0,0,0,0,0,0,0,0,0,0,0,0,0,0,0,0,0,0,0,0,0,0,0,0,0,0,0,0,0,0,0,0,0,0,0,0,0,0,0,0,0,0,0,0,0,0,0,0,0,0,0,0,0],"id":1,"left_children":[1,3,5,7,9,11,13,15,17,19,21,23,25,27,29,31,33,-1,-1,35,37,39,-1,41,43,45,47,-1,-1,49,51,53,55,57,59,61,63,-1,65,-1,-1,67,69,-1,71,73,-1,-1,-1,75,77,79,81,-1,83,85,87,89,-1,-1,91,93,95,97,99,101,103,105,107,109,111,-1,113,-1,115,117,119,-1,-1,121,123,-1,-1,-1,-1,125,127,-1,-1,129,131,-1,-1,133,135,137,-1,139,141,143,145,147,-1,149,151,-1,-1,153,-1,155,157,159,161,163,165,-1,-1,167,169,171,173,175,177,179,-1,-1,-1,-1,-1,-1,-1,-1,-1,-1,-1,-1,-1,-1,-1,-1,-1,-1,-1,-1,-1,-1,-1,-1,-1,-1,-1,-1,-1,-1,-1,-1,-1,-1,-1,-1,-1,-1,-1,-1,-1,-1,-1,-1,-1,-1,-1,-1,-1,-1,-1,-1,-1,-1,-1,-1,-1],"loss_changes":[4.2726025E5,1.4393328E4,3.362064E4,1.2320156E3,3.7917354E3,1.0032477E4,1.5755469E3,5.290469E2,2.0137096E2,2.6217778E3,5.575718E2,4.3607563E3,1.2331113E3,8.7429596E1,5.091875E2,2.9390625E1,3.10958E2,0E0,0E0,5.3835724E2,2.4876685E2,4.1679688E1,0E0,9.8146063E2,4.5198096E2,1.0044287E2,1.15356445E-2,0E0,0E0,4.0676025E2,8.4796875E1,5.46875E-1,4.4614502E1,2.0235498E2,4.623339E1,2.0839325E2,2.5138168E2,0E0,1.4470972E2,0E0,0E0,8.387677E1,6.778906E2,0E0,1.6681494E2,7.763672E-2,0E0,0E0,0E0,1.3026709E2,4.3986084E1,5.1828125E1,1.6776665E1,0E0,3.0361961E1,2.552063E1,1.0767269E0,1.7992456E2,0E0,0E0,6.0208893E0,6.509595E1,1.4231546E2,1.7020438E2,1.0750954E2,1.9907171E1,3.2236572E1,1.11848755E1,7.218931E0,2.3406454E2,1.6824426E2,0E0,4.468979E1,0E0,6.2480307E-1,6.7531494E1,1.6626953E1,0E0,0E0,6.8713135E1,2.9375E0,0E0,0E0,0E0,0E0,4.760269E1,9.442383E0,0E0,0E0,1.2757007E2,5.328726E1,0E0,0E0,2.2145996E1,5.166211E1,1.0075856E2,0E0,3.568267E1,1.2901674E2,6.56469E1,4.3430695E1,1.6723099E1,0E0,1.2265869E1,1.5288271E1,0E0,0E0,1.7890911E0,0E0,3.9224808E1,1.6416669E2,1.5110693E2,3.5685852E1,2.7658276E1,1.738675E1,0E0,0E0,4.9039146E1,5.4309814E1,2.7711033E1,2.2919922E0,2.3580566E1,4.355606E0,2.1403076E1,0E0,0E0,0E0,0E0,0E0,0E0,0E0,0E0,0E0,0E0,0E0,0E0,0E0,0E0,0E0,0E0,0E0,0E0,0E0,0E0,0E0,0E0,0E0,0E0,0E0,0E0,0E0,0E0,0E0,0E0,0E0,0E0,0E0,0E0,0E0,0E0,0E0,0E0,0E0,0E0,0E0,0E0,0E0,0E0,0E0,0E0,0E0,0E0,0E0,0E0,0E0,0E0,0E0,0E0,0E0,0E0,0E0],"parents":[2147483647,0,0,1,1,2,2,3,3,4,4,5,5,6,6,7,7,8,8,9,9,10,10,11,11,12,12,13,13,14,14,15,15,16,16,19,19,20,20,21,21,23,23,24,24,25,25,26,26,29,29,30,30,31,31,32,32,33,33,34,34,35,35,36,36,38,38,41,41,42,42,44,44,45,45,49,49,50,50,51,51,52,52,54,54,55,55,56,56,57,57,60,60,61,61,62,62,63,63,64,64,65,65,66,66,67,67,68,68,69,69,70,70,72,72,74,74,75,75,76,76,79,79,80,80,85,85,86,86,89,89,90,90,93,93,94,94,95,95,97,97,98,98,99,99,100,100,101,101,103,103,104,104,107,107,109,109,110,110,111,111,112,112,113,113,114,114,117,117,118,118,119,119,120,120,121,121,122,122,123,123],"right_children":[2,4,6,8,10,12,14,16,18,20,22,24,26,28,30,32,34,-1,-1,36,38,40,-1,42,44,46,48,-1,-1,50,52,54,56,58,60,62,64,-1,66,-1,-1,68,70,-1,72,74,-1,-1,-1,76,78,80,82,-1,84,86,88,90,-1,-1,92,94,96,98,100,102,104,106,108,110,112,-1,114,-1,116,118,120,-1,-1,122,124,-1,-1,-1,-1,126,128,-1,-1,130,132,-1,-1,134,136,138,-1,140,142,144,146,148,-1,150,152,-1,-1,154,-1,156,158,160,162,164,166,-1,-1,168,170,172,174,176,178,180,-1,-1,-1,-1,-1,-1,-1,-1,-1,-1,-1,-1,-1,-1,-1,-1,-1,-1,-1,-1,-1,-1,-1,-1,-1,-1,-1,-1,-1,-1,-1,-1,-1,-1,-1,-1,-1,-1,-1,-1,-1,-1,-1,-1,-1,-1,-1,-1,-1,-1,-1,-1,-1,-1,-1,-1,-1],"split_conditions":[0E0,-1.8E1,1.8E1,1.5703999E3,5.605398E2,5.605398E2,-4.2190132E1,-5.5E1,8.8E2,3.09538E2,1.6186552E1,2.2134094E2,1.6891762E1,5.94E2,8.5E1,-8.5E1,1.1532876E1,7.618124E-2,-7.2614186E-2,2.5534702E-2,-1.689473E4,1.274352E3,7.50467E-2,-5.523601E0,-6.4389145E1,1.274352E3,1.6E2,-7.629812E-2,6.7012474E-2,1.0638356E3,2.7344624E3,3.0221056E1,1.6186552E1,4.218951E2,6.3324927E2,-1.05E2,4E0,-7.3129125E-2,-1.1641629E0,-7.6870225E-2,5.8049083E-2,3.9819004E-3,1E0,-7.4717656E-2,4E-3,8.3E1,6.777605E-2,7.610479E-2,2.5197523E-2,2.791575E2,8.87507E3,5.5E1,3.49E2,-7.688051E-2,3.17E2,1.037073E2,3.393211E0,5.132003E2,-7.683171E-2,-5.615838E-2,3.45E2,0E0,7.247494E2,0E0,2.3E1,7.9E1,2.9472992E-1,3.3E1,2E0,-4E1,8.5E1,7.694616E-2,-2.5E1,-7.687381E-2,3.63E2,0E0,-3.3E1,-7.512757E-2,6.024085E-2,1.0638356E3,8.8E1,-6.7895666E-2,4.963396E-2,5.5315685E-2,-7.427746E-2,3.6199094E-4,8.210475E2,5.949105E-2,8.6671095E-3,-5.882353E-2,-9.677577E2,7.469245E-2,-8.563192E-3,-5.6124892E-2,-1.1764706E-1,-1E0,-7.582021E-2,1.0424614E-1,2.2511751E1,-1.23E2,2.4944036E3,2.9E1,5.9734974E-2,4.1E1,2.1E1,1.2700079E-2,-7.6614425E-2,-1.164259E0,-2.6878512E-2,-5.4E1,4.8233353E-2,-3.4E1,6.04E2,4.7553223E-2,-7.4208146E-3,-4.9178746E-2,-7.4362317E-3,7E0,8E0,-1.3333334E-2,2E0,1.3E2,3E0,1.0638356E3,7.6907866E-2,-6.3928925E-2,-6.909982E-3,-7.428452E-2,-4.4057015E-3,-6.91184E-2,-4.613326E-2,-6.3961655E-2,7.374424E-2,-6.3521706E-2,-3.7218165E-2,-4.9855623E-2,-2.1627467E-2,-2.1068908E-2,-4.731897E-4,1.7349886E-2,7.0898324E-2,5.123364E-3,-2.3427332E-2,-4.294048E-3,2.2181239E-2,4.0541675E-2,-6.508452E-2,-3.0441985E-2,3.917803E-2,-5.908609E-3,7.670583E-2,-4.88391E-2,4.4650037E-2,8.366845E-3,6.8018146E-2,-5.8191985E-2,-2.2416176E-2,6.5601277E-3,-2.4698269E-2,-1.5858162E-2,2.4079427E-2,4.5475133E-2,-4.1003857E-2,-4.96003E-2,6.239849E-2,-1.6172359E-2,4.3464016E-2,4.5628347E-2,-1.2802686E-2,2.96936E-2,5.7421982E-2,5.883781E-2,-6.058169E-2,7.635668E-2,1.4669214E-2,5.4095745E-2,7.123951E-2,8.799234E-3,-6.653706E-2,7.402471E-2,-2.2833606E-2],"split_indices":[114,60,60,167,166,166,169,60,10,167,169,167,169,10,114,114,169,0,0,127,159,167,0,169,169,167,58,0,0,166,166,169,169,166,159,115,117,0,153,0,0,146,101,0,90,131,0,0,0,167,158,60,0,0,0,166,130,167,0,0,58,72,160,64,71,71,148,131,67,60,114,0,60,0,0,156,139,0,0,166,60,0,0,0,0,146,167,0,0,102,159,0,0,109,70,101,0,89,48,115,157,5,0,131,60,0,0,88,0,71,57,60,29,57,150,0,0,30,56,70,4,38,18,166,0,0,0,0,0,0,0,0,0,0,0,0,0,0,0,0,0,0,0,0,0,0,0,0,0,0,0,0,0,0,0,0,0,0,0,0,0,0,0,0,0,0,0,0,0,0,0,0,0,0,0,0,0,0,0,0,0],"split_type":[0,0,0,0,0,0,0,0,0,0,0,0,0,0,0,0,0,0,0,0,0,0,0,0,0,0,0,0,0,0,0,0,0,0,0,0,0,0,0,0,0,0,0,0,0,0,0,0,0,0,0,0,0,0,0,0,0,0,0,0,0,0,0,0,0,0,0,0,0,0,0,0,0,0,0,0,0,0,0,0,0,0,0,0,0,0,0,0,0,0,0,0,0,0,0,0,0,0,0,0,0,0,0,0,0,0,0,0,0,0,0,0,0,0,0,0,0,0,0,0,0,0,0,0,0,0,0,0,0,0,0,0,0,0,0,0,0,0,0,0,0,0,0,0,0,0,0,0,0,0,0,0,0,0,0,0,0,0,0,0,0,0,0,0,0,0,0,0,0,0,0,0,0,0,0,0,0,0,0,0,0],"sum_hessian":[1.5228561E5,7.256379E4,7.972181E4,6.585803E4,6.7057637E3,1.3583411E4,6.61384E4,6.57432E4,1.14822105E2,5.285282E3,1.4204811E3,1.1329502E4,2.2539097E3,1.2081282E2,6.6017586E4,6.3142926E4,2.6002817E3,9.8595276E1,1.6226831E1,4.4877295E3,7.97553E2,1.3812922E3,3.918883E1,9.112362E3,2.21714E3,2.1657954E3,8.811438E1,1.1432054E2,6.492277E0,2.082889E3,6.39347E4,6.251954E4,6.2338464E2,2.5628357E3,3.7446125E1,2.4173835E3,2.0703457E3,1.8722206E1,7.788308E2,1.3782957E3,2.9966693E0,2.3341318E2,8.878948E3,3.2202232E1,2.1849377E3,2.1588027E3,6.992525E0,8.686595E1,1.2484293E0,2.039204E3,4.3685013E1,6.392571E4,8.989826E0,6.2489586E4,2.9955076E1,6.188888E2,4.4958572E0,1.7693525E3,7.9348303E2,4.494445E0,3.2951683E1,7.335186E2,1.683865E3,1.1477438E3,9.22602E2,3.798278E1,7.40848E2,2.2466708E2,8.746088E0,5.5244897E3,3.3544587E3,2.084492E3,1.00445816E2,2.155807E3,2.9960115E0,1.4533495E3,5.8585455E2,4.018877E1,3.496244E0,1.1677229E3,6.275799E4,7.24096E0,1.7488666E0,2.4973242E0,2.7457752E1,1.7301285E2,4.4587595E2,3.2473192E0,1.248538E0,1.7421414E3,2.7211292E1,3.1703226E1,1.2484553E0,2.7789417E2,4.5562442E2,1.624202E3,5.9662956E1,8.1486534E1,1.0662573E3,6.0094794E2,3.2165408E2,3.2487473E1,5.4953084E0,7.316033E2,9.244752E0,1.9995583E0,2.2266753E2,7.4968333E0,1.2492542E0,2.0019107E2,5.324299E3,2.7107988E3,6.4366003E2,2.0240675E1,8.020514E1,1.747608E0,1.2484035E0,9.094515E1,1.3624043E3,1.4737226E1,5.711173E2,1.1609811E3,6.7417316E0,1.0497296E3,6.1708258E4,1.4479114E2,2.8221712E1,4.4262927E2,3.2466927E0,5.934968E2,1.1486445E3,4.7448177E0,2.2466475E1,2.0191092E2,7.598325E1,1.621998E2,2.9342462E2,1.0180093E3,6.061927E2,3.6743656E1,4.474288E1,4.1243594E2,6.5382135E2,2.7922336E2,3.2172455E2,3.1616278E2,5.4912815E0,2.649124E1,5.9962335E0,2.748425E0,7.2885486E2,4.249519E0,4.9952335E0,1.2494736E0,6.2473598E0,9.196144E1,1.0822964E2,5.0413057E3,2.829929E2,1.6048795E2,2.5503108E3,6.366622E2,6.997889E0,1.6742308E1,3.4983673E0,8.246591E0,7.195855E1,4.9214687E1,4.1730465E1,1.28152E2,1.2342523E3,1.148947E1,3.2477558E0,5.696186E2,1.4987286E0,1.6803258E2,9.9294855E2,1.2488296E0,5.4929023E0,1.0464838E3,3.2458394E0],"tree_param":{"num_deleted":"0","num_feature":"170","num_nodes":"181","size_leaf_vector":"1"}},{"base_weights":[-2.010854E-3,-1.6987916E0,1.5221874E0,-1.8245194E0,-3.6955616E-1,1.0797751E-1,1.8107026E0,-1.8514751E0,-1.2891988E0,1.2577946E-1,-1.7001396E0,4.5700717E-1,-1.7062371E0,-1.4722832E0,1.8211547E0,-1.8522123E0,8.994516E-1,-1.402473E0,1.636671E0,-2.2081096E-1,1.7282572E0,-1.828985E0,1.5174663E0,1.19896665E-1,1.6692145E0,-1.8395272E0,7.3390074E-2,-7.390223E-2,7.109347E-2,1.2185864E0,1.8473755E0,-1.8522881E0,4.3150757E-2,6.8712994E-2,-5.9527647E-2,-1.4367216E0,7.268286E-2,7.357105E-2,-6.425034E-2,-4.8200366E-1,3.4247363E-1,-6.899632E-2,1.7857323E0,-1.8442086E0,-4.60465E-1,7.3042326E-2,-6.298073E-2,-1.7967204E0,1.689708E-1,-7.244051E-2,1.7214644E0,-7.416276E-2,6.6891484E-2,1.2833343E0,-1.6042687E0,1.8480145E0,-1.1386325E0,-7.418268E-2,-1.7453113E0,-1.2341967E0,-7.413994E-2,-5.3454375E-1,1.8012645E0,-1.7330549E0,4.15096E-1,4.8738632E-2,7.413175E-2,-1.8459774E0,-5.654963E-3,6.476416E-2,-6.8524405E-2,6.4582026E-1,-1.8302709E0,3.478866E-2,5.032754E-1,7.422922E-2,8.0418706E-1,1.1229693E0,1.8339467E0,-7.301617E-2,5.9048265E-2,1.6006966E0,1.8522855E0,-6.841923E-2,5.269473E-2,-1.759759E0,6.328233E-2,-1.4336177E0,-9.045361E-1,-1.3874382E0,-4.0970844E-1,7.6046005E-2,-1.7995812E-2,2.6056664E-2,-7.305887E-2,-4.1916404E-2,6.462868E-1,-7.040153E-1,1.4632591E0,-1.8471124E0,-2.049412E-2,-9.005195E-3,4.685065E-2,-1.859392E0,8.2579345E-2,-5.845287E-1,1.1588349E-1,4.2582187E-1,1.0084499E0,2.4600925E-1,1.5974922E0,8.600449E-1,1.2798176E0,8.441904E-2,1.8417464E0,1.6174372E0,-1.1181824E0,1.7553757E0,7.4176565E-2,-7.14399E-2,-3.941426E-2,-6.07852E-2,-2.5769355E-2,-4.532116E-2,-1.78679E-2,-2.4938859E-2,-6.372231E-2,-2.4181068E-2,5.5068177E-3,-2.9103931E-2,6.5160315E-3,1.684951E-2,3.9261628E-2,2.2214038E-2,-4.6656404E-2,7.12724E-2,-5.647615E-3,-5.9414968E-2,-7.411055E-2,-7.486274E-2,-1.9431818E-2,3.911754E-2,-4.593807E-2,-5.2775353E-2,-1.7504573E-2,3.245949E-3,6.1712224E-2,-5.8293906E-3,1.9830612E-2,4.510859E-2,1.1749836E-2,-2.3886258E-2,2.4203952E-2,6.858202E-2,2.3634365E-2,8.128126E-3,3.8584724E-2,5.2257527E-2,-1.0053037E-2,-3.3866104E-2,4.3233924E-2,7.379928E-2,6.0367724E-3,4.507545E-2,6.639421E-2,2.5617944E-2,-6.3658096E-2,7.104359E-2,3.8805373E-2],"categories":[],"categories_nodes":[],"categories_segments":[],"categories_sizes":[],"default_left":[0,0,0,0,0,0,0,0,0,0,0,0,0,0,0,0,0,0,0,0,0,0,0,0,0,0,0,0,0,0,0,0,0,0,0,0,0,0,0,0,0,0,0,0,0,0,0,0,0,0,0,0,0,0,0,0,0,0,0,0,0,0,0,0,0,0,0,0,0,0,0,0,0,0,0,0,0,0,0,0,0,0,0,0,0,0,0,0,0,0,0,0,0,0,0,0,0,0,0,0,0,0,0,0,0,0,0,0,0,0,0,0,0,0,0,0,0,0,0,0,0,0,0,0,0,0,0,0,0,0,0,0,0,0,0,0,0,0,0,0,0,0,0,0,0,0,0,0,0,0,0,0,0,0,0,0,0,0,0,0,0,0,0,0,0,0,0,0,0],"id":2,"left_children":[1,3,5,7,9,11,13,15,17,19,21,23,25,27,29,31,33,35,37,39,41,43,45,47,49,51,-1,-1,-1,53,55,57,-1,-1,-1,59,-1,-1,-1,61,63,-1,65,67,69,-1,-1,71,73,-1,75,-1,-1,77,79,81,83,-1,85,87,-1,89,91,93,95,97,-1,99,-1,-1,-1,101,103,105,107,-1,109,111,113,-1,-1,115,117,-1,-1,119,-1,121,123,125,127,-1,-1,-1,-1,129,131,133,135,137,-1,-1,-1,139,141,143,145,147,149,151,153,155,157,159,161,163,165,167,-1,-1,-1,-1,-1,-1,-1,-1,-1,-1,-1,-1,-1,-1,-1,-1,-1,-1,-1,-1,-1,-1,-1,-1,-1,-1,-1,-1,-1,-1,-1,-1,-1,-1,-1,-1,-1,-1,-1,-1,-1,-1,-1,-1,-1,-1,-1,-1,-1,-1,-1],"loss_changes":[3.924098E5,1.1998719E4,3.2612984E4,9.4415625E2,4.090325E3,8.577472E3,2.2807031E3,1.2829688E2,1.0456094E3,2.512569E3,7.0073584E2,4.6420796E3,1.0349248E3,2.6088788E2,1.0432969E3,1.5890625E1,3.656156E1,3.3684277E2,8.034744E1,5.474341E2,1.6273828E2,3.2885254E1,6.524599E1,8.36405E2,4.525796E2,1.1069092E2,0E0,0E0,0E0,5.0697412E2,1.2309375E2,1.196875E1,0E0,0E0,0E0,2.5092041E2,0E0,0E0,0E0,3.0587872E2,1.7842819E2,0E0,9.282593E1,4.561035E0,5.265019E1,0E0,0E0,1.937555E1,3.888252E2,0E0,2.984839E2,0E0,0E0,2.3644775E2,4.5193176E1,6.4015625E1,2.2178478E1,0E0,6.619873E1,1.3161938E2,0E0,2.640495E2,1.3762466E1,1.0111198E1,1.2046953E2,3.3687256E1,0E0,1.4741211E0,0E0,0E0,0E0,1.9786322E0,1.2367493E1,3.107839E2,9.6711914E1,0E0,1.3810036E2,8.527319E1,8.136597E0,0E0,0E0,5.1133057E1,9.609375E0,0E0,0E0,2.49375E1,0E0,8.443799E1,7.94986E1,4.8788635E1,2.3143079E2,0E0,0E0,0E0,0E0,5.40308E1,5.670526E1,1.2697631E1,5.8621197E0,5.136719E-1,0E0,0E0,0E0,2.7039185E0,5.8025665E0,7.677316E1,2.710487E2,8.619675E1,2.7739014E1,5.6304726E1,1.4186798E1,5.376825E1,5.3716064E1,4.3896585E0,3.0310059E0,2.0549072E1,7.030857E0,2.0367188E1,0E0,0E0,0E0,0E0,0E0,0E0,0E0,0E0,0E0,0E0,0E0,0E0,0E0,0E0,0E0,0E0,0E0,0E0,0E0,0E0,0E0,0E0,0E0,0E0,0E0,0E0,0E0,0E0,0E0,0E0,0E0,0E0,0E0,0E0,0E0,0E0,0E0,0E0,0E0,0E0,0E0,0E0,0E0,0E0,0E0,0E0,0E0,0E0,0E0,0E0,0E0],"parents":[2147483647,0,0,1,1,2,2,3,3,4,4,5,5,6,6,7,7,8,8,9,9,10,10,11,11,12,12,13,13,14,14,15,15,16,16,17,17,18,18,19,19,20,20,21,21,22,22,23,23,24,24,25,25,29,29,30,30,31,31,35,35,39,39,40,40,42,42,43,43,44,44,47,47,48,48,50,50,53,53,54,54,55,55,56,56,58,58,59,59,61,61,62,62,63,63,64,64,65,65,67,67,71,71,72,72,73,73,74,74,76,76,77,77,78,78,81,81,82,82,85,85,87,87,88,88,89,89,90,90,95,95,96,96,97,97,98,98,99,99,103,103,104,104,105,105,106,106,107,107,108,108,109,109,110,110,111,111,112,112,113,113,114,114,115,115,116,116,117,117],"right_children":[2,4,6,8,10,12,14,16,18,20,22,24,26,28,30,32,34,36,38,40,42,44,46,48,50,52,-1,-1,-1,54,56,58,-1,-1,-1,60,-1,-1,-1,62,64,-1,66,68,70,-1,-1,72,74,-1,76,-1,-1,78,80,82,84,-1,86,88,-1,90,92,94,96,98,-1,100,-1,-1,-1,102,104,106,108,-1,110,112,114,-1,-1,116,118,-1,-1,120,-1,122,124,126,128,-1,-1,-1,-1,130,132,134,136,138,-1,-1,-1,140,142,144,146,148,150,152,154,156,158,160,162,164,166,168,-1,-1,-1,-1,-1,-1,-1,-1,-1,-1,-1,-1,-1,-1,-1,-1,-1,-1,-1,-1,-1,-1,-1,-1,-1,-1,-1,-1,-1,-1,-1,-1,-1,-1,-1,-1,-1,-1,-1,-1,-1,-1,-1,-1,-1,-1,-1,-1,-1,-1,-1],"split_conditions":[-1.2999987E-5,-2.7E1,1.6E1,-5.5E1,4.218951E2,5.605398E2,-3.135043E1,2.1255425E3,8.210475E2,2.7632272E2,1.6186552E1,2.2134094E2,1.6186552E1,7.4E2,3.4E1,1.6E1,6.56E2,1.6186552E1,1.0231676E3,1.2244354E1,-2.5537397E1,8.539704E2,4.05E2,-5.523601E0,-6.4389145E1,1.274352E3,7.3390074E-2,-7.390223E-2,7.109347E-2,1.0638356E3,2.7344624E3,-8.8E1,4.3150757E-2,6.8712994E-2,-5.9527647E-2,4.0116953E2,7.268286E-2,7.357105E-2,-6.425034E-2,9.698678E0,-7.096193E0,-6.899632E-2,-1.0047096E-4,3.4798336E1,2.1930227E3,7.3042326E-2,-6.298073E-2,-8.1464864E-4,8E0,-7.244051E-2,2E0,-7.416276E-2,6.6891484E-2,2.846584E2,7.419951E2,5.5E1,4E2,-7.418268E-2,1.6186552E1,-2.1E1,-7.413994E-2,-5.5E1,1.7997087E1,1.6623755E1,-9.1E1,3.9797176E-2,7.413175E-2,4.86E2,-5.654963E-3,6.476416E-2,-6.8524405E-2,3.487054E0,2.5339366E-3,-1.3004525E1,4.659729E1,7.422922E-2,4.3902438E-2,3.0802513E-2,-1.7013574E-2,-7.301617E-2,5.9048265E-2,8.132528E2,8.8E1,-6.841923E-2,5.269473E-2,2.3257919E-2,6.328233E-2,8E0,-9E0,1.88E2,1E0,7.6046005E-2,-1.7995812E-2,2.6056664E-2,-7.305887E-2,2.3004917E1,1.78E2,2E0,3.051056E2,4.668401E2,-2.049412E-2,-9.005195E-3,4.685065E-2,1.5718768E1,2.8671384E0,-1E0,4.254978E0,-1.81E2,4.1447964E-2,0E0,1.7E1,1.01E2,5.1E1,1.6E1,9E0,-4E0,1.6075855E1,1.45E2,7.4176565E-2,-7.14399E-2,-3.941426E-2,-6.07852E-2,-2.5769355E-2,-4.532116E-2,-1.78679E-2,-2.4938859E-2,-6.372231E-2,-2.4181068E-2,5.5068177E-3,-2.9103931E-2,6.5160315E-3,1.684951E-2,3.9261628E-2,2.2214038E-2,-4.6656404E-2,7.12724E-2,-5.647615E-3,-5.9414968E-2,-7.411055E-2,-7.486274E-2,-1.9431818E-2,3.911754E-2,-4.593807E-2,-5.2775353E-2,-1.7504573E-2,3.245949E-3,6.1712224E-2,-5.8293906E-3,1.9830612E-2,4.510859E-2,1.1749836E-2,-2.3886258E-2,2.4203952E-2,6.858202E-2,2.3634365E-2,8.128126E-3,3.8584724E-2,5.2257527E-2,-1.0053037E-2,-3.3866104E-2,4.3233924E-2,7.379928E-2,6.0367724E-3,4.507545E-2,6.639421E-2,2.5617944E-2,-6.3658096E-2,7.104359E-2,3.8805373E-2],"split_indices":[108,115,115,60,166,166,169,167,167,167,169,167,169,1,60,40,1,169,166,156,169,167,0,169,169,167,0,0,0,166,166,60,0,0,0,166,0,0,0,169,110,0,103,85,157,0,0,154,101,0,46,0,0,167,159,60,0,0,169,60,0,60,161,167,117,57,0,138,0,0,0,129,150,156,156,0,61,127,150,0,0,166,60,0,0,149,0,13,117,11,76,0,0,0,0,49,115,37,166,166,0,0,0,89,166,72,169,115,149,72,42,99,42,45,13,76,48,46,0,0,0,0,0,0,0,0,0,0,0,0,0,0,0,0,0,0,0,0,0,0,0,0,0,0,0,0,0,0,0,0,0,0,0,0,0,0,0,0,0,0,0,0,0,0,0,0,0,0,0],"split_type":[0,0,0,0,0,0,0,0,0,0,0,0,0,0,0,0,0,0,0,0,0,0,0,0,0,0,0,0,0,0,0,0,0,0,0,0,0,0,0,0,0,0,0,0,0,0,0,0,0,0,0,0,0,0,0,0,0,0,0,0,0,0,0,0,0,0,0,0,0,0,0,0,0,0,0,0,0,0,0,0,0,0,0,0,0,0,0,0,0,0,0,0,0,0,0,0,0,0,0,0,0,0,0,0,0,0,0,0,0,0,0,0,0,0,0,0,0,0,0,0,0,0,0,0,0,0,0,0,0,0,0,0,0,0,0,0,0,0,0,0,0,0,0,0,0,0,0,0,0,0,0,0,0,0,0,0,0,0,0,0,0,0,0,0,0,0,0,0,0],"sum_hessian":[1.5172844E5,7.17993E4,7.992913E4,6.559456E4,6.2047383E3,1.3543683E4,6.638545E4,6.24476E4,3.146961E3,4.522176E3,1.6825624E3,1.1359099E4,2.1845845E3,2.1023878E2,6.617521E4,6.24312E4,1.6402973E1,3.0301697E3,1.1679143E2,3.7187349E3,8.034409E2,1.6181952E3,6.43672E1,8.888372E3,2.4707256E3,2.1057983E3,7.87861E1,1.8886029E2,2.1378496E1,2.7615168E3,6.34137E4,6.242995E4,1.2489063E0,1.2424847E1,3.9781256E0,2.9988228E3,3.134691E1,1.1033121E2,6.4602237E0,2.5407458E3,1.1779889E3,1.2678715E1,7.907622E2,1.6000485E3,1.8146727E1,5.8898346E1,5.468857E0,2.2101202E2,8.66736E3,3.604735E1,2.4346782E3,2.0975847E3,8.213655E0,2.7001294E3,6.138746E1,6.340051E4,1.3187049E1,6.111181E4,1.3181403E3,2.0208098E3,9.780129E2,2.4843447E3,5.6401176E1,3.9051224E1,1.1389376E3,2.967011E1,7.610921E2,1.5983042E3,1.744321E0,6.711738E0,1.1434988E1,2.7473893E0,2.1826463E2,6.185677E3,2.4816836E3,2.1229148E3,3.1176358E2,2.0934539E3,6.066754E2,5.7655983E1,3.731474E0,1.0826766E3,6.2317832E4,1.0942725E1,2.2443233E0,1.3129106E3,5.229634E0,1.2570414E3,7.637685E2,3.1590668E2,2.168438E3,5.4153812E1,2.247363E0,1.247048E0,3.7804176E1,3.8288272E2,7.560549E2,1.96927E1,9.977411E0,1.5965604E3,1.743786E0,1.2488725E0,1.4985167E0,2.1501915E2,3.245497E0,7.154687E2,5.4702085E3,2.1533708E3,3.283126E2,1.8377069E2,1.2799289E2,7.846432E2,1.3088107E3,2.7451553E0,6.039303E2,1.0764539E3,6.2228303E0,1.357121E3,6.096071E4,1.2686205E3,4.429017E1,1.132696E3,1.2434535E2,5.0851154E2,2.5525693E2,6.784926E1,2.4805742E2,1.5991709E3,5.6926715E2,8.747699E1,2.9540573E2,4.5373114E2,3.0232376E2,5.2346673E0,1.4458033E1,8.23239E0,1.7450205E0,2.8617802E1,1.5679426E3,2.1277046E2,2.2486734E0,1.9979401E0,1.247557E0,1.1787681E2,5.9759186E2,5.341246E3,1.2896207E2,2.3466624E2,1.9187047E3,2.8086578E2,4.7446796E1,5.469061E1,1.290801E2,1.14029495E2,1.3963392E1,1.081676E2,6.764756E2,1.2865887E3,2.2221962E1,1.4968238E0,1.2483314E0,6.026858E2,1.244512E0,8.786711E1,9.8858673E2,1.2446339E0,4.9781966E0,1.3210121E3,3.610895E1],"tree_param":{"num_deleted":"0","num_feature":"170","num_nodes":"169","size_leaf_vector":"1"}},{"base_weights":[7.991245E-4,-1.4894543E0,1.6341754E0,-1.764013E0,-1.4211822E-1,3.5140407E-1,1.7708377E0,-1.7693373E0,1.2260052E0,-1.6867528E0,2.087821E-1,-1.6136957E0,6.544442E-1,-1.522321E0,1.7761207E0,-1.7903543E0,-1.3157812E0,7.111305E-2,-6.832063E-2,-1.7839148E0,7.069792E-2,-5.8568045E-2,1.6986604E0,-1.7664615E0,6.999543E-2,3.8913345E-1,1.7447585E0,-7.107411E-2,6.3906E-2,1.3508364E0,1.7886109E0,-1.7922275E0,-1.5474883E0,-1.3604085E0,1.2062011E0,-1.787341E0,4.329184E-2,-4.2107236E-1,1.4977479E-1,1.7474425E0,4.071577E-1,-1.7873074E0,-3.7343997E-1,-9.52839E-2,6.173636E-1,-7.707012E-1,1.760381E0,-1.2811166E0,1.3874311E0,1.6149963E0,1.7924185E0,-1.7925017E0,-1.4512675E0,-1.6839063E0,-1.0707858E0,-1.1762475E0,-1.7882084E0,-7.5783384E-1,7.041473E-2,-7.178845E-2,-1.1080456E0,-4.584199E-1,1.720993E0,-1.6417503E0,1.8290025E-1,6.3440144E-1,1.7668571E0,-2.1504846E-1,9.8517585E-1,-1.561601E-1,-1.7936527E0,-6.405888E-2,6.016261E-2,-9.705619E-1,3.940719E-2,-1.5988202E0,6.5865666E-1,-5.5728626E-2,4.5959193E-2,8.534556E-1,1.7792441E0,-7.0126474E-2,5.569046E-2,1.2486699E0,1.759914E0,-6.33636E-1,1.633586E0,1.6432179E0,7.172465E-2,-7.174064E-2,-1.7346395E0,6.1050538E-2,-7.041751E-2,-1.7027978E0,6.589987E-1,-1.6352289E0,-1.9380918E-1,-1.2118136E0,7.037465E-2,-7.181867E-2,4.55556E-2,-6.1201066E-2,5.39146E-2,-6.873953E-2,5.9657104E-2,-8.1255265E-2,-6.211101E-1,-4.5437496E-2,7.316186E-2,-7.116126E-2,6.506289E-1,1.5735205E-1,1.5807432E0,-6.448858E-2,6.847931E-2,1.27225E0,7.1735024E-2,-9.463142E-1,6.3038373E-1,1.4187715E0,2.1501219E-2,-4.8744425E-2,4.7005553E-2,-7.178736E-2,-2.3772398E-2,-2.3363775E-1,-1.2393132E0,-4.8986787E-1,2.3532067E-1,-7.115557E-2,1.0365376E0,4.8092607E-1,9.9647623E-1,-5.873848E-2,6.655291E-2,1.7808717E0,6.3313427E-3,7.897001E-1,1.3789907E0,1.7857711E0,8.949587E-1,5.596267E-2,-6.530264E-2,8.4824747E-1,1.6462505E0,1.7061447E0,-1.3550104E-1,-6.952868E-2,3.189477E-2,-6.862059E-2,8.4316917E-4,-7.823671E-3,4.6494067E-2,-6.763472E-2,-2.2830883E-4,3.039919E-2,-6.919242E-2,-6.3601814E-2,-4.1127212E-2,-3.2768067E-2,1.4785427E-3,-2.9369606E-2,1.0163312E-2,6.061395E-2,-2.3444917E-2,6.9541964E-3,-5.468032E-2,7.291909E-2,-6.267576E-2,-6.6052854E-2,7.076167E-2,-4.7063224E-2,3.344976E-2,-1.5171385E-2,5.8888014E-2,-5.8944046E-4,6.247494E-2,-3.5906967E-2,3.7459865E-2,-3.2518685E-2,4.0955953E-2,-5.229601E-2,5.7284992E-2,-3.848173E-2,-1.0986282E-2,1.2929527E-2,-4.983219E-2,5.275764E-2,6.685671E-3,-1.6181391E-3,2.3945374E-2,2.4178036E-2,4.5224503E-2,1.4762398E-2,7.129615E-2,4.1445974E-2,5.5026965E-5,5.5743232E-2,-5.5838265E-2,1.3258309E-2,7.1583934E-2,-3.8511872E-2,4.8785694E-2,4.998448E-2,-6.4852946E-2,6.713478E-2,5.1870607E-2,-3.7381228E-2,6.910597E-2,6.0120057E-2,-6.729217E-2],"categories":[],"categories_nodes":[],"categories_segments":[],"categories_sizes":[],"default_left":[0,0,0,0,0,0,0,0,0,0,0,0,0,0,0,0,0,0,0,0,0,0,0,0,0,0,0,0,0,0,0,0,0,0,0,0,0,0,0,0,0,0,0,0,0,0,0,0,0,0,0,0,0,0,0,0,0,0,0,0,0,0,0,0,0,0,0,0,0,0,0,0,0,0,0,0,0,0,0,0,0,0,0,0,0,0,0,0,0,0,0,0,0,0,0,0,0,0,0,0,0,0,0,0,0,0,0,0,0,0,0,0,0,0,0,0,0,0,0,0,0,0,0,0,0,0,0,0,0,0,0,0,0,0,0,0,0,0,0,0,0,0,0,0,0,0,0,0,0,0,0,0,0,0,0,0,0,0,0,0,0,0,0,0,0,0,0,0,0,0,0,0,0,0,0,0,0,0,0,0,0,0,0,0,0,0,0,0,0,0,0,0,0,0,0,0,0,0,0,0,0,0,0,0,0,0,0,0,0,0,0],"id":3,"left_children":[1,3,5,7,9,11,13,15,17,19,21,23,25,27,29,31,33,-1,-1,35,-1,37,39,41,-1,43,45,-1,-1,47,49,51,53,55,57,59,-1,61,63,65,67,69,71,73,75,77,79,81,83,85,87,89,91,93,95,97,99,101,-1,-1,103,105,107,109,111,113,115,117,119,121,123,-1,-1,125,127,129,131,-1,-1,133,135,-1,-1,137,139,141,143,145,-1,-1,147,-1,-1,149,151,153,155,157,-1,-1,-1,-1,-1,-1,-1,159,161,-1,-1,-1,163,165,167,-1,-1,169,-1,171,173,175,177,-1,-1,-1,-1,179,181,183,185,-1,187,189,191,-1,-1,193,-1,195,197,199,201,-1,-1,203,205,207,209,-1,-1,-1,-1,-1,-1,-1,-1,-1,-1,-1,-1,-1,-1,-1,-1,-1,-1,-1,-1,-1,-1,-1,-1,-1,-1,-1,-1,-1,-1,-1,-1,-1,-1,-1,-1,-1,-1,-1,-1,-1,-1,-1,-1,-1,-1,-1,-1,-1,-1,-1,-1,-1,-1,-1,-1,-1,-1,-1,-1,-1,-1,-1,-1],"loss_changes":[3.6697766E5,2.9162688E4,1.26086875E4,1.0447344E3,7.234338E3,4.125736E3,1.133625E3,6.208125E2,1.9246376E2,8.3239795E2,4.332502E3,4.7875366E2,1.735435E3,8.594562E1,3.423125E2,2.565625E1,3.2791162E2,0E0,0E0,2.553955E1,0E0,6.9662134E2,1.0354785E2,2.5060791E1,0E0,5.338754E2,4.7503906E1,0E0,0E0,1.8051196E2,3.878125E1,3.1875E0,2.9771484E1,2.2235059E2,5.6772278E1,1.0033203E1,0E0,2.700993E2,3.4791528E2,3.3331543E1,2.234275E1,8.751709E0,3.544156E1,1.8243867E2,3.014154E2,1.1093662E1,1.8451904E1,3.521137E1,9.2427E1,5.8011963E1,3.484375E0,5.3125E-1,5.338388E1,1.7753418E1,5.451764E1,2.1037842E2,2.021997E1,2.142494E1,0E0,0E0,4.760857E1,2.0302039E2,1.9950806E1,3.4654266E1,2.0517169E2,7.2707214E1,1.8263672E1,1.94253E1,1.3373751E1,7.7643023E0,8.7890625E-3,0E0,0E0,4.0582565E1,1.3925009E2,3.0472519E1,1.9302344E2,0E0,0E0,5.0813618E1,2.7329102E0,0E0,0E0,7.8898926E1,9.460327E0,2.6440294E1,1.2052246E1,3.371643E1,0E0,0E0,1.1328125E1,0E0,0E0,8.213989E0,1.8303666E0,6.0887756E0,6.6527245E1,1.3528052E2,0E0,0E0,0E0,0E0,0E0,0E0,0E0,8.713701E1,2.2909546E2,0E0,0E0,0E0,8.102985E0,1.4236946E2,8.1491394E1,0E0,0E0,1.2369165E2,0E0,7.8510656E0,1.3074305E1,4.5584717E0,1.0067038E1,0E0,0E0,0E0,0E0,4.1908596E1,2.933612E1,3.6604614E1,1.2801346E2,0E0,8.820152E-1,1.2974582E2,5.769165E1,0E0,0E0,1.8115234E0,0E0,5.7910217E1,4.406018E1,2.0734863E0,1.1040508E1,0E0,0E0,2.5340874E1,1.2748535E1,1.8026978E1,3.0783821E1,0E0,0E0,0E0,0E0,0E0,0E0,0E0,0E0,0E0,0E0,0E0,0E0,0E0,0E0,0E0,0E0,0E0,0E0,0E0,0E0,0E0,0E0,0E0,0E0,0E0,0E0,0E0,0E0,0E0,0E0,0E0,0E0,0E0,0E0,0E0,0E0,0E0,0E0,0E0,0E0,0E0,0E0,0E0,0E0,0E0,0E0,0E0,0E0,0E0,0E0,0E0,0E0,0E0,0E0,0E0,0E0,0E0,0E0,0E0,0E0,0E0,0E0,0E0,0E0],"parents":[2147483647,0,0,1,1,2,2,3,3,4,4,5,5,6,6,7,7,8,8,9,9,10,10,11,11,12,12,13,13,14,14,15,15,16,16,19,19,21,21,22,22,23,23,25,25,26,26,29,29,30,30,31,31,32,32,33,33,34,34,35,35,37,37,38,38,39,39,40,40,41,41,42,42,43,43,44,44,45,45,46,46,47,47,48,48,49,49,50,50,51,51,52,52,53,53,54,54,55,55,56,56,57,57,60,60,61,61,62,62,63,63,64,64,65,65,66,66,67,67,68,68,69,69,70,70,73,73,74,74,75,75,76,76,79,79,80,80,83,83,84,84,85,85,86,86,87,87,90,90,93,93,94,94,95,95,96,96,97,97,105,105,106,106,110,110,111,111,112,112,115,115,117,117,118,118,119,119,120,120,125,125,126,126,127,127,128,128,130,130,131,131,132,132,135,135,137,137,138,138,139,139,140,140,143,143,144,144,145,145,146,146],"right_children":[2,4,6,8,10,12,14,16,18,20,22,24,26,28,30,32,34,-1,-1,36,-1,38,40,42,-1,44,46,-1,-1,48,50,52,54,56,58,60,-1,62,64,66,68,70,72,74,76,78,80,82,84,86,88,90,92,94,96,98,100,102,-1,-1,104,106,108,110,112,114,116,118,120,122,124,-1,-1,126,128,130,132,-1,-1,134,136,-1,-1,138,140,142,144,146,-1,-1,148,-1,-1,150,152,154,156,158,-1,-1,-1,-1,-1,-1,-1,160,162,-1,-1,-1,164,166,168,-1,-1,170,-1,172,174,176,178,-1,-1,-1,-1,180,182,184,186,-1,188,190,192,-1,-1,194,-1,196,198,200,202,-1,-1,204,206,208,210,-1,-1,-1,-1,-1,-1,-1,-1,-1,-1,-1,-1,-1,-1,-1,-1,-1,-1,-1,-1,-1,-1,-1,-1,-1,-1,-1,-1,-1,-1,-1,-1,-1,-1,-1,-1,-1,-1,-1,-1,-1,-1,-1,-1,-1,-1,-1,-1,-1,-1,-1,-1,-1,-1,-1,-1,-1,-1,-1,-1,-1,-1,-1,-1],"split_conditions":[1E0,-1.5E1,2.1E1,1.5703999E3,-1.064883E3,-1.3024708E3,-4.2190132E1,-5.5E1,6.56E2,1.274352E3,3.09538E2,1.274352E3,3.09538E2,7.4E2,8.5E1,-7.4E1,1.0051606E1,7.111305E-2,-6.832063E-2,6.739726E-4,7.069792E-2,-1E0,2E0,8.210475E2,6.999543E-2,-1.3E1,-2.147651E-3,-7.107411E-2,6.3906E-2,-2.6219873E3,6.4E1,2.5262169E1,4.835563E1,3.283195E2,1.215684E2,8.210475E2,4.329184E-2,1.4748275E1,-7.1924405E0,5.1145733E1,1.3294271E0,-2.7578179E-5,2.184608E1,-5.5E1,-7.1924405E0,4.5224637E-2,6.824726E1,2.5E1,3.1366006E2,-2.6219873E3,1.16E2,-8.8E1,3.17E2,1.3267826E3,-1.9914932E0,5.4602057E2,1.274352E3,4.57E2,7.041473E-2,-7.178845E-2,2.184608E1,9.849136E0,1.5423966E3,1.2509147E2,2.0220975E3,1.0299664E1,-1.164259E0,-1.2669683E-3,8E0,-5.5E1,2.4635238E-3,-6.405888E-2,6.016261E-2,2.86E2,0E0,3.6199094E-4,1.02E2,-5.5728626E-2,4.5959193E-2,1.2640368E1,3.0281697E-3,-7.0126474E-2,5.569046E-2,0E0,5.9E1,2.8541918E1,-4.162896E-2,1.54E2,7.172465E-2,-7.174064E-2,9.332486E2,6.1050538E-2,-7.041751E-2,1.72E2,-8.8E1,6E0,5E0,-6.666667E-2,7.037465E-2,-7.181867E-2,4.55556E-2,-6.1201066E-2,5.39146E-2,-6.873953E-2,5.9657104E-2,-9.9E1,1.2244354E1,-4.5437496E-2,7.316186E-2,-7.116126E-2,8E0,1.6486565E2,5.6588356E1,-6.448858E-2,6.847931E-2,1.261439E1,7.1735024E-2,4.8707638E1,4.2762198E-2,-2.09E2,-9.090909E-2,-4.8744425E-2,4.7005553E-2,-7.178736E-2,-2.3772398E-2,1.8E1,1.5303273E1,2.8715097E1,1E0,-7.115557E-2,7.252338E-2,0E0,-9.1E1,-5.873848E-2,6.655291E-2,-1.7013574E-2,6.3313427E-3,7E1,2.7953702E2,-9E0,9.651191E0,5.596267E-2,-6.530264E-2,1.1E1,1E0,-7.218425E3,7E0,-6.952868E-2,3.189477E-2,-6.862059E-2,8.4316917E-4,-7.823671E-3,4.6494067E-2,-6.763472E-2,-2.2830883E-4,3.039919E-2,-6.919242E-2,-6.3601814E-2,-4.1127212E-2,-3.2768067E-2,1.4785427E-3,-2.9369606E-2,1.0163312E-2,6.061395E-2,-2.3444917E-2,6.9541964E-3,-5.468032E-2,7.291909E-2,-6.267576E-2,-6.6052854E-2,7.076167E-2,-4.7063224E-2,3.344976E-2,-1.5171385E-2,5.8888014E-2,-5.8944046E-4,6.247494E-2,-3.5906967E-2,3.7459865E-2,-3.2518685E-2,4.0955953E-2,-5.229601E-2,5.7284992E-2,-3.848173E-2,-1.0986282E-2,1.2929527E-2,-4.983219E-2,5.275764E-2,6.685671E-3,-1.6181391E-3,2.3945374E-2,2.4178036E-2,4.5224503E-2,1.4762398E-2,7.129615E-2,4.1445974E-2,5.5026965E-5,5.5743232E-2,-5.5838265E-2,1.3258309E-2,7.1583934E-2,-3.8511872E-2,4.8785694E-2,4.998448E-2,-6.4852946E-2,6.713478E-2,5.1870607E-2,-3.7381228E-2,6.910597E-2,6.0120057E-2,-6.729217E-2],"split_indices":[114,60,60,167,159,159,169,60,1,167,167,167,167,1,114,114,169,0,0,103,0,101,46,167,0,60,103,0,0,159,60,169,47,160,167,167,0,169,169,158,108,152,48,60,169,57,158,16,167,159,114,60,0,159,153,167,167,38,0,0,48,47,158,167,158,47,88,150,30,60,154,0,0,104,76,146,115,0,0,161,154,0,0,72,140,162,146,46,0,0,167,0,0,71,60,77,3,70,0,0,0,0,0,0,0,114,156,0,0,0,60,160,47,0,0,47,0,48,111,114,70,0,0,0,0,24,169,85,64,0,109,72,117,0,0,150,0,46,160,165,86,0,0,39,64,159,3,0,0,0,0,0,0,0,0,0,0,0,0,0,0,0,0,0,0,0,0,0,0,0,0,0,0,0,0,0,0,0,0,0,0,0,0,0,0,0,0,0,0,0,0,0,0,0,0,0,0,0,0,0,0,0,0,0,0,0,0,0,0,0,0],"split_type":[0,0,0,0,0,0,0,0,0,0,0,0,0,0,0,0,0,0,0,0,0,0,0,0,0,0,0,0,0,0,0,0,0,0,0,0,0,0,0,0,0,0,0,0,0,0,0,0,0,0,0,0,0,0,0,0,0,0,0,0,0,0,0,0,0,0,0,0,0,0,0,0,0,0,0,0,0,0,0,0,0,0,0,0,0,0,0,0,0,0,0,0,0,0,0,0,0,0,0,0,0,0,0,0,0,0,0,0,0,0,0,0,0,0,0,0,0,0,0,0,0,0,0,0,0,0,0,0,0,0,0,0,0,0,0,0,0,0,0,0,0,0,0,0,0,0,0,0,0,0,0,0,0,0,0,0,0,0,0,0,0,0,0,0,0,0,0,0,0,0,0,0,0,0,0,0,0,0,0,0,0,0,0,0,0,0,0,0,0,0,0,0,0,0,0,0,0,0,0,0,0,0,0,0,0,0,0,0,0,0,0],"sum_hessian":[1.5076048E5,7.883417E4,7.192632E4,6.548865E4,1.3345521E4,6.925365E3,6.5000953E4,6.537265E4,1.1599864E2,2.4698103E3,1.0875711E4,9.2470184E2,6.000663E3,1.0365116E2,6.48973E4,6.247474E4,2.8979102E3,9.796733E1,1.8031315E1,2.402709E3,6.710134E1,9.221861E3,1.6538497E3,8.849829E2,3.9718956E1,4.8273584E3,1.1733047E3,9.623098E1,7.4201736E0,1.8547168E3,6.3042586E4,6.1990207E4,4.8453134E2,2.8479749E3,4.9935333E1,2.4002163E3,2.4928248E0,3.3653423E3,5.856519E3,1.5933146E3,6.0535122E1,8.716559E2,1.3326994E1,1.5461804E3,3.2811782E3,6.9436445E0,1.1663611E3,2.4968037E1,1.8297488E3,1.3620398E3,6.1680543E4,6.1936137E4,5.4071686E1,3.747552E2,1.0977615E2,1.9935375E3,8.544374E2,1.0908123E1,3.902721E1,2.372829E3,2.7387146E1,3.3084446E3,5.6897736E1,1.05440056E2,5.751079E3,2.7892897E1,1.5654216E3,2.9455637E1,3.1079487E1,3.4768734E0,8.68179E2,8.145945E0,5.181049E0,2.0537347E2,1.340807E3,5.932838E1,3.2218499E3,5.450426E0,1.4932184E0,2.4706955E1,1.1416542E3,2.1513548E1,3.4544885E0,1.3362916E3,4.9345712E2,1.0896524E1,1.3511433E3,2.9816562E2,6.138238E4,6.0839504E4,1.0966322E3,4.7160535E0,4.9355633E1,3.7202863E2,2.7265608E0,6.6263054E1,4.35131E1,1.9702543E3,2.3283194E1,8.527095E2,1.7279118E0,8.1813E0,2.726823E0,2.2453278E1,4.9338675E0,9.9748193E2,2.3109626E3,1.7268612E0,5.517087E1,9.969374E1,5.746316E0,5.6489463E3,1.0213255E2,8.88101E0,1.9011887E1,8.215195E1,1.4832698E3,1.5730255E1,1.3725381E1,2.1109312E1,9.970174E0,1.9807612E0,1.4961121E0,8.669371E2,1.2419659E0,5.5382465E1,1.4999101E2,3.6182068E2,9.7898627E2,5.583806E1,3.49032E0,2.1127385E3,1.1091113E3,6.1819444E0,1.8525011E1,1.1404104E3,1.2437743E0,2.9708026E2,1.0392114E3,4.781002E2,1.5356959E1,3.4584427E0,7.4380817E0,2.2521877E1,1.3286213E3,2.880171E2,1.014854E1,1.0953981E3,1.2341573E0,3.6930908E2,2.7195365E0,1.2373002E0,1.4892607E0,6.403883E1,2.2242177E0,2.7155783E1,1.6357319E1,6.414308E2,1.3288235E3,1.3691302E2,8.605689E2,2.046577E3,2.6438568E2,3.2492325E0,2.4970834E0,5.589322E3,5.9624565E1,9.522511E1,6.9074383E0,1.1594641E1,7.055731E1,1.4231777E1,1.4984775E0,6.4903507E0,7.2350307E0,1.9974204E0,1.9111893E1,4.98317E0,4.987004E0,3.8157406E1,1.7225058E1,1.4676111E2,3.229898E0,1.1219441E2,2.4962625E2,9.2486914E2,5.411717E1,2.2442493E0,1.2460706E0,3.8924875E2,1.7234896E3,2.8415356E2,8.2495776E2,1.498446E0,1.1389119E3,2.2608594E2,7.0994316E1,1.0342712E3,4.940212E0,1.4848654E0,4.7661533E2,1.9922853E0,1.3364674E1,1.9798191E1,2.7236853E0,1.2133108E3,1.1531062E2,1.9835887E0,2.8603348E2,4.941942E0,5.206598E0],"tree_param":{"num_deleted":"0","num_feature":"170","num_nodes":"211","size_leaf_vector":"1"}},{"base_weights":[1.401091E-3,-1.583431E0,1.4437418E0,-1.7171316E0,-3.4791285E-1,1.70754E-1,1.7160774E0,-1.7326397E0,-1.1907681E0,-3.544091E-4,-1.6439465E0,5.0886285E-1,-1.591763E0,1.7199979E0,-1.2851474E0,-1.7368768E0,-1.4627506E0,-1.3027173E0,1.1432998E0,-2.1393915E-1,1.6020998E0,-6.962044E-2,1.5864319E-1,2.851856E-1,1.6385211E0,-1.7425935E0,1.8223344E-1,-1.4596334E0,1.7222208E0,-6.9585495E-2,6.420533E-2,-1.7375187E0,-1.5075761E0,-1.5357181E0,6.6734505E-1,-1.1121253E0,-6.96213E-2,1.6440228E0,-6.4983144E-2,-4.4642198E-1,2.8485402E-1,1.6658272E0,-6.646947E-2,6.807275E-2,-1.6082945E0,-1.4166601E0,3.2696083E-1,1.6786714E0,-6.7421354E-2,-6.972099E-2,-2.2770366E-2,1.7072525E0,-1.4488149E0,-6.79995E-2,5.29642E-2,1.3185273E0,1.7339108E0,-6.954629E-2,-1.6753833E0,1.4316211E0,-1.690485E0,-1.5730536E0,-8.7923753E-1,1.5234498E0,-6.2870055E-2,-1.2562456E0,-5.9869665E-1,6.956014E-2,-4.6642646E-2,-8.9757764E-1,-2.556119E-1,-4.4077042E-1,4.6181208E-1,-9.4028723E-1,1.737884E0,-6.793951E-2,-5.216391E-1,6.5952525E-2,-1.6841491E0,1.13755055E-1,6.566738E-1,6.9856495E-2,3.8382104E-1,6.819905E-3,6.906223E-2,-6.915508E-2,6.092895E-2,-1.1580684E0,1.3507366E0,1.5667052E0,6.951657E-2,-1.6936917E0,-5.085136E-1,7.725708E-3,6.26524E-2,-5.1673317E-1,-6.925564E-2,-1.5824991E0,5.418786E-1,-1.306883E0,7.05361E-1,6.792386E-2,-3.8751535E-2,-1.3922601E0,-5.036709E-1,-1.0254823E0,3.1426176E-1,-1.3253912E0,-7.2407293E-1,4.2576808E-1,-3.3503014E-1,-5.5057955E-1,6.493059E-2,2.5042677E-1,9.4882715E-1,5.229795E-1,-1.476347E0,-4.7260147E-2,1.7469069E0,-4.4669274E-2,1.3834172E-2,5.3855937E-2,-6.959741E-2,6.840134E-2,1.1281401E0,5.1864266E-1,1.0361929E0,-5.4565704E-1,7.824575E-1,-6.763546E-2,5.534223E-2,7.2542316E-1,1.4244134E0,-2.1671347E-1,1.5851902E0,-6.795527E-2,-7.2616087E-3,-6.432936E-2,6.545918E-2,5.8602903E-2,-5.6721885E-2,-6.402044E-2,-3.3141956E-2,5.4464206E-2,-3.8970597E-2,-6.191172E-2,3.7254043E-2,7.7878736E-2,-5.713123E-2,-6.4271264E-2,-4.6707124E-2,6.1951645E-2,-2.9455148E-2,-5.0159935E-2,1.5651764E-2,3.999601E-2,-3.5993837E-2,-5.692428E-2,-2.4789905E-2,-6.948776E-2,-2.554692E-2,-2.7723305E-2,2.8914243E-2,-6.7554556E-2,-1.1718835E-2,-3.81078E-2,-4.8141396E-3,-3.6279138E-3,2.2350153E-2,5.552959E-3,4.500691E-2,5.587189E-2,-2.6858348E-2,-6.716792E-2,1.042016E-2,7.005411E-2,-1.798411E-3,-3.4341183E-2,4.0452257E-3,-2.8751027E-2,5.7530973E-2,-1.0206776E-2,2.3178488E-2,3.265824E-2,5.1713917E-2,-3.9166935E-2,3.3651102E-2,4.148538E-2,-1.7798899E-2,3.4251153E-2,-5.4100156E-2,6.422781E-2,4.8925705E-2,5.2982297E-2,-6.3998036E-2,6.404333E-2,2.6174854E-2],"categories":[],"categories_nodes":[],"categories_segments":[],"categories_sizes":[],"default_left":[0,0,0,0,0,0,0,0,0,0,0,0,0,0,0,0,0,0,0,0,0,0,0,0,0,0,0,0,0,0,0,0,0,0,0,0,0,0,0,0,0,0,0,0,0,0,0,0,0,0,0,0,0,0,0,0,0,0,0,0,0,0,0,0,0,0,0,0,0,0,0,0,0,0,0,0,0,0,0,0,0,0,0,0,0,0,0,0,0,0,0,0,0,0,0,0,0,0,0,0,0,0,0,0,0,0,0,0,0,0,0,0,0,0,0,0,0,0,0,0,0,0,0,0,0,0,0,0,0,0,0,0,0,0,0,0,0,0,0,0,0,0,0,0,0,0,0,0,0,0,0,0,0,0,0,0,0,0,0,0,0,0,0,0,0,0,0,0,0,0,0,0,0,0,0,0,0,0,0,0,0,0,0,0,0,0,0,0,0,0,0,0,0,0,0,0,0],"id":4,"left_children":[1,3,5,7,9,11,13,15,17,19,21,23,25,27,29,31,33,35,37,39,41,-1,43,45,47,49,51,53,55,-1,-1,57,59,61,63,65,-1,67,-1,69,71,73,-1,-1,75,77,79,81,-1,-1,-1,83,85,-1,-1,87,89,-1,91,93,95,97,99,101,-1,103,105,-1,-1,107,109,111,113,115,117,-1,119,-1,121,123,125,-1,127,-1,-1,-1,-1,129,131,133,-1,135,137,-1,-1,139,-1,141,143,145,147,-1,-1,149,151,153,155,157,159,161,163,165,-1,167,169,171,173,-1,175,-1,-1,-1,-1,177,179,181,183,185,187,-1,-1,189,191,193,195,-1,-1,-1,-1,-1,-1,-1,-1,-1,-1,-1,-1,-1,-1,-1,-1,-1,-1,-1,-1,-1,-1,-1,-1,-1,-1,-1,-1,-1,-1,-1,-1,-1,-1,-1,-1,-1,-1,-1,-1,-1,-1,-1,-1,-1,-1,-1,-1,-1,-1,-1,-1,-1,-1,-1,-1,-1,-1,-1,-1,-1,-1],"loss_changes":[3.4147828E5,1.17571875E4,2.7113281E4,5.222031E2,3.1313086E3,8.21506E3,7.6028125E2,6.8796875E1,4.8262378E2,1.8768015E3,2.561521E2,2.9220693E3,5.940288E2,4.5728125E2,1.1395198E2,6.4375E0,1.5188843E2,1.4471973E2,1.2020771E2,5.612194E2,1.3690942E2,0E0,2.0903845E2,6.869404E2,2.579336E2,4.248047E-2,4.3721204E2,3.268898E1,3.0114062E2,0E0,0E0,1.421875E0,9.8657074E1,2.1626465E1,6.535582E1,9.005896E1,0E0,2.1328156E1,0E0,2.8391626E2,1.9780362E2,1.20517456E2,0E0,0E0,2.6214218E0,1.9262631E2,6.624891E2,1.650332E2,0E0,0E0,0E0,2.3986816E0,7.337869E1,0E0,0E0,1.4624146E2,3.9109375E1,0E0,2.326587E1,1.5371838E0,7.21875E0,1.8576904E1,3.6691452E1,1.2208206E1,0E0,9.729443E1,1.058738E2,0E0,0E0,7.183386E1,1.2574539E2,6.9392E1,1.2717676E2,1.4641704E1,1.8300293E1,0E0,2.5471694E0,0E0,3.8427734E1,2.6331412E2,1.9334705E2,0E0,3.5700497E1,0E0,0E0,0E0,0E0,3.4601707E1,8.147388E1,4.884497E1,0E0,8.414795E0,4.7156723E1,0E0,0E0,1.4788754E1,0E0,1.0669434E1,7.1539183E0,2.4044083E1,3.42194E1,0E0,0E0,3.7159668E1,7.187987E1,6.033217E1,7.337325E1,1.8546173E1,5.944763E1,8.118476E1,1.17905716E2,4.9657784E1,0E0,9.096805E1,5.3301056E1,6.6567326E0,5.0889893E0,0E0,4.977295E0,0E0,0E0,0E0,0E0,1.6637378E2,1.413417E2,1.2797186E2,5.455652E1,1.835849E1,2.1416748E1,0E0,0E0,5.303923E1,5.6453613E1,3.6171665E1,2.049585E1,0E0,0E0,0E0,0E0,0E0,0E0,0E0,0E0,0E0,0E0,0E0,0E0,0E0,0E0,0E0,0E0,0E0,0E0,0E0,0E0,0E0,0E0,0E0,0E0,0E0,0E0,0E0,0E0,0E0,0E0,0E0,0E0,0E0,0E0,0E0,0E0,0E0,0E0,0E0,0E0,0E0,0E0,0E0,0E0,0E0,0E0,0E0,0E0,0E0,0E0,0E0,0E0,0E0,0E0,0E0,0E0,0E0,0E0,0E0,0E0,0E0,0E0],"parents":[2147483647,0,0,1,1,2,2,3,3,4,4,5,5,6,6,7,7,8,8,9,9,10,10,11,11,12,12,13,13,14,14,15,15,16,16,17,17,18,18,19,19,20,20,22,22,23,23,24,24,25,25,26,26,27,27,28,28,31,31,32,32,33,33,34,34,35,35,37,37,39,39,40,40,41,41,44,44,45,45,46,46,47,47,51,51,52,52,55,55,56,56,58,58,59,59,60,60,61,61,62,62,63,63,65,65,66,66,69,69,70,70,71,71,72,72,73,73,74,74,76,76,78,78,79,79,80,80,82,82,87,87,88,88,89,89,91,91,92,92,95,95,97,97,98,98,99,99,100,100,103,103,104,104,105,105,106,106,107,107,108,108,109,109,110,110,111,111,113,113,114,114,115,115,116,116,118,118,123,123,124,124,125,125,126,126,127,127,128,128,131,131,132,132,133,133,134,134],"right_children":[2,4,6,8,10,12,14,16,18,20,22,24,26,28,30,32,34,36,38,40,42,-1,44,46,48,50,52,54,56,-1,-1,58,60,62,64,66,-1,68,-1,70,72,74,-1,-1,76,78,80,82,-1,-1,-1,84,86,-1,-1,88,90,-1,92,94,96,98,100,102,-1,104,106,-1,-1,108,110,112,114,116,118,-1,120,-1,122,124,126,-1,128,-1,-1,-1,-1,130,132,134,-1,136,138,-1,-1,140,-1,142,144,146,148,-1,-1,150,152,154,156,158,160,162,164,166,-1,168,170,172,174,-1,176,-1,-1,-1,-1,178,180,182,184,186,188,-1,-1,190,192,194,196,-1,-1,-1,-1,-1,-1,-1,-1,-1,-1,-1,-1,-1,-1,-1,-1,-1,-1,-1,-1,-1,-1,-1,-1,-1,-1,-1,-1,-1,-1,-1,-1,-1,-1,-1,-1,-1,-1,-1,-1,-1,-1,-1,-1,-1,-1,-1,-1,-1,-1,-1,-1,-1,-1,-1,-1,-1,-1,-1,-1,-1,-1],"split_conditions":[0E0,-2.1E1,2.1E1,-8.5E1,5.605398E2,5.605398E2,1.7618331E3,-5.6410257E-2,1.4773728E3,6.3324927E2,9.315706E2,3.1763712E2,1.2382871E3,-2.103671E4,5.94E2,7.010121E1,1.4773728E3,4.218951E2,7.433905E2,1.5E1,1.5327708E3,-6.962044E-2,1.2029785E3,-2.8610918E3,3.1960798E3,9.315706E2,1.2029785E3,6.83E2,8.5E1,-6.9585495E-2,6.420533E-2,-8.8E1,9.899373E0,2E0,7.433905E2,1.6E1,-6.96213E-2,4.779002E1,-6.4983144E-2,-2.02E2,-3E0,-2.7149322E-3,-6.646947E-2,6.807275E-2,4.1268136E-2,1.4115973E1,1E0,2E0,-6.7421354E-2,-6.972099E-2,-2.2770366E-2,1.996149E0,1.9405796E1,-6.79995E-2,5.29642E-2,-2.6219873E3,7.317073E-2,-6.954629E-2,1.2382871E3,-6E0,8E0,6.7601074E1,4.732147E1,2.1504858E1,-6.2870055E-2,2.3E1,-3.797468E-2,6.956014E-2,-4.6642646E-2,-7.103168E1,2.747418E-2,1.22E2,3.1E1,0E0,-4.6245148E-4,-6.793951E-2,3.5881814E-1,6.5952525E-2,2.5724715E-2,1.0395536E2,6.3E1,6.9856495E-2,-1.7E1,6.819905E-3,6.906223E-2,-6.915508E-2,6.092895E-2,7E0,-2.9140271E-2,-2.6219873E3,6.951657E-2,2.7E1,1.0424614E-1,7.725708E-3,6.26524E-2,4E0,-6.925564E-2,2.6244344E-2,2.3503395E1,9.351532E-6,1.7E1,6.792386E-2,-3.8751535E-2,-4.8968323E1,8.44E-1,7.2866514E-2,3.29E2,4.5965035E-2,-2.8610918E3,1.1043745E1,-2.8610918E3,-6.3E1,6.493059E-2,-5.3E1,-2.0895927E1,1.9532724E1,4.77E2,-4.7260147E-2,5.3417485E-4,-4.4669274E-2,1.3834172E-2,5.3855937E-2,-6.959741E-2,-4E1,-0E0,-2.5E1,-2E0,4.280096E-2,1E0,-6.763546E-2,5.534223E-2,1E0,6.3284197E0,-2.1E1,1.56E2,-6.795527E-2,-7.2616087E-3,-6.432936E-2,6.545918E-2,5.8602903E-2,-5.6721885E-2,-6.402044E-2,-3.3141956E-2,5.4464206E-2,-3.8970597E-2,-6.191172E-2,3.7254043E-2,7.7878736E-2,-5.713123E-2,-6.4271264E-2,-4.6707124E-2,6.1951645E-2,-2.9455148E-2,-5.0159935E-2,1.5651764E-2,3.999601E-2,-3.5993837E-2,-5.692428E-2,-2.4789905E-2,-6.948776E-2,-2.554692E-2,-2.7723305E-2,2.8914243E-2,-6.7554556E-2,-1.1718835E-2,-3.81078E-2,-4.8141396E-3,-3.6279138E-3,2.2350153E-2,5.552959E-3,4.500691E-2,5.587189E-2,-2.6858348E-2,-6.716792E-2,1.042016E-2,7.005411E-2,-1.798411E-3,-3.4341183E-2,4.0452257E-3,-2.8751027E-2,5.7530973E-2,-1.0206776E-2,2.3178488E-2,3.265824E-2,5.1713917E-2,-3.9166935E-2,3.3651102E-2,4.148538E-2,-1.7798899E-2,3.4251153E-2,-5.4100156E-2,6.422781E-2,4.8925705E-2,5.2982297E-2,-6.3998036E-2,6.404333E-2,2.6174854E-2],"split_indices":[114,60,60,114,166,166,166,61,159,159,159,159,159,159,0,49,159,166,160,60,160,0,166,159,160,159,166,0,114,0,0,60,50,32,160,56,0,47,0,117,76,149,0,0,57,48,101,46,0,0,0,129,48,0,0,159,61,0,159,67,56,49,47,47,0,42,61,0,0,156,57,60,71,68,152,0,106,0,57,160,114,0,71,0,0,0,0,13,153,159,0,6,89,0,0,12,0,150,48,152,5,0,0,156,91,111,38,57,159,53,159,114,0,114,156,51,38,0,151,0,0,0,0,60,103,60,60,57,68,0,0,68,130,168,46,0,0,0,0,0,0,0,0,0,0,0,0,0,0,0,0,0,0,0,0,0,0,0,0,0,0,0,0,0,0,0,0,0,0,0,0,0,0,0,0,0,0,0,0,0,0,0,0,0,0,0,0,0,0,0,0,0,0,0,0,0,0],"split_type":[0,0,0,0,0,0,0,0,0,0,0,0,0,0,0,0,0,0,0,0,0,0,0,0,0,0,0,0,0,0,0,0,0,0,0,0,0,0,0,0,0,0,0,0,0,0,0,0,0,0,0,0,0,0,0,0,0,0,0,0,0,0,0,0,0,0,0,0,0,0,0,0,0,0,0,0,0,0,0,0,0,0,0,0,0,0,0,0,0,0,0,0,0,0,0,0,0,0,0,0,0,0,0,0,0,0,0,0,0,0,0,0,0,0,0,0,0,0,0,0,0,0,0,0,0,0,0,0,0,0,0,0,0,0,0,0,0,0,0,0,0,0,0,0,0,0,0,0,0,0,0,0,0,0,0,0,0,0,0,0,0,0,0,0,0,0,0,0,0,0,0,0,0,0,0,0,0,0,0,0,0,0,0,0,0,0,0,0,0,0,0,0,0,0,0,0,0],"sum_hessian":[1.493847E5,7.1176484E4,7.820823E4,6.422593E4,6.950552E3,1.3783088E4,6.442514E4,6.2385598E4,1.8403333E3,5.481558E3,1.4689937E3,1.1565211E4,2.2178772E3,6.4341516E4,8.362191E1,6.1415965E4,9.696329E2,1.7565267E3,8.380657E1,4.8376353E3,6.4392267E2,1.3943339E3,7.4659874E1,9.654775E3,1.910435E3,2.0440995E3,1.7377771E2,4.449214E1,6.4297023E4,7.260332E1,1.1018594E1,6.1237953E4,1.7801042E2,9.3778754E2,3.1845379E1,1.2262498E3,5.30277E2,7.131192E1,1.2494648E1,3.2997551E3,1.5378801E3,6.3207086E2,1.1851763E1,3.9873096E1,3.4786777E1,2.3052922E2,9.424246E3,1.8881239E3,2.2311152E1,2.0428629E3,1.2365543E0,8.9783775E1,8.399394E1,4.131429E1,3.177853E0,1.8126897E3,6.2484336E4,6.0109582E4,1.128371E3,1.0028801E1,1.6798163E2,8.8600244E2,5.17851E1,2.3268446E1,8.576933E0,9.56353E2,2.6989667E2,6.934908E1,1.9628353E0,9.7967816E2,2.320077E3,3.0122064E2,1.2366594E3,1.6681835E1,6.1538904E2,3.1600843E1,3.1859345E0,1.8086834E1,2.124424E2,5.724134E3,3.7001125E3,1.7939248E3,9.419912E1,1.235764E0,8.854801E1,7.714287E1,6.8510695E0,2.282345E1,1.7898662E3,1.470237E3,6.1014098E4,1.1104957E3,1.7875332E1,1.2224302E0,8.806371E0,6.1162267E0,1.618654E2,8.823136E2,3.6888034E0,4.0917656E1,1.0867441E1,2.204244E1,1.2260058E0,8.092462E2,1.4710681E2,1.8383505E2,8.606163E1,2.807613E2,6.989168E2,2.4173305E2,2.078344E3,2.8670105E2,1.4519584E1,8.634148E2,3.7324466E2,4.4792786E0,1.2202556E1,1.4957248E0,6.138933E2,1.7192415E0,1.4666932E0,3.4217682E0,2.0902063E2,5.4801797E3,2.4395442E2,2.7150244E3,9.850881E2,2.8163372E1,6.603575E1,1.9144732E1,3.6787193E0,1.8980345E2,1.6000627E3,1.4972487E1,1.4552645E3,1.1065742E3,3.9214783E0,1.1982328E1,5.8930035E0,1.7165024E0,4.3997245E0,8.606304E2,2.1683266E1,2.460451E0,1.2283527E0,3.7219997E1,3.697661E0,6.9250884E0,3.9423525E0,4.107456E2,3.985006E2,1.4404543E1,1.3270227E2,1.5840099E2,2.5434067E1,5.5113834E1,3.0947796E1,2.4571808E2,3.5043224E1,5.2830704E1,6.460861E2,5.044003E1,1.9129301E2,6.1442265E1,2.0169017E3,1.4756416E2,1.3913689E2,4.1024115E2,4.5317368E2,6.7050545E1,3.0619412E2,2.4889872E0,1.9902915E0,1.0956154E1,1.2464026E0,6.123965E2,1.4968148E0,1.8604152E2,5.294138E3,3.4885597E1,2.0906882E2,1.9761089E2,2.5174136E3,5.3296674E2,4.5212128E2,2.1680628E1,6.482745E0,5.4816933E1,1.1218819E1,1.7911194E2,1.069151E1,8.38163E2,7.618997E2,7.10177E0,7.870718E0,1.4301261E3,2.5138462E1],"tree_param":{"num_deleted":"0","num_feature":"170","num_nodes":"197","size_leaf_vector":"1"}},{"base_weights":[6.1603397E-4,-1.3990452E0,1.5370449E0,-1.663442E0,-1.8053618E-1,3.660428E-1,1.6642174E0,-1.6798447E0,-8.4098697E-1,1.5957206E-1,-1.5892662E0,6.675895E-1,-1.4259117E0,-1.4313725E0,1.6686921E0,-1.6813303E0,1.3094965E0,-9.817589E-1,1.6494476E0,-8.7172054E-2,1.5479834E0,-1.6844724E0,6.6855125E-2,4.1487926E-1,1.6461872E0,-1.6379362E0,1.6421572E0,-6.686109E-2,5.9399325E-2,1.0696298E0,1.6833577E0,-1.6861932E0,-1.4026457E0,6.579058E-2,-5.187122E-2,-6.9530034E-1,-6.750794E-2,6.747506E-2,-8.1572816E-4,-7.179827E-1,5.6836907E-2,-6.621847E-2,1.6046357E0,-6.7658134E-2,5.779035E-2,8.9921445E-2,7.010621E-1,-5.6331757E-2,1.6595865E0,-1.6677316E0,6.0726017E-2,6.0348595E-3,6.673762E-2,1.176427E0,-1.4032319E0,1.6837646E0,-8.6527336E-1,-1.6863801E0,7.670408E-1,-1.4289804E0,1.4056875E0,-2.1421991E-1,-1.0372581E0,-1.157E0,-5.234827E-1,-1.6818029E0,9.722668E-2,-4.8689625E-1,1.6762946E0,-3.0920535E-1,3.5417998E-1,-1.646591E0,7.4713486E-1,-4.6455666E-1,1.6739964E0,-1.6842221E0,8.7208134E-1,9.699234E-1,1.5759269E0,-6.7609504E-2,5.7771035E-2,1.5162224E0,1.687211E0,-6.2186133E-2,4.8119035E-2,-1.6885676E0,-1.5672431E0,5.147848E-2,-2.2241382E-2,-1.1874985E0,-1.6009846E0,6.2047064E-2,6.5109907E-3,-3.075962E-1,6.6276446E-2,-1.1094706E0,1.0197016E0,-1.2212248E0,1.099706E0,-5.9095377E-1,6.8672717E-1,-6.84447E-2,2.4476601E-1,6.300128E-2,1.5905272E0,8.058033E-1,-8.116413E-1,1.6906092E0,-4.2243168E-2,-8.011722E-1,-1.4985721E-1,4.2599535E-1,-8.3383524E-1,-6.656608E-2,-2.1146983E-2,4.1838136E-1,9.557584E-1,8.7165743E-1,-1.1141553E0,-3.021536E-1,1.6791663E0,-1.6904181E0,-7.264265E-1,5.6833066E-2,-3.4292176E-2,-6.617074E-2,1.0095258E0,1.6502113E0,9.362329E-1,1.5336016E0,-5.79747E-2,1.5187987E0,1.6881542E0,-6.7544624E-2,-5.725758E-3,-6.3374534E-2,5.823386E-2,-5.1861957E-2,-1.770615E-2,-6.4966984E-2,3.4689896E-3,-4.4596933E-2,-4.94439E-3,-5.06746E-2,-2.085238E-2,5.5062737E-2,-4.64456E-2,-4.9570125E-2,5.281828E-2,6.614373E-2,-4.3221086E-2,-2.9528465E-2,-3.6363787E-4,-3.9778996E-2,3.562644E-2,4.2125728E-2,-2.6897823E-2,-1.5356758E-2,6.1888653E-3,6.868474E-2,-4.0109966E-2,-3.2206025E-2,5.324377E-2,-4.4680256E-2,2.3408622E-2,-8.363143E-3,6.771361E-2,-4.9158968E-2,3.6305282E-2,-4.039589E-2,-3.7210088E-3,-1.6666744E-2,5.474977E-3,-6.6423826E-2,1.8485779E-2,-4.60567E-2,1.1114718E-2,1.8515237E-2,-7.4515164E-2,5.71503E-3,4.0894378E-2,9.21302E-3,4.4965785E-2,-5.63538E-3,-5.7699006E-2,3.984714E-2,-4.9908638E-2,6.726391E-2,-1.5454267E-2,-6.765457E-2,-2.1930333E-2,-5.3995464E-2,4.4443883E-2,-2.0913153E-3,4.2414214E-2,6.677475E-2,1.933552E-2,4.8781805E-2,-2.952411E-2,4.1337192E-2,6.301636E-2,6.1598375E-2,-2.3838758E-2,6.752746E-2,8.563924E-3],"categories":[],"categories_nodes":[],"categories_segments":[],"categories_sizes":[],"default_left":[0,0,0,0,0,0,0,0,0,0,0,0,0,0,0,0,0,0,0,0,0,0,0,0,0,0,0,0,0,0,0,0,0,0,0,0,0,0,0,0,0,0,0,0,0,0,0,0,0,0,0,0,0,0,0,0,0,0,0,0,0,0,0,0,0,0,0,0,0,0,0,0,0,0,0,0,0,0,0,0,0,0,0,0,0,0,0,0,0,0,0,0,0,0,0,0,0,0,0,0,0,0,0,0,0,0,0,0,0,0,0,0,0,0,0,0,0,0,0,0,0,0,0,0,0,0,0,0,0,0,0,0,0,0,0,0,0,0,0,0,0,0,0,0,0,0,0,0,0,0,0,0,0,0,0,0,0,0,0,0,0,0,0,0,0,0,0,0,0,0,0,0,0,0,0,0,0,0,0,0,0,0,0,0,0,0,0,0,0,0,0,0,0,0,0,0,0,0,0,0,0,0,0,0,0],"id":5,"left_children":[1,3,5,7,9,11,13,15,17,19,21,23,25,27,29,31,33,35,37,39,41,43,-1,45,47,49,51,-1,-1,53,55,57,59,-1,-1,61,-1,-1,-1,63,65,-1,67,-1,-1,69,71,-1,73,75,-1,-1,-1,77,79,81,83,85,87,89,91,93,95,97,99,101,103,105,107,109,111,113,115,117,119,121,123,125,127,-1,-1,129,131,-1,-1,133,135,-1,-1,137,139,-1,-1,141,-1,143,145,147,149,151,153,-1,155,157,159,161,163,165,167,169,171,173,175,-1,-1,177,179,181,183,185,187,189,191,-1,-1,-1,193,195,197,199,-1,201,203,-1,-1,-1,-1,-1,-1,-1,-1,-1,-1,-1,-1,-1,-1,-1,-1,-1,-1,-1,-1,-1,-1,-1,-1,-1,-1,-1,-1,-1,-1,-1,-1,-1,-1,-1,-1,-1,-1,-1,-1,-1,-1,-1,-1,-1,-1,-1,-1,-1,-1,-1,-1,-1,-1,-1,-1,-1,-1,-1,-1,-1,-1,-1,-1,-1,-1,-1,-1,-1,-1,-1,-1],"loss_changes":[3.182073E5,2.4945844E4,1.0503969E4,8.5690625E2,6.615419E3,3.7356055E3,8.837656E2,2.7923438E2,4.3848706E2,3.810568E3,8.36395E2,1.4625032E3,6.504895E2,6.7183365E1,5.5640625E2,8.2140625E1,2.9699448E1,2.3746423E2,4.2245483E0,8.58067E2,3.072671E2,5.944873E1,0E0,4.3736243E2,5.2022705E1,9.01709E1,2.2909393E0,0E0,0E0,4.0334412E2,6.5765625E1,2.9375E1,8.153125E1,0E0,0E0,1.3815369E2,0E0,0E0,0E0,1.4930078E2,5.402256E2,0E0,2.480835E2,0E0,0E0,2.3254477E2,2.717334E2,0E0,3.7787598E1,4.0157227E1,0E0,0E0,0E0,1.1880261E2,5.4276054E1,3.3234375E1,1.692649E1,1.3328125E1,4.398882E0,4.2365967E1,1.64505E0,6.1790813E1,7.412335E1,7.934259E1,9.9894135E1,1.0282928E1,3.8408398E2,2.3922163E1,3.931787E1,6.874076E1,1.1351686E2,7.131958E-2,1.6787085E2,8.722471E0,1.2779541E1,4.220459E0,7.498248E0,1.0186963E2,2.1997803E1,0E0,0E0,6.714746E1,7.09375E0,0E0,0E0,4.203125E0,6.02041E1,0E0,0E0,3.5751343E1,2.4388794E1,0E0,0E0,4.9609207E1,0E0,4.333191E1,1.497481E1,2.5635498E1,2.0405872E1,9.892444E1,2.3103952E1,0E0,3.2977912E0,3.0133203E2,5.6999573E1,1.0913479E1,1.9761805E1,7.0600586E0,1.7071095E1,3.1636627E1,5.0910248E1,9.515935E1,2.7133102E1,0E0,0E0,9.773465E1,8.107153E1,3.0495572E-1,1.857131E0,6.1312413E0,6.6672363E0,5.7861328E-2,1.0269344E1,0E0,0E0,0E0,5.1352295E1,9.08606E0,2.6448116E1,2.4569824E1,0E0,1.650476E1,2.484375E0,0E0,0E0,0E0,0E0,0E0,0E0,0E0,0E0,0E0,0E0,0E0,0E0,0E0,0E0,0E0,0E0,0E0,0E0,0E0,0E0,0E0,0E0,0E0,0E0,0E0,0E0,0E0,0E0,0E0,0E0,0E0,0E0,0E0,0E0,0E0,0E0,0E0,0E0,0E0,0E0,0E0,0E0,0E0,0E0,0E0,0E0,0E0,0E0,0E0,0E0,0E0,0E0,0E0,0E0,0E0,0E0,0E0,0E0,0E0,0E0,0E0,0E0,0E0,0E0,0E0,0E0,0E0,0E0,0E0,0E0,0E0,0E0],"parents":[2147483647,0,0,1,1,2,2,3,3,4,4,5,5,6,6,7,7,8,8,9,9,10,10,11,11,12,12,13,13,14,14,15,15,16,16,17,17,18,18,19,19,20,20,21,21,23,23,24,24,25,25,26,26,29,29,30,30,31,31,32,32,35,35,39,39,40,40,42,42,45,45,46,46,48,48,49,49,53,53,54,54,55,55,56,56,57,57,58,58,59,59,60,60,61,61,62,62,63,63,64,64,65,65,66,66,67,67,68,68,69,69,70,70,71,71,72,72,73,73,74,74,75,75,76,76,77,77,78,78,81,81,82,82,85,85,86,86,89,89,90,90,93,93,95,95,96,96,97,97,98,98,99,99,100,100,102,102,103,103,104,104,105,105,106,106,107,107,108,108,109,109,110,110,111,111,112,112,115,115,116,116,117,117,118,118,119,119,120,120,121,121,122,122,126,126,127,127,128,128,129,129,131,131,132,132],"right_children":[2,4,6,8,10,12,14,16,18,20,22,24,26,28,30,32,34,36,38,40,42,44,-1,46,48,50,52,-1,-1,54,56,58,60,-1,-1,62,-1,-1,-1,64,66,-1,68,-1,-1,70,72,-1,74,76,-1,-1,-1,78,80,82,84,86,88,90,92,94,96,98,100,102,104,106,108,110,112,114,116,118,120,122,124,126,128,-1,-1,130,132,-1,-1,134,136,-1,-1,138,140,-1,-1,142,-1,144,146,148,150,152,154,-1,156,158,160,162,164,166,168,170,172,174,176,-1,-1,178,180,182,184,186,188,190,192,-1,-1,-1,194,196,198,200,-1,202,204,-1,-1,-1,-1,-1,-1,-1,-1,-1,-1,-1,-1,-1,-1,-1,-1,-1,-1,-1,-1,-1,-1,-1,-1,-1,-1,-1,-1,-1,-1,-1,-1,-1,-1,-1,-1,-1,-1,-1,-1,-1,-1,-1,-1,-1,-1,-1,-1,-1,-1,-1,-1,-1,-1,-1,-1,-1,-1,-1,-1,-1,-1,-1,-1,-1,-1,-1,-1,-1,-1,-1,-1],"split_conditions":[1E0,-3.2585084E-2,3.259005E-2,-4.4E1,5.605398E2,4.668401E2,-4.2190132E1,2.1255425E3,8.210475E2,3.09538E2,1.6186552E1,2.7632272E2,1.6186552E1,4.38E2,6.3E1,-9.9E1,6.17E2,4.1303598E2,9.12173E2,-1.2999987E-5,-1.3579074E2,1.274352E3,6.6855125E-2,-1.4906516E-2,-1.3579074E2,1.274352E3,-2.53E2,-6.686109E-2,5.9399325E-2,8.132528E2,2.7344624E3,6.8489655E1,1.6186552E1,6.579058E-2,-5.187122E-2,7E1,-6.750794E-2,6.747506E-2,-8.1572816E-4,0E0,-7.648769E0,-6.621847E-2,-1.3004525E1,-6.7658134E-2,5.779035E-2,-1.6E1,-1.083002E1,-5.6331757E-2,-1.398773E-3,6.739726E-4,6.0726017E-2,6.0348595E-3,6.673762E-2,1.6283127E2,1.1532876E1,1.32E2,3.53E2,-7.317073E-2,2E0,1.1949403E2,4.38E2,1.5232087E0,2.3889044E2,9.883228E1,5.272357E1,2.0073531E-3,1.1019384E3,2.909048E1,5.250278E-2,-2.0895927E1,1E0,7E0,2.1E1,2.650598E0,-3.3E1,8.3E1,1.52E2,-7.648769E0,9.516511E0,-6.7609504E-2,5.7771035E-2,1.0638356E3,5E-2,-6.2186133E-2,4.8119035E-2,9.9450714E1,1.6186552E1,5.147848E-2,-2.2241382E-2,2.3090303E-2,8.210475E2,6.2047064E-2,6.5109907E-3,-9.76E2,6.6276446E-2,1.6E1,7.60181E-3,1.4748275E1,-1.8099548E-2,1.6E1,2E0,-6.84447E-2,5E0,-1.87E2,7.8E1,1.895468E1,5.3499474E1,-3.520362E-2,1.6E1,-3.2335088E-1,-1E0,-1.4588592E1,1.16E2,-6.656608E-2,-2.1146983E-2,1E0,0E0,7E0,-9.120254E-1,5E0,4.916623E1,1E0,-2.222098E-1,5.6833066E-2,-3.4292176E-2,-6.617074E-2,1.3999986E-5,6.28E2,5E0,8E0,-5.79747E-2,3.5E1,1.6E1,-6.7544624E-2,-5.725758E-3,-6.3374534E-2,5.823386E-2,-5.1861957E-2,-1.770615E-2,-6.4966984E-2,3.4689896E-3,-4.4596933E-2,-4.94439E-3,-5.06746E-2,-2.085238E-2,5.5062737E-2,-4.64456E-2,-4.9570125E-2,5.281828E-2,6.614373E-2,-4.3221086E-2,-2.9528465E-2,-3.6363787E-4,-3.9778996E-2,3.562644E-2,4.2125728E-2,-2.6897823E-2,-1.5356758E-2,6.1888653E-3,6.868474E-2,-4.0109966E-2,-3.2206025E-2,5.324377E-2,-4.4680256E-2,2.3408622E-2,-8.363143E-3,6.771361E-2,-4.9158968E-2,3.6305282E-2,-4.039589E-2,-3.7210088E-3,-1.6666744E-2,5.474977E-3,-6.6423826E-2,1.8485779E-2,-4.60567E-2,1.1114718E-2,1.8515237E-2,-7.4515164E-2,5.71503E-3,4.0894378E-2,9.21302E-3,4.4965785E-2,-5.63538E-3,-5.7699006E-2,3.984714E-2,-4.9908638E-2,6.726391E-2,-1.5454267E-2,-6.765457E-2,-2.1930333E-2,-5.3995464E-2,4.4443883E-2,-2.0913153E-3,4.2414214E-2,6.677475E-2,1.933552E-2,4.8781805E-2,-2.952411E-2,4.1337192E-2,6.301636E-2,6.1598375E-2,-2.3838758E-2,6.752746E-2,8.563924E-3],"split_indices":[114,61,61,114,166,166,169,167,167,167,169,167,169,1,114,114,1,166,166,108,169,167,0,127,169,167,59,0,0,166,166,169,169,0,0,11,0,0,0,66,169,0,156,0,0,101,169,0,103,103,0,0,0,167,169,114,0,61,9,166,11,169,167,47,54,103,158,162,148,156,74,3,116,128,139,131,138,169,142,0,0,166,61,0,0,162,169,0,0,111,167,0,0,100,0,56,146,169,149,56,15,0,18,117,46,48,47,150,16,110,76,169,114,0,0,64,66,12,147,3,54,93,108,0,0,0,108,29,40,56,0,25,40,0,0,0,0,0,0,0,0,0,0,0,0,0,0,0,0,0,0,0,0,0,0,0,0,0,0,0,0,0,0,0,0,0,0,0,0,0,0,0,0,0,0,0,0,0,0,0,0,0,0,0,0,0,0,0,0,0,0,0,0,0,0,0,0,0,0,0,0,0,0,0,0],"split_type":[0,0,0,0,0,0,0,0,0,0,0,0,0,0,0,0,0,0,0,0,0,0,0,0,0,0,0,0,0,0,0,0,0,0,0,0,0,0,0,0,0,0,0,0,0,0,0,0,0,0,0,0,0,0,0,0,0,0,0,0,0,0,0,0,0,0,0,0,0,0,0,0,0,0,0,0,0,0,0,0,0,0,0,0,0,0,0,0,0,0,0,0,0,0,0,0,0,0,0,0,0,0,0,0,0,0,0,0,0,0,0,0,0,0,0,0,0,0,0,0,0,0,0,0,0,0,0,0,0,0,0,0,0,0,0,0,0,0,0,0,0,0,0,0,0,0,0,0,0,0,0,0,0,0,0,0,0,0,0,0,0,0,0,0,0,0,0,0,0,0,0,0,0,0,0,0,0,0,0,0,0,0,0,0,0,0,0,0,0,0,0,0,0,0,0,0,0,0,0,0,0,0,0,0,0],"sum_hessian":[1.4796838E5,7.743054E4,7.053784E4,6.362465E4,1.3805887E4,6.9104443E3,6.3627402E4,6.237953E4,1.2451168E3,1.1121678E4,2.6842087E3,5.915605E3,9.948393E2,9.1380486E1,6.353602E4,6.2348984E4,3.054787E1,1.1790753E3,6.604151E1,9.444219E3,1.6774597E3,2.6085269E3,7.5681946E1,4.7026343E3,1.2129706E3,9.3096906E2,6.387021E1,8.482241E1,6.558077E0,1.5200201E3,6.2016E4,6.1274727E4,1.0742567E3,2.7392996E1,3.1548743E0,8.401438E2,3.389315E2,6.458368E1,1.4578276E0,1.7545736E3,7.6896445E3,2.8659584E1,1.6488002E3,2.603179E3,5.347953E0,2.2027488E3,2.4998855E3,4.843153E0,1.2081274E3,9.2272955E2,8.239534E0,1.2229295E0,6.2647278E1,1.4575944E3,6.242588E1,6.200644E4,9.559811E0,6.1270375E4,4.3544316E0,1.0647632E3,9.493486E0,3.497406E2,4.9040317E2,5.3716315E2,1.2174105E3,1.7365736E2,7.5159873E3,5.4427017E1,1.5943732E3,8.7739386E2,1.325355E3,4.7447437E1,2.452438E3,7.9300494E0,1.2001974E3,9.171118E2,5.61772E0,9.631597E2,4.944346E2,5.7079174E1,5.346705E0,1.2586985E3,6.0747742E4,7.3561983E0,2.2036126E0,6.0152715E4,1.1176569E3,3.1456132E0,1.2088184E0,4.4621396E2,6.1854926E2,8.276646E0,1.2168401E0,3.3391275E2,1.582786E1,4.742158E2,1.6187376E1,5.227449E2,1.44182415E1,1.1536068E3,6.380368E1,1.7116475E2,2.492615E0,7.3486045E3,1.6738266E2,1.0630254E1,4.3796764E1,1.5812186E3,1.3154525E1,2.136743E2,6.6371954E2,1.2504093E3,7.494567E1,4.623256E1,1.2148784E0,9.532659E2,1.4991721E3,2.4822536E0,5.447796E0,2.9818172E0,1.1972156E3,9.1045703E2,6.6547794E0,4.3999944E0,1.2177258E0,1.3713041E1,9.4944666E2,4.415768E2,5.285779E1,1.2518451E3,6.853339E0,3.47313E2,6.040043E4,6.0150758E4,1.9568502E0,1.1118362E3,5.8206487E0,3.885821E2,5.7631866E1,6.102024E2,8.346887E0,6.103466E1,2.7287808E2,3.731936E2,1.01022194E2,1.4227944E1,1.959431E0,5.1957196E2,3.1729367E0,1.1689963E1,2.7282777E0,9.2040265E2,2.3320416E2,6.4829235E0,5.7320755E1,1.2461392E0,1.2464759E0,1.2507866E3,6.097818E3,1.5991426E2,7.468394E0,2.4829156E0,8.147338E0,3.6104378E1,7.692389E0,1.7460344E0,1.5794725E3,5.717506E0,7.4370193E0,1.6470244E2,4.8971867E1,3.4356763E2,3.2015195E2,2.0528555E1,1.2298807E3,5.826522E1,1.6680452E1,9.3580865E2,1.7457312E1,1.1376665E2,1.3854055E3,1.2413584E0,1.240895E0,1.734665E0,3.7131307E0,1.2339609E0,1.7478564E0,1.1959937E3,1.2219789E0,9.0922296E2,1.2340547E0,5.16702E0,1.4877598E0,4.3373093E1,9.0607355E2,4.340202E2,7.5566177E0,4.544049E1,7.417303E0,9.854943E1,1.1532957E3,3.4414127E2,3.1717162E0,6.039897E4,1.4619571E0],"tree_param":{"num_deleted":"0","num_feature":"170","num_nodes":"205","size_leaf_vector":"1"}},{"base_weights":[-4.591308E-4,-1.4969034E0,1.3577886E0,-1.626672E0,-3.651455E-1,1.5476738E-1,1.6216812E0,-1.6300986E0,1.4255935E0,-4.15333E-2,-1.5366118E0,4.7083476E-1,-1.5109737E0,-1.4108032E0,1.6265143E0,-1.6398399E0,-1.2420934E0,6.558592E-2,-5.475522E-2,-2.834155E-1,1.4516995E0,-1.6373292E0,6.458792E-2,2.1546948E-1,1.5487834E0,-1.6371721E0,1.6194885E0,-6.527036E-2,5.8183942E-2,1.2107054E0,1.6390288E0,-1.6430683E0,-1.4545851E0,-1.2803872E0,1.5156505E0,-5.763444E-1,1.1091574E-1,-6.4052865E-2,1.5309685E0,-6.579138E-2,5.1739786E-2,-1.5396994E0,2.6099613E-1,-6.424395E-2,1.5957307E0,-1.6462126E0,5.692288E-2,6.518859E-2,1.9697066E-2,1.2653579E0,-1.3261698E0,1.6394145E0,-8.780023E-1,-1.6431092E0,8.8254944E-4,-1.4884458E0,1.0297252E0,-1.0785382E0,-1.6022512E0,5.588634E-3,6.36366E-2,-1.0999635E0,-4.4439104E-1,-1.739809E-1,4.6477953E-1,-2.3193114E-1,1.6228725E0,-1.6415359E0,9.599651E-1,6.713516E-2,5.6880426E-1,6.607472E-2,5.301703E-1,-6.588058E-2,-6.0188607E-3,1.1242697E0,1.6142817E0,-6.524642E-2,5.2646436E-2,1.4118686E0,1.642252E0,-6.0178865E-2,4.5265563E-2,-6.574509E-2,-1.5412956E0,-1.4966216E0,5.6511417E-2,-4.7413714E-2,6.2352743E-2,-1.117561E0,1.2696112E0,4.4763256E-2,-1.6100599E0,-1.4321574E0,-8.74126E-1,-4.6552914E-1,6.535245E-2,1.0949122E0,-2.7601913E-1,9.3915835E-2,6.6495126E-1,8.3586663E-1,-6.9077104E-1,1.6525857E0,2.9538074E-1,-6.671078E-2,3.7776366E-1,6.1177243E-2,9.963894E-3,-6.884341E-1,1.0459535E-1,4.3796223E-1,9.335412E-1,-5.2085674E-1,7.784929E-1,7.04127E-1,1.247746E0,6.8336654E-1,1.6388131E0,1.4308962E0,-1.1640038E0,1.5706217E0,1.6437484E0,-6.251626E-2,6.475188E-3,-6.1198104E-2,-3.5984624E-2,-4.6015527E-2,5.298111E-2,6.753462E-2,-4.4936094E-2,-6.546807E-2,-2.7413804E-2,-5.8339648E-2,4.5974953E-3,-4.7453817E-2,-2.0319806E-2,-2.2789273E-2,-2.4175586E-3,1.9941488E-2,6.951368E-2,-2.6065268E-2,-1.2266153E-3,-8.116228E-3,2.3821864E-2,4.537614E-2,2.1563467E-2,-2.5070677E-2,4.914534E-2,-4.0119432E-2,3.350239E-2,6.554491E-3,6.619821E-2,-3.2651637E-2,5.6416143E-2,-2.6365098E-2,4.639096E-2,-2.5495514E-2,4.052665E-2,-3.788533E-2,-3.6706234E-4,5.8072084E-3,-2.413857E-2,1.9104483E-2,-2.2860419E-2,3.28721E-2,6.278106E-2,-4.1027445E-2,6.0705755E-2,-5.693991E-2,3.5332587E-2,-1.2188746E-2,3.5734735E-2,2.3895944E-2,5.234831E-2,5.606498E-2,-5.2184984E-2,1.863695E-2,6.562812E-2,8.845265E-3,5.8196682E-2,-5.544205E-2,-5.8661965E-3,3.382709E-2,6.375389E-2,6.575058E-2,2.3509596E-2],"categories":[],"categories_nodes":[],"categories_segments":[],"categories_sizes":[],"default_left":[0,0,0,0,0,0,0,0,0,0,0,0,0,0,0,0,0,0,0,0,0,0,0,0,0,0,0,0,0,0,0,0,0,0,0,0,0,0,0,0,0,0,0,0,0,0,0,0,0,0,0,0,0,0,0,0,0,0,0,0,0,0,0,0,0,0,0,0,0,0,0,0,0,0,0,0,0,0,0,0,0,0,0,0,0,0,0,0,0,0,0,0,0,0,0,0,0,0,0,0,0,0,0,0,0,0,0,0,0,0,0,0,0,0,0,0,0,0,0,0,0,0,0,0,0,0,0,0,0,0,0,0,0,0,0,0,0,0,0,0,0,0,0,0,0,0,0,0,0,0,0,0,0,0,0,0,0,0,0,0,0,0,0,0,0,0,0,0,0,0,0,0,0,0,0,0,0,0,0,0,0,0,0,0,0,0,0],"id":6,"left_children":[1,3,5,7,9,11,13,15,17,19,21,23,25,27,29,31,33,-1,-1,35,37,39,-1,41,43,45,47,-1,-1,49,51,53,55,57,59,61,63,-1,65,-1,-1,67,69,-1,71,73,-1,-1,-1,75,77,79,81,83,-1,85,87,89,91,-1,-1,93,95,97,99,101,103,105,107,109,111,-1,113,-1,-1,115,117,-1,-1,119,121,-1,-1,-1,123,125,-1,-1,-1,127,129,-1,131,133,135,137,-1,139,141,143,145,147,149,151,153,-1,155,-1,157,159,161,163,165,167,169,171,173,175,177,179,181,183,185,-1,-1,-1,-1,-1,-1,-1,-1,-1,-1,-1,-1,-1,-1,-1,-1,-1,-1,-1,-1,-1,-1,-1,-1,-1,-1,-1,-1,-1,-1,-1,-1,-1,-1,-1,-1,-1,-1,-1,-1,-1,-1,-1,-1,-1,-1,-1,-1,-1,-1,-1,-1,-1,-1,-1,-1,-1,-1,-1,-1,-1,-1,-1,-1],"loss_changes":[2.9720672E5,1.02173125E4,2.4334188E4,6.551094E2,2.71353E3,7.2611885E3,9.236094E2,2.33625E2,4.4430603E1,2.0265396E3,4.943872E2,3.1905598E3,8.7162305E2,6.604358E1,3.2459375E2,3.396875E1,1.6362769E2,0E0,0E0,5.57806E2,1.91745E2,3.494336E1,0E0,7.4935785E2,3.313711E2,6.0851074E1,1.8569946E-1,0E0,0E0,2.5645166E2,6.0609375E1,4.109375E0,8.989307E1,9.641504E1,1.9966774E0,1.9094171E2,2.0764458E2,0E0,1.2397766E2,0E0,0E0,6.1935608E1,5.45169E2,0E0,1.3000146E2,2.2822266E0,0E0,0E0,0E0,8.6764404E1,3.377038E1,3.7015625E1,1.4276272E1,6.25E-1,0E0,2.6705078E1,1.909385E1,8.6770874E1,1.4130493E1,0E0,0E0,4.0534485E1,9.804709E1,1.480738E2,6.8127945E1,1.9526346E1,2.8116943E1,1.2718811E1,5.3476334E0,1.587753E2,1.680813E2,0E0,2.9368437E1,0E0,0E0,6.5760864E1,1.0658936E1,0E0,0E0,3.878711E1,3.875E0,0E0,0E0,0E0,1.1982422E1,1.9204102E1,0E0,0E0,0E0,7.50188E1,1.7624237E1,0E0,1.3140747E1,9.287445E0,3.759395E1,9.253961E1,0E0,3.178199E1,9.74057E1,4.8237236E1,3.4628204E1,7.7077637E0,1.4009317E1,2.2301025E0,2.2340828E1,0E0,3.798662E0,0E0,3.712206E0,4.6557213E1,1.53631E2,1.0435248E2,6.488928E1,2.3998407E1,2.2068867E1,5.6413773E1,3.8526978E1,2.3187313E1,3.479004E-1,2.1539673E1,1.1758718E0,1.9759277E1,1.5625E-2,0E0,0E0,0E0,0E0,0E0,0E0,0E0,0E0,0E0,0E0,0E0,0E0,0E0,0E0,0E0,0E0,0E0,0E0,0E0,0E0,0E0,0E0,0E0,0E0,0E0,0E0,0E0,0E0,0E0,0E0,0E0,0E0,0E0,0E0,0E0,0E0,0E0,0E0,0E0,0E0,0E0,0E0,0E0,0E0,0E0,0E0,0E0,0E0,0E0,0E0,0E0,0E0,0E0,0E0,0E0,0E0,0E0,0E0,0E0,0E0,0E0,0E0,0E0,0E0],"parents":[2147483647,0,0,1,1,2,2,3,3,4,4,5,5,6,6,7,7,8,8,9,9,10,10,11,11,12,12,13,13,14,14,15,15,16,16,19,19,20,20,21,21,23,23,24,24,25,25,26,26,29,29,30,30,31,31,32,32,33,33,34,34,35,35,36,36,38,38,41,41,42,42,44,44,45,45,49,49,50,50,51,51,52,52,53,53,55,55,56,56,57,57,58,58,61,61,62,62,63,63,64,64,65,65,66,66,67,67,68,68,69,69,70,70,72,72,75,75,76,76,79,79,80,80,84,84,85,85,89,89,90,90,92,92,93,93,94,94,95,95,97,97,98,98,99,99,100,100,101,101,102,102,103,103,104,104,106,106,108,108,109,109,110,110,111,111,112,112,113,113,114,114,115,115,116,116,117,117,118,118,119,119,120,120,121,121,122,122],"right_children":[2,4,6,8,10,12,14,16,18,20,22,24,26,28,30,32,34,-1,-1,36,38,40,-1,42,44,46,48,-1,-1,50,52,54,56,58,60,62,64,-1,66,-1,-1,68,70,-1,72,74,-1,-1,-1,76,78,80,82,84,-1,86,88,90,92,-1,-1,94,96,98,100,102,104,106,108,110,112,-1,114,-1,-1,116,118,-1,-1,120,122,-1,-1,-1,124,126,-1,-1,-1,128,130,-1,132,134,136,138,-1,140,142,144,146,148,150,152,154,-1,156,-1,158,160,162,164,166,168,170,172,174,176,178,180,182,184,186,-1,-1,-1,-1,-1,-1,-1,-1,-1,-1,-1,-1,-1,-1,-1,-1,-1,-1,-1,-1,-1,-1,-1,-1,-1,-1,-1,-1,-1,-1,-1,-1,-1,-1,-1,-1,-1,-1,-1,-1,-1,-1,-1,-1,-1,-1,-1,-1,-1,-1,-1,-1,-1,-1,-1,-1,-1,-1,-1,-1,-1,-1,-1,-1],"split_conditions":[-1E0,-3.2580965E0,3.0910425E0,2.0138352E3,4.7585278E2,5.605398E2,-4.2190132E1,-8.5E1,6.56E2,3.09538E2,1.6186552E1,2.2134094E2,1.6186552E1,7.4E2,8.5E1,-6.382979E-2,1.6186552E1,6.558592E-2,-5.475522E-2,2.5534702E-2,-1.689473E4,1.274352E3,6.458792E-2,-5.523601E0,-6.4389145E1,1.274352E3,1E0,-6.527036E-2,5.8183942E-2,1.0638356E3,2.7344624E3,6.8489655E1,1.1532876E1,2.3489487E2,-4.75E-1,-9.9E1,4E0,-6.4052865E-2,-1.3004525E1,-6.579138E-2,5.1739786E-2,3.9819004E-3,1E0,-6.424395E-2,3.9E1,2.5483454E1,5.692288E-2,6.518859E-2,1.9697066E-2,2.791575E2,8.395108E3,5E-2,3.53E2,-1.16E2,8.8254944E-4,3.4950823E-3,2.1283853E3,4.8546255E2,2.5241923E0,5.588634E-3,6.36366E-2,0E0,1.4317647E1,0E0,-6.3E1,-3.7037695E-4,7.8E1,3.2430523E1,2.2765957E-1,-3.5553482E0,1.9459102E0,6.607472E-2,-3.2580965E0,-6.588058E-2,-6.0188607E-3,0E0,-3.3E1,-6.524642E-2,5.2646436E-2,1.0638356E3,9.2119865E-2,-6.0178865E-2,4.5265563E-2,-6.574509E-2,1.2382871E3,2E0,5.6511417E-2,-4.7413714E-2,6.2352743E-2,2.7E1,2.4E1,4.4763256E-2,-1.3159912E0,3E0,-1E-1,1E0,6.535245E-2,3.6734867E-1,-2.0895927E1,2.3E1,-4.0337812E-2,-1.7E1,9.803922E-2,-2.797285E-1,1.7E1,-6.671078E-2,1.4E1,6.1177243E-2,3.0848217E1,-2E1,4.823335E0,1E0,1.1764706E-1,4.7553225E0,1.228761E1,-1.7104072E-2,8E0,-1.3333334E-2,-3.9018125E-3,-4.162896E-2,-2.895202E0,7.18E-1,1.6E1,-6.251626E-2,6.475188E-3,-6.1198104E-2,-3.5984624E-2,-4.6015527E-2,5.298111E-2,6.753462E-2,-4.4936094E-2,-6.546807E-2,-2.7413804E-2,-5.8339648E-2,4.5974953E-3,-4.7453817E-2,-2.0319806E-2,-2.2789273E-2,-2.4175586E-3,1.9941488E-2,6.951368E-2,-2.6065268E-2,-1.2266153E-3,-8.116228E-3,2.3821864E-2,4.537614E-2,2.1563467E-2,-2.5070677E-2,4.914534E-2,-4.0119432E-2,3.350239E-2,6.554491E-3,6.619821E-2,-3.2651637E-2,5.6416143E-2,-2.6365098E-2,4.639096E-2,-2.5495514E-2,4.052665E-2,-3.788533E-2,-3.6706234E-4,5.8072084E-3,-2.413857E-2,1.9104483E-2,-2.2860419E-2,3.28721E-2,6.278106E-2,-4.1027445E-2,6.0705755E-2,-5.693991E-2,3.5332587E-2,-1.2188746E-2,3.5734735E-2,2.3895944E-2,5.234831E-2,5.606498E-2,-5.2184984E-2,1.863695E-2,6.562812E-2,8.845265E-3,5.8196682E-2,-5.544205E-2,-5.8661965E-3,3.382709E-2,6.375389E-2,6.575058E-2,2.3509596E-2],"split_indices":[114,120,120,167,166,166,169,114,1,167,169,167,169,1,114,61,169,0,0,127,159,167,0,169,169,167,74,0,0,166,166,169,169,166,107,114,117,0,156,0,0,146,101,0,46,85,0,0,0,167,159,61,0,114,0,151,159,167,137,0,0,72,169,74,114,152,46,161,106,120,120,0,120,0,0,72,139,0,0,166,61,0,0,0,159,32,0,0,0,16,55,0,108,66,102,72,0,88,156,71,135,168,80,147,16,0,34,0,53,71,137,64,70,137,52,146,56,70,154,146,169,91,40,0,0,0,0,0,0,0,0,0,0,0,0,0,0,0,0,0,0,0,0,0,0,0,0,0,0,0,0,0,0,0,0,0,0,0,0,0,0,0,0,0,0,0,0,0,0,0,0,0,0,0,0,0,0,0,0,0,0,0,0,0,0,0,0],"split_type":[0,0,0,0,0,0,0,0,0,0,0,0,0,0,0,0,0,0,0,0,0,0,0,0,0,0,0,0,0,0,0,0,0,0,0,0,0,0,0,0,0,0,0,0,0,0,0,0,0,0,0,0,0,0,0,0,0,0,0,0,0,0,0,0,0,0,0,0,0,0,0,0,0,0,0,0,0,0,0,0,0,0,0,0,0,0,0,0,0,0,0,0,0,0,0,0,0,0,0,0,0,0,0,0,0,0,0,0,0,0,0,0,0,0,0,0,0,0,0,0,0,0,0,0,0,0,0,0,0,0,0,0,0,0,0,0,0,0,0,0,0,0,0,0,0,0,0,0,0,0,0,0,0,0,0,0,0,0,0,0,0,0,0,0,0,0,0,0,0,0,0,0,0,0,0,0,0,0,0,0,0,0,0,0,0,0,0],"sum_hessian":[1.4622216E5,6.9571695E4,7.665045E4,6.241472E4,7.156974E3,1.3789435E4,6.286102E4,6.2345195E4,6.952529E1,5.6086465E3,1.5483274E3,1.1590839E4,2.1985957E3,9.956435E1,6.2761457E4,6.081513E4,1.5300664E3,6.496247E1,4.562823E0,4.827475E3,7.8117126E2,1.5008403E3,4.748715E1,9.371854E3,2.2189854E3,2.1138567E3,8.473901E1,9.283613E1,6.7282124E0,1.8365768E3,6.092488E4,5.9765723E4,1.0494043E3,1.5096394E3,2.0426968E1,2.7696096E3,2.0578655E3,1.9283213E1,7.61888E2,1.4974698E3,3.3704188E0,2.3611702E2,9.135736E3,3.204919E1,2.1869363E3,2.1080913E3,5.765524E0,8.353508E1,1.2039281E0,1.798336E3,3.8240677E1,6.0915895E4,8.987261E0,5.9764273E4,1.4510705E0,1.0356888E3,1.3715393E1,9.304695E2,5.791699E2,1.2075595E0,1.921941E1,5.5598926E2,2.2136204E3,1.1403085E3,9.1755707E2,3.7675423E1,7.242126E2,2.2720401E2,8.913011E0,5.6061436E3,3.5295925E3,2.0769644E3,1.0997182E2,2.1068604E3,1.2307663E0,1.2835514E3,5.1478467E2,3.462659E1,3.6140876E0,7.5639124E2,6.01595E4,7.0430803E0,1.9441801E0,5.9446594E4,3.1767712E2,1.0332612E3,2.4276707E0,2.4052794E0,1.1310114E1,9.157747E2,1.46948E1,1.2499361E0,5.7792E2,2.2284929E2,3.3313995E2,2.1920999E3,2.1520578E1,8.4148766E1,1.0561598E3,3.22157E2,5.954E2,1.1076604E1,2.6598818E1,7.081179E2,1.609468E1,2.2446202E2,2.7419827E0,5.1912546E0,3.721756E0,2.6399548E2,5.3421484E3,2.5993342E3,9.302583E2,2.0807295E1,8.916452E1,2.9306503E2,9.904864E2,1.3958236E1,5.0082645E2,7.5128613E2,5.1051154E0,1.2525995E3,5.8906902E4,3.1377814E2,3.8990023E0,9.7714435E2,5.6116898E1,9.041498E2,1.1624886E1,1.2756923E1,1.9378779E0,5.609873E2,1.6932684E1,2.1917587E2,3.6734178E0,1.7859886E2,1.5454108E2,1.743267E3,4.488329E2,4.4575977E1,3.957279E1,4.1665137E2,6.3950836E2,2.0277052E2,1.1938648E2,1.2418803E2,4.71212E2,2.218671E0,8.857932E0,2.2372246E1,4.226573E0,1.2366965E0,7.068812E2,8.193611E0,7.901069E0,1.2464348E0,1.4955479E0,2.4837046E0,1.2380513E0,1.9089693E2,7.3098564E1,5.0532964E3,2.8885202E2,2.5016038E3,9.7730606E1,7.931915E2,1.3706677E2,1.7075447E1,3.7318475E0,3.4800022E0,8.5684525E1,4.61941E1,2.4687093E2,8.581385E1,9.0467255E2,1.0470291E1,3.4879444E0,1.2039324E0,4.9962253E2,1.4825723E1,7.364604E2,3.8930094E0,1.2121061E0,4.0045902E1,1.2125536E3,5.8905457E4,1.4470646E0],"tree_param":{"num_deleted":"0","num_feature":"170","num_nodes":"187","size_leaf_vector":"1"}},{"base_weights":[-9.7524215E-5,-1.3233405E0,1.455888E0,-1.5758377E0,-1.1816099E-1,3.1302553E-1,1.581369E0,-1.596015E0,-1.0380446E0,-1.5045112E0,1.860053E-1,-1.4350079E0,5.739157E-1,-1.3683301E0,1.5861076E0,-1.5968795E0,1.1382755E0,-1.1214006E0,1.5680697E0,-7.269321E-1,-1.5697534E0,-2.607947E-3,1.386523E0,-2.0570578E-1,-1.5518569E0,4.015791E-1,1.4512542E0,-6.362598E-2,5.7029545E-2,1.1762716E0,1.5982779E0,-1.6009252E0,-1.3248255E0,6.079923E-2,-4.602874E-2,-9.621345E-1,-1.5918838E0,6.36574E-2,4.6597114E-3,-2.3709728E-1,-1.5672022E0,-1.5883652E0,5.4708225E-1,-4.7450644E-1,9.921526E-2,-6.428051E-2,1.5689743E0,4.864395E-1,-1.5187894E0,5.3673252E-2,-1.5834134E0,7.752982E-2,6.8472314E-1,-6.359417E-2,1.5981301E0,-1.1715281E0,1.208863E0,1.3658562E0,1.6011555E0,-6.410426E-2,-1.4941194E0,-1.3607457E0,1.1668496E0,-1.2326751E0,-7.6608104E-1,-1.5986397E0,-4.2028227E-1,5.969932E-1,-1.5333494E0,-6.317393E-2,-1.9243957E-2,5.5174157E-2,-1.5968401E0,6.0530476E-2,-5.509278E-2,-8.7993467E-1,-2.920771E-1,-3.1970736E-1,1.8036172E-1,-9.957716E-1,1.5840625E0,9.664708E-1,-1.2815713E0,-6.18676E-2,-1.9688992E-2,-1.5928849E0,4.5322366E-2,-8.7607276E-1,1.7068401E-1,5.502036E-1,1.0118409E0,1.6083343E0,-4.737417E-2,4.96567E-2,-6.279204E-2,1.1085445E0,1.5947315E0,-4.287057E-1,1.3887683E0,1.4576002E0,1.6020799E0,-1.517276E0,3.2233775E-1,-1.2322496E0,-6.412077E-2,-3.9535858E-2,6.0607918E-2,-1.3925049E0,-6.342612E-1,-9.237311E-1,-1.527611E-1,-6.410798E-2,-7.592176E-1,-4.5192145E-2,3.4684937E-2,-4.9988186E-1,6.348997E-2,-6.26992E-2,-5.2281944E-3,-6.427607E-2,-1.2776287E0,-9.458073E-1,1.585036E-1,4.19377E-1,-3.852788E-1,-8.869496E-2,-6.8779665E-1,1.21078186E-1,6.448802E-1,3.3505343E-2,-6.295597E-2,1.6074543E0,4.2679235E-2,-2.2776714E-1,6.277342E-2,-5.967512E-2,1.0919263E-2,-6.398026E-2,2.1772718E-3,-1.5670615E-1,-1.1854382E0,-9.244322E-3,5.438847E-1,-5.040279E-1,5.865184E-1,-1.8338572E-2,1.0661703E0,1.6166787E0,-8.108061E-1,7.5851035E-1,1.2226825E0,1.6070315E0,-1.714118E-2,-5.372343E-2,4.9639802E-2,4.3044227E-1,1.409589E0,-5.4567073E-2,1.4859276E0,1.5510299E0,6.411893E-2,-6.1183408E-2,3.1621855E-2,-5.350292E-2,5.6603994E-2,-5.2204616E-2,-2.4356274E-2,-2.9680496E-2,-5.8125813E-2,-3.170785E-2,5.2952122E-2,-3.8029384E-2,7.753654E-2,-3.1112649E-2,3.174668E-2,-4.573947E-2,7.318846E-3,4.8847266E-2,-6.1250262E-2,-6.36035E-2,5.666616E-2,-5.0402872E-2,-3.0488359E-2,-5.8968615E-2,1.730283E-2,-1.7227415E-2,3.2551672E-2,-3.0831777E-2,-1.0742192E-2,-6.2591927E-3,4.902573E-2,-2.9485704E-2,4.156769E-2,1.48269E-2,6.7006185E-4,2.1783583E-2,4.6846975E-2,-2.5648197E-2,6.44E-2,5.8559734E-2,-5.8706168E-2,-5.7118643E-2,5.65004E-2,-3.985708E-2,3.9963603E-2,2.2878896E-2,-2.8150687E-2,-5.7488102E-2,-2.467413E-2,2.4246604E-3,-4.865896E-2,-1.2198309E-2,2.5248086E-2,-5.8182497E-2,3.198128E-2,2.4368802E-2,-4.6234936E-2,4.572122E-2,-3.2185655E-2,-9.551522E-3,4.392814E-2,6.473377E-2,8.485602E-3,-4.0896483E-2,-7.1847783E-3,-1.4248321E-2,3.438863E-2,2.1027267E-2,5.1424716E-2,6.4457566E-2,6.130903E-3,3.9964925E-2,-6.785045E-2,5.8182344E-2,3.991549E-2,6.1415017E-2,-1.1018375E-2,1.4372482E-2,6.2258106E-2],"categories":[],"categories_nodes":[],"categories_segments":[],"categories_sizes":[],"default_left":[0,0,0,0,0,0,0,0,0,0,0,0,0,0,0,0,0,0,0,0,0,0,0,0,0,0,0,0,0,0,0,0,0,0,0,0,0,0,0,0,0,0,0,0,0,0,0,0,0,0,0,0,0,0,0,0,0,0,0,0,0,0,0,0,0,0,0,0,0,0,0,0,0,0,0,0,0,0,0,0,0,0,0,0,0,0,0,0,0,0,0,0,0,0,0,0,0,0,0,0,0,0,0,0,0,0,0,0,0,0,0,0,0,0,0,0,0,0,0,0,0,0,0,0,0,0,0,0,0,0,0,0,0,0,0,0,0,0,0,0,0,0,0,0,0,0,0,0,0,0,0,0,0,0,0,0,0,0,0,0,0,0,0,0,0,0,0,0,0,0,0,0,0,0,0,0,0,0,0,0,0,0,0,0,0,0,0,0,0,0,0,0,0,0,0,0,0,0,0,0,0,0,0,0,0,0,0,0,0,0,0,0,0,0,0,0,0,0,0,0,0,0,0,0,0,0,0,0,0,0,0,0,0,0,0,0,0,0,0],"id":7,"left_children":[1,3,5,7,9,11,13,15,17,19,21,23,25,27,29,31,33,35,37,39,41,43,45,47,49,51,53,-1,-1,55,57,59,61,-1,-1,63,65,-1,-1,67,69,71,73,75,77,-1,79,81,83,-1,85,87,89,-1,91,93,95,97,99,-1,101,103,105,107,109,111,113,115,117,-1,-1,-1,119,-1,-1,121,123,125,127,129,131,133,135,-1,-1,137,-1,139,141,143,145,147,-1,-1,-1,149,151,153,155,157,159,161,163,165,-1,-1,-1,167,169,171,173,-1,175,-1,-1,177,-1,-1,-1,-1,179,181,183,185,187,189,191,193,195,-1,-1,197,199,201,-1,-1,-1,-1,203,205,207,209,211,213,215,217,219,221,223,225,227,229,-1,-1,-1,231,233,-1,235,237,-1,-1,-1,-1,-1,-1,-1,-1,-1,-1,-1,-1,-1,-1,-1,-1,-1,-1,-1,-1,-1,-1,-1,-1,-1,-1,-1,-1,-1,-1,-1,-1,-1,-1,-1,-1,-1,-1,-1,-1,-1,-1,-1,-1,-1,-1,-1,-1,-1,-1,-1,-1,-1,-1,-1,-1,-1,-1,-1,-1,-1,-1,-1,-1,-1,-1,-1,-1,-1,-1,-1,-1,-1,-1,-1,-1,-1,-1,-1],"loss_changes":[2.779508E5,2.2998969E4,9.85E3,6.764219E2,5.521298E3,3.1004863E3,8.672656E2,1.4417188E2,4.9325806E2,1.18373535E2,2.431454E3,1.26511475E2,8.937324E2,6.426523E1,3.0632812E2,6.415625E1,1.8891071E1,1.6279297E2,2.207077E0,7.545493E1,8.64668E1,4.4600323E2,7.988374E2,7.144316E1,7.5739624E1,4.5367743E2,4.361311E2,0E0,0E0,1.3806885E2,3.7953125E1,8.25E0,8.106763E1,0E0,0E0,8.6089355E1,3.7060547E0,0E0,0E0,1.2802043E2,1.3279724E-1,5.6376953E1,3.8674965E1,1.2158484E2,2.595918E2,0E0,5.4775635E1,4.511681E1,1.473999E-2,0E0,2.2334839E1,2.0509679E2,1.1556995E2,0E0,2.8211182E1,2.5935139E1,6.643579E1,3.1051025E1,5.53125E0,0E0,3.9780518E1,2.5291504E1,1.1376579E1,6.490393E1,9.210748E1,6.558838E-1,5.1154575E0,7.927235E1,2.0120392E0,0E0,0E0,0E0,4.845703E0,0E0,0E0,3.5085968E1,7.559646E1,1.0531595E2,1.76069E2,1.0491265E1,4.92229E1,3.0042126E1,4.15707E0,0E0,0E0,8.406372E0,0E0,4.554364E1,1.411966E2,7.197168E1,4.299292E1,1.9953613E1,0E0,0E0,0E0,5.5071777E1,9.679382E0,1.7089682E1,1.3991089E1,3.322351E1,2.03125E-1,2.7416016E1,2.4717125E1,2.5396973E1,0E0,0E0,0E0,2.0301758E1,4.659792E1,6.0487366E1,1.1673551E2,0E0,1.8548143E0,0E0,0E0,6.4069695E1,0E0,0E0,0E0,0E0,6.16239E1,2.6758118E1,1.4653278E1,4.469036E1,4.5079132E1,6.812841E1,4.1475784E1,1.4773389E2,3.7561523E1,0E0,0E0,8.741211E0,4.82243E1,3.096564E1,0E0,0E0,0E0,0E0,5.2639627E0,2.5494759E1,1.9660568E1,1.1980494E2,5.088907E1,7.907833E1,7.2312256E1,3.694237E1,3.0751099E1,1.810791E0,3.2931852E-1,3.9486526E1,4.561853E1,2.0551758E0,0E0,0E0,0E0,2.2250645E1,1.1797119E1,0E0,3.411908E1,6.184326E0,0E0,0E0,0E0,0E0,0E0,0E0,0E0,0E0,0E0,0E0,0E0,0E0,0E0,0E0,0E0,0E0,0E0,0E0,0E0,0E0,0E0,0E0,0E0,0E0,0E0,0E0,0E0,0E0,0E0,0E0,0E0,0E0,0E0,0E0,0E0,0E0,0E0,0E0,0E0,0E0,0E0,0E0,0E0,0E0,0E0,0E0,0E0,0E0,0E0,0E0,0E0,0E0,0E0,0E0,0E0,0E0,0E0,0E0,0E0,0E0,0E0,0E0,0E0,0E0,0E0,0E0,0E0,0E0,0E0,0E0,0E0,0E0,0E0,0E0,0E0,0E0,0E0,0E0,0E0],"parents":[2147483647,0,0,1,1,2,2,3,3,4,4,5,5,6,6,7,7,8,8,9,9,10,10,11,11,12,12,13,13,14,14,15,15,16,16,17,17,18,18,19,19,20,20,21,21,22,22,23,23,24,24,25,25,26,26,29,29,30,30,31,31,32,32,35,35,36,36,39,39,40,40,41,41,42,42,43,43,44,44,46,46,47,47,48,48,50,50,51,51,52,52,54,54,55,55,56,56,57,57,58,58,60,60,61,61,62,62,63,63,64,64,65,65,66,66,67,67,68,68,72,72,75,75,76,76,77,77,78,78,79,79,80,80,81,81,82,82,85,85,87,87,88,88,89,89,90,90,91,91,95,95,96,96,97,97,98,98,99,99,100,100,101,101,102,102,103,103,107,107,108,108,109,109,110,110,112,112,115,115,120,120,121,121,122,122,123,123,124,124,125,125,126,126,127,127,128,128,131,131,132,132,133,133,138,138,139,139,140,140,141,141,142,142,143,143,144,144,145,145,146,146,147,147,148,148,149,149,150,150,151,151,155,155,156,156,158,158,159,159],"right_children":[2,4,6,8,10,12,14,16,18,20,22,24,26,28,30,32,34,36,38,40,42,44,46,48,50,52,54,-1,-1,56,58,60,62,-1,-1,64,66,-1,-1,68,70,72,74,76,78,-1,80,82,84,-1,86,88,90,-1,92,94,96,98,100,-1,102,104,106,108,110,112,114,116,118,-1,-1,-1,120,-1,-1,122,124,126,128,130,132,134,136,-1,-1,138,-1,140,142,144,146,148,-1,-1,-1,150,152,154,156,158,160,162,164,166,-1,-1,-1,168,170,172,174,-1,176,-1,-1,178,-1,-1,-1,-1,180,182,184,186,188,190,192,194,196,-1,-1,198,200,202,-1,-1,-1,-1,204,206,208,210,212,214,216,218,220,222,224,226,228,230,-1,-1,-1,232,234,-1,236,238,-1,-1,-1,-1,-1,-1,-1,-1,-1,-1,-1,-1,-1,-1,-1,-1,-1,-1,-1,-1,-1,-1,-1,-1,-1,-1,-1,-1,-1,-1,-1,-1,-1,-1,-1,-1,-1,-1,-1,-1,-1,-1,-1,-1,-1,-1,-1,-1,-1,-1,-1,-1,-1,-1,-1,-1,-1,-1,-1,-1,-1,-1,-1,-1,-1,-1,-1,-1,-1,-1,-1,-1,-1,-1,-1,-1,-1,-1,-1],"split_conditions":[1E0,-2.7725887E0,3.0910425E0,-8.5E1,-1.064883E3,-1.3024708E3,-4.2190132E1,5.719113E1,1.6186552E1,5.2174335E2,7.419951E2,5.2174335E2,9.315706E2,7.4E2,8.5E1,-5E-2,4.81E2,5.2174335E2,4.95E2,-5.862315E0,7.053451E0,-6.931472E-1,-4.051703E1,-5.862315E0,-4.5E1,-7.968128E-3,-4.051703E1,-6.362598E-2,5.7029545E-2,-2.6219873E3,5E-2,-8.196721E-2,1.1532876E1,6.079923E-2,-4.602874E-2,-3.713572E0,4E1,6.36574E-2,4.6597114E-3,5.1146173E0,5E0,-4.5E1,1.2338954E1,-3.6E1,-5.882353E-2,-6.428051E-2,-1.1493213E-2,1.3136098E1,7.9E1,5.3673252E-2,1.1532876E1,-4.0253515E0,9.6E2,-6.359417E-2,2.143982E0,1.9651606E1,7.9665656E2,-2.6219873E3,1.16E2,-6.410426E-2,7.010121E1,2.7953702E2,9.315706E2,1.8E1,1.6E1,4.7E1,1.615064E1,3.507887E0,3.67E2,-6.317393E-2,-1.9243957E-2,5.5174157E-2,5.2429176E4,6.0530476E-2,-5.509278E-2,2E0,-7.105882E-1,2.8444475E1,1.1111111E-1,8E0,4.4E1,-7E0,5.3E2,-6.18676E-2,-1.9688992E-2,2.8E1,4.5322366E-2,1.94E2,7.4E1,8E1,8.3E1,4.4E1,-4.737417E-2,4.96567E-2,-6.279204E-2,0E0,2E0,3.09E2,-4.162896E-2,-3.5219065E3,9.2119865E-2,1.8E1,6E0,5.261237E-1,-6.412077E-2,-3.9535858E-2,6.0607918E-2,2.72107E0,2.0055944E1,2.8E1,6E0,-6.410798E-2,1.1E1,-4.5192145E-2,3.4684937E-2,3.657552E2,6.348997E-2,-6.26992E-2,-5.2281944E-3,-6.427607E-2,-2.6917262E4,-5.882353E-2,2.1691214E-1,2E0,-3.2243513E-2,4.0253515E0,1E0,3.8302376E1,2E1,3.3505343E-2,-6.295597E-2,-6.150164E-4,6.31E2,2.0963892E1,6.277342E-2,-5.967512E-2,1.0919263E-2,-6.398026E-2,7E0,6E0,-6.1E1,1E0,-2.914932E1,2.2E1,4.986448E0,7E0,-3.8602943E1,1.7085936E-3,1.56E2,-3.3E1,8E0,4.4E1,-1.714118E-2,-5.372343E-2,4.9639802E-2,1.1E1,1E0,-5.4567073E-2,1.54E2,-7.218425E3,6.411893E-2,-6.1183408E-2,3.1621855E-2,-5.350292E-2,5.6603994E-2,-5.2204616E-2,-2.4356274E-2,-2.9680496E-2,-5.8125813E-2,-3.170785E-2,5.2952122E-2,-3.8029384E-2,7.753654E-2,-3.1112649E-2,3.174668E-2,-4.573947E-2,7.318846E-3,4.8847266E-2,-6.1250262E-2,-6.36035E-2,5.666616E-2,-5.0402872E-2,-3.0488359E-2,-5.8968615E-2,1.730283E-2,-1.7227415E-2,3.2551672E-2,-3.0831777E-2,-1.0742192E-2,-6.2591927E-3,4.902573E-2,-2.9485704E-2,4.156769E-2,1.48269E-2,6.7006185E-4,2.1783583E-2,4.6846975E-2,-2.5648197E-2,6.44E-2,5.8559734E-2,-5.8706168E-2,-5.7118643E-2,5.65004E-2,-3.985708E-2,3.9963603E-2,2.2878896E-2,-2.8150687E-2,-5.7488102E-2,-2.467413E-2,2.4246604E-3,-4.865896E-2,-1.2198309E-2,2.5248086E-2,-5.8182497E-2,3.198128E-2,2.4368802E-2,-4.6234936E-2,4.572122E-2,-3.2185655E-2,-9.551522E-3,4.392814E-2,6.473377E-2,8.485602E-3,-4.0896483E-2,-7.1847783E-3,-1.4248321E-2,3.438863E-2,2.1027267E-2,5.1424716E-2,6.4457566E-2,6.130903E-3,3.9964925E-2,-6.785045E-2,5.8182344E-2,3.991549E-2,6.1415017E-2,-1.1018375E-2,1.4372482E-2,6.2258106E-2],"split_indices":[114,120,120,114,159,159,169,169,169,160,159,160,159,1,114,61,0,160,0,169,169,120,169,169,168,61,169,0,0,159,61,61,169,0,0,120,24,0,0,88,28,168,50,114,80,0,149,50,59,0,169,120,96,0,148,162,159,159,114,0,49,160,159,42,56,42,49,88,1,0,0,0,157,0,0,32,148,48,80,30,168,165,20,0,0,16,0,11,114,38,38,168,0,0,0,76,7,10,146,159,61,39,12,136,0,0,0,137,142,55,21,0,27,0,0,160,0,0,0,0,159,80,136,40,111,120,32,162,71,0,0,152,38,48,0,0,0,0,2,36,71,74,156,15,137,12,156,154,1,139,56,168,0,0,0,39,64,0,46,159,0,0,0,0,0,0,0,0,0,0,0,0,0,0,0,0,0,0,0,0,0,0,0,0,0,0,0,0,0,0,0,0,0,0,0,0,0,0,0,0,0,0,0,0,0,0,0,0,0,0,0,0,0,0,0,0,0,0,0,0,0,0,0,0,0,0,0,0,0,0,0,0,0,0,0,0,0,0,0],"split_type":[0,0,0,0,0,0,0,0,0,0,0,0,0,0,0,0,0,0,0,0,0,0,0,0,0,0,0,0,0,0,0,0,0,0,0,0,0,0,0,0,0,0,0,0,0,0,0,0,0,0,0,0,0,0,0,0,0,0,0,0,0,0,0,0,0,0,0,0,0,0,0,0,0,0,0,0,0,0,0,0,0,0,0,0,0,0,0,0,0,0,0,0,0,0,0,0,0,0,0,0,0,0,0,0,0,0,0,0,0,0,0,0,0,0,0,0,0,0,0,0,0,0,0,0,0,0,0,0,0,0,0,0,0,0,0,0,0,0,0,0,0,0,0,0,0,0,0,0,0,0,0,0,0,0,0,0,0,0,0,0,0,0,0,0,0,0,0,0,0,0,0,0,0,0,0,0,0,0,0,0,0,0,0,0,0,0,0,0,0,0,0,0,0,0,0,0,0,0,0,0,0,0,0,0,0,0,0,0,0,0,0,0,0,0,0,0,0,0,0,0,0,0,0,0,0,0,0,0,0,0,0,0,0,0,0,0,0,0,0],"sum_hessian":[1.4426639E5,7.557849E4,6.868789E4,6.2486617E4,1.3091879E4,6.79584E3,6.1892055E4,6.0225094E4,2.2615222E3,2.354847E3,1.0737032E4,8.819617E2,5.913878E3,9.8806625E1,6.179325E4,6.0206473E4,1.8619528E1,2.191982E3,6.954037E1,1.8322662E2,2.1716204E3,9.280043E3,1.4569889E3,7.679587E1,8.0516583E2,4.9441504E3,9.6972736E2,9.1923164E1,6.883461E0,1.7848824E3,6.0008367E4,5.9319445E4,8.8702856E2,1.6246307E1,2.3732212E0,1.6398959E3,5.52086E2,6.834392E1,1.19645E0,1.16560135E2,6.666648E1,2.1529407E3,1.8679647E1,1.6463575E3,7.6336855E3,8.3251236E1,1.3737377E3,5.0700466E1,2.6095402E1,8.237928E0,7.9692786E2,2.306131E3,2.6380195E3,4.422436E1,9.25503E2,2.3959497E1,1.760923E3,7.397042E2,5.926866E4,5.8386336E4,9.331094E2,8.7487024E2,1.2158324E1,6.868296E2,9.530663E2,5.485583E2,3.5276856E0,7.1251724E1,4.530841E1,6.548007E1,1.1864147E0,5.6700525E0,2.1472705E3,1.2578192E1,6.1014557E0,5.097262E2,1.1366313E3,1.2382449E3,6.395441E3,7.654164E0,1.3660835E3,4.0230793E1,1.0469675E1,2.4911673E1,1.1837285E0,7.9457104E2,2.3568377E0,2.0448195E2,2.1016492E3,1.8712104E3,7.668091E2,9.225417E2,2.9612756E0,3.0944862E0,2.0865011E1,1.4006525E3,3.6027054E2,9.101857E0,7.3060236E2,3.8928024E2,5.8879383E4,9.2152625E2,1.1583098E1,5.756472E2,2.9922305E2,1.4360491E0,1.0722275E1,5.4100586E2,1.4582376E2,7.577781E2,1.9528825E2,5.450132E2,3.5451496E0,2.3531978E0,1.1744878E0,3.4040905E1,3.721082E1,4.4117386E1,1.1910248E0,2.077746E3,6.952459E1,4.794047E2,3.0321497E1,1.312484E2,1.005383E3,7.6154254E2,4.7670227E2,5.6727275E3,7.227133E2,1.7273571E0,5.926807E0,1.3456196E3,2.0463902E1,1.37047415E1,2.652605E1,9.257586E0,1.2120895E0,7.912834E2,3.2876453E0,6.194588E1,1.4253607E2,1.4186578E3,6.829912E2,6.18817E1,1.8093287E3,3.8447132E1,7.28362E2,9.197011E2,2.8406153E0,3.4629477E2,1.0543577E3,3.5829803E2,1.9724828E0,6.0075493E0,3.0943077E0,1.59965315E1,7.1460583E2,3.4003718E0,3.8587985E2,1.0425393E3,5.7836844E4,9.169726E2,4.553664E0,4.509348E0,7.07375E0,5.1442017E2,6.1227013E1,4.7261856E1,4.93744E2,1.3545844E2,1.0365335E1,7.5135706E2,6.421014E0,1.1771994E2,7.756831E1,2.366379E0,1.1787705E0,1.2686614E1,2.135429E1,6.2666874E1,6.857714E0,1.7462923E2,3.0477548E2,3.7287757E0,2.659272E1,4.1567688E1,8.968071E1,2.3235567E2,7.7302734E2,7.250312E2,3.651136E1,4.6401688E2,1.2685378E1,1.6714191E3,4.0013083E3,6.087455E2,1.139678E2,1.2380241E0,1.3443816E3,1.0558451E1,9.905452E0,7.988761E0,5.71598E0,1.642673E0,1.6449723E0,2.6544027E1,3.5401855E1,9.773304E1,4.480303E1,1.3419507E3,7.670717E1,6.347144E1,6.195198E2,3.5719666E1,2.6162033E1,1.7867001E3,2.2628662E1,1.5338497E1,2.3108635E1,1.729628E1,7.110657E2,9.1845966E2,1.241442E0,1.6632005E0,1.1774149E0,2.8613565E1,3.1768118E2,8.8093025E1,9.6626465E2,3.5710687E2,1.1911645E0,1.3039869E1,2.9566624E0,6.419533E2,7.265254E1,3.7546756E2,1.04123E1,5.0270376E0,1.0375123E3],"tree_param":{"num_deleted":"0","num_feature":"170","num_nodes":"239","size_leaf_vector":"1"}},{"base_weights":[6.745228E-5,-1.4273785E0,1.2731599E0,-1.5388265E0,-2.9785097E-1,8.437516E-2,1.5256788E0,-1.5628022E0,-1.0782073E0,1.07464366E-1,-1.4379662E0,3.659083E-1,-1.455123E0,-1.2357043E0,1.5346131E0,-1.5634371E0,7.713644E-1,-1.1729751E0,1.4103425E0,-1.7308317E-1,1.4784822E0,-1.5511571E0,1.287986E0,8.896907E-2,1.4173752E0,-1.5604444E0,6.1915945E-2,-6.250221E-2,6.015989E-2,1.0081366E0,1.5583074E0,-1.563515E0,4.5503072E-2,5.8816917E-2,-5.040837E-2,-1.2004392E0,1.5205356E0,6.36018E-2,-5.4792903E-2,-4.164002E-1,2.614359E-1,-5.804849E-2,1.5208561E0,-1.5631529E0,-4.784879E-1,6.171653E-2,-5.3792156E-2,-1.542807E0,1.2862773E-1,-6.1538383E-2,1.4601492E0,-6.28845E-2,5.6039494E-2,1.0605087E0,-1.4064227E0,1.5589044E0,-1.1160674E0,-1.5635924E0,2.2915542E-1,-1.0209032E0,-1.5633489E0,1.838462E-2,6.1920386E-2,-4.652277E-1,1.6062279E0,-6.2047787E-2,3.0908808E-1,-2.6581319E-2,6.328569E-2,-4.2946228E-1,-1.5647019E0,5.4287016E-2,-5.8104508E-2,-6.418081E-2,-4.1200605E-1,1.5537792E-2,4.0660083E-1,6.311825E-2,6.688565E-1,9.222196E-1,1.5595459E0,-6.306981E-2,4.8341535E-2,1.3236139E0,1.5630939E0,-6.2317528E-2,4.2999886E-2,-6.261893E-2,-1.4759606E0,3.608471E-2,-2.1989325E-2,-1.0441681E0,9.689746E-1,-1.5662708E0,8.072463E-3,-1.0813315E0,-3.421597E-1,6.722902E-2,-2.7319452E-2,-1.03333406E-1,5.0949204E-1,-6.8150085E-1,1.1493558E0,1.1004001E-2,-3.765254E-2,-1.5657263E0,-1.672421E-2,-9.9474716E-1,8.125484E-1,-4.6371636E-1,9.21035E-2,3.274652E-1,8.3168405E-1,2.1824662E-1,1.3650382E0,7.4489504E-2,9.6347326E-1,4.038308E-1,1.565794E0,1.3388041E0,-9.5717174E-1,1.5631784E0,-4.426137E-2,-5.9432797E-2,5.367E-2,-4.5932654E-2,-2.5350599E-2,-5.4162562E-2,6.7565456E-2,-6.2729135E-2,-5.3049315E-4,-2.2698727E-2,-5.0286837E-2,-2.0965613E-2,6.8759033E-3,1.0371846E-2,-1.4109518E-2,2.2637216E-2,-2.7662713E-2,2.6480991E-2,-4.7169495E-2,-4.426804E-3,6.729518E-2,-6.26768E-2,-2.5297085E-2,-5.265902E-2,1.3490158E-2,5.151776E-2,-9.329225E-3,3.9641935E-2,-2.1619944E-2,